/* Species # 796         : (size= 003) (AvfFit= 0,000) (Age= 4,000)  */
/*-------------------------------------------------------------------*/
/* Organism # 000 Fitness: - 83,990 Error:  0,000                      */
genomestart  0
trait 1 0.40324445519286445 0.007038295957329216 0.15185111520786962 0.06007620048927528 0.40025809948125723 0.1093572895205901 0.1284329015525894 0.4627822555597639 
node 1 1 1 1
node 2 1 1 1
node 3 1 1 1
node 4 1 1 1
node 5 1 1 1
node 6 1 1 1
node 7 1 1 1
node 8 1 1 1
node 9 1 1 1
node 10 1 1 1
node 11 1 1 1
node 12 1 1 1
node 13 1 1 1
node 14 1 1 1
node 15 1 1 1
node 16 1 1 1
node 17 1 1 1
node 18 1 1 1
node 19 1 1 1
node 20 1 1 1
node 21 1 1 1
node 22 1 1 1
node 23 1 1 1
node 24 1 1 1
node 25 1 1 1
node 26 1 1 1
node 27 1 1 1
node 28 1 1 1
node 29 1 1 1
node 30 1 1 1
node 31 1 1 1
node 32 1 1 1
node 33 1 1 1
node 34 1 1 1
node 35 1 1 1
node 36 1 1 1
node 37 1 1 1
node 38 1 1 1
node 39 1 1 1
node 40 1 1 1
node 41 1 1 1
node 42 1 1 1
node 43 1 1 1
node 44 1 1 1
node 45 1 1 1
node 46 1 1 1
node 47 1 1 1
node 48 1 1 1
node 49 1 1 1
node 50 1 1 1
node 51 1 1 1
node 52 1 1 1
node 53 1 1 1
node 54 1 1 1
node 55 1 1 1
node 56 1 1 1
node 57 1 1 1
node 58 1 1 1
node 59 1 1 1
node 60 1 1 1
node 61 1 1 1
node 62 1 1 1
node 63 1 1 1
node 64 1 1 1
node 65 1 1 1
node 66 1 1 1
node 67 1 1 1
node 68 1 1 1
node 69 1 1 1
node 70 1 1 1
node 71 1 1 1
node 72 1 1 1
node 73 1 1 1
node 74 1 1 1
node 75 1 1 1
node 76 1 1 1
node 77 1 1 1
node 78 1 1 1
node 79 1 1 1
node 80 1 1 1
node 81 1 1 1
node 82 1 1 1
node 83 1 1 1
node 84 1 1 1
node 85 1 1 1
node 86 1 1 1
node 87 1 1 1
node 88 1 1 1
node 89 1 1 1
node 90 1 1 1
node 91 1 1 1
node 92 1 1 1
node 93 1 1 1
node 94 1 1 1
node 95 1 1 1
node 96 1 1 1
node 97 1 1 1
node 98 1 1 1
node 99 1 1 1
node 100 1 1 1
node 101 1 1 1
node 102 1 1 1
node 103 1 1 1
node 104 1 1 1
node 105 1 1 1
node 106 1 1 1
node 107 1 1 1
node 108 1 1 1
node 109 1 1 1
node 110 1 1 1
node 111 1 1 1
node 112 1 1 1
node 113 1 1 1
node 114 1 1 1
node 115 1 1 1
node 116 1 1 1
node 117 1 1 1
node 118 1 1 1
node 119 1 1 1
node 120 1 1 1
node 121 1 1 1
node 122 1 1 1
node 123 1 1 1
node 124 1 1 3
node 125 1 0 0
node 126 1 0 0
node 127 1 0 0
node 128 1 0 0
node 129 1 0 0
node 130 1 0 0
node 131 1 0 0
node 132 1 0 0
node 155 1 0 2
node 156 1 0 2
node 157 1 0 2
node 158 1 0 2
node 159 1 0 2
node 286 1 0 0
node 306 1 0 0
node 336 1 0 0
node 412 1 0 0
node 419 1 0 0
node 461 1 0 0
node 464 1 0 0
node 496 1 0 0
node 511 1 0 0
node 537 1 0 0
gene  1 1 125 -0.12138020240138762 0 19716.0 -0.12138020240138762 1
gene  1 2 125 -0.35591026763350175 0 19717.0 -0.35591026763350175 1
gene  1 6 125 -1.0109580659410158 0 19721.0 -1.0109580659410158 1
gene  1 9 125 0.07827298937490766 0 19724.0 0.07827298937490766 1
gene  1 14 125 -0.5415747164862361 0 19729.0 -0.5415747164862361 1
gene  1 15 125 -0.2619393942897371 0 19730.0 -0.2619393942897371 1
gene  1 17 125 0.3855026864667626 0 19732.0 0.3855026864667626 1
gene  1 18 125 0.45825399038433146 0 19733.0 0.45825399038433146 1
gene  1 21 125 -0.14906794993758074 0 19736.0 -0.14906794993758074 1
gene  1 22 125 -1.274435030557002 0 19737.0 -1.274435030557002 1
gene  1 26 125 0.3069320329352773 0 19741.0 0.3069320329352773 1
gene  1 28 125 0.9782749596209792 0 19743.0 0.9782749596209792 1
gene  1 31 125 -0.34060326562691506 0 19746.0 -0.34060326562691506 1
gene  1 32 125 -0.4583946808827698 0 19747.0 -0.4583946808827698 1
gene  1 33 125 -0.1649962119321772 0 19748.0 -0.1649962119321772 1
gene  1 35 125 -0.14471519545010286 0 19750.0 -0.14471519545010286 1
gene  1 37 125 -0.7582319375765102 0 19752.0 -0.7582319375765102 1
gene  1 38 125 -0.08326832197901429 0 19753.0 -0.08326832197901429 1
gene  1 40 125 -0.8574639845643374 0 19755.0 -0.8574639845643374 1
gene  1 43 125 0.8982795709861838 0 19758.0 0.8982795709861838 1
gene  1 44 125 -0.7054261999852789 0 19759.0 -0.7054261999852789 1
gene  1 45 125 0.28295205872143236 0 19760.0 0.28295205872143236 1
gene  1 50 125 -0.7612577238130727 0 19765.0 -0.7612577238130727 1
gene  1 51 125 -0.39845351946817303 0 19766.0 -0.39845351946817303 1
gene  1 53 125 -0.30877729113944935 0 19768.0 -0.30877729113944935 1
gene  1 54 125 -0.3986873097158557 0 19769.0 -0.3986873097158557 1
gene  1 55 125 -0.39376510667965225 0 19770.0 -0.39376510667965225 1
gene  1 59 125 0.1923979407387908 0 19774.0 0.1923979407387908 1
gene  1 60 125 -0.2775944947692475 0 19775.0 -0.2775944947692475 1
gene  1 62 125 -0.2954742925869629 0 19777.0 -0.2954742925869629 1
gene  1 63 125 0.7199456329821806 0 19778.0 0.7199456329821806 1
gene  1 64 125 0.012909988403362823 0 19779.0 0.012909988403362823 1
gene  1 68 125 0.22006569499767872 0 19783.0 0.22006569499767872 1
gene  1 70 125 -0.1220012791856636 0 19785.0 -0.1220012791856636 1
gene  1 71 125 0.5231865697104564 0 19786.0 0.5231865697104564 1
gene  1 73 125 0.4544536481508279 0 19788.0 0.4544536481508279 1
gene  1 74 125 0.18912151979747654 0 19789.0 0.18912151979747654 1
gene  1 75 125 -0.25776482241340654 0 19790.0 -0.25776482241340654 1
gene  1 77 125 -0.6366489189129745 0 19792.0 -0.6366489189129745 1
gene  1 78 125 0.7456512336065948 0 19793.0 0.7456512336065948 1
gene  1 84 125 -0.4388956305655461 0 19799.0 -0.4388956305655461 1
gene  1 85 125 0.15137289353953504 0 19800.0 0.15137289353953504 1
gene  1 86 125 -0.6327439919076913 0 19801.0 -0.6327439919076913 1
gene  1 87 125 -0.07615824387076582 0 19802.0 -0.07615824387076582 1
gene  1 88 125 0.6317531306018807 0 19803.0 0.6317531306018807 1
gene  1 91 125 0.2176769636182787 0 19806.0 0.2176769636182787 1
gene  1 92 125 -0.1272485939557612 0 19807.0 -0.1272485939557612 1
gene  1 94 125 -0.34952386215799014 0 19809.0 -0.34952386215799014 1
gene  1 98 125 0.006845274161795624 0 19813.0 0.006845274161795624 1
gene  1 99 125 0.6843848945677928 0 19814.0 0.6843848945677928 1
gene  1 100 125 -0.3581513298519505 0 19815.0 -0.3581513298519505 1
gene  1 101 125 0.5609547636223868 0 19816.0 0.5609547636223868 1
gene  1 109 125 0.11490437659410975 0 19824.0 0.11490437659410975 1
gene  1 112 125 -0.16833102482750945 0 19827.0 -0.16833102482750945 1
gene  1 114 125 -0.7944104495987984 0 19829.0 -0.7944104495987984 1
gene  1 116 125 0.5287912728411693 0 19831.0 0.5287912728411693 1
gene  1 117 125 0.03006824914999076 0 19832.0 0.03006824914999076 1
gene  1 118 125 0.18389387930133191 0 19833.0 0.18389387930133191 1
gene  1 121 125 -0.48953495461733076 0 19836.0 -0.48953495461733076 1
gene  1 122 125 0.5996820357137613 0 19837.0 0.5996820357137613 1
gene  1 123 125 -0.36424510328681736 0 19838.0 -0.36424510328681736 1
gene  1 124 125 -0.6798827459061798 0 19839.0 -0.6798827459061798 1
gene  1 125 125 0.46145558662941794 1 19840.0 0.46145558662941794 1
gene  1 126 125 -0.3558940631373764 1 19841.0 -0.3558940631373764 1
gene  1 127 125 -0.7429769693849733 1 19842.0 -0.7429769693849733 1
gene  1 128 125 0.6812752966234846 1 19843.0 0.6812752966234846 1
gene  1 131 125 -0.292821642493272 1 19846.0 -0.292821642493272 1
gene  1 156 125 -0.189344286010878 1 19871.0 -0.189344286010878 1
gene  1 157 125 0.7575338196958513 1 19872.0 0.7575338196958513 1
gene  1 159 125 -0.9607707017525428 1 19874.0 -0.9607707017525428 1
gene  1 3 126 0.8472649488195934 0 19877.0 0.8472649488195934 1
gene  1 4 126 0.13453563892769083 0 19878.0 0.13453563892769083 1
gene  1 8 126 0.7011236994770399 0 19882.0 0.7011236994770399 1
gene  1 10 126 -0.011982708491672406 0 19884.0 -0.011982708491672406 1
gene  1 11 126 -0.6149220823413307 0 19885.0 -0.6149220823413307 1
gene  1 12 126 0.6250801269658739 0 19886.0 0.6250801269658739 1
gene  1 13 126 0.5312084577733475 0 19887.0 0.5312084577733475 1
gene  1 16 126 0.2038192166747321 0 19890.0 0.2038192166747321 1
gene  1 19 126 -0.7930239830546124 0 19893.0 -0.7930239830546124 1
gene  1 20 126 -0.11791122690527063 0 19894.0 -0.11791122690527063 1
gene  1 22 126 0.3844138334797124 0 19896.0 0.3844138334797124 1
gene  1 23 126 0.8355140729415531 0 19897.0 0.8355140729415531 1
gene  1 24 126 0.010172433495733518 0 19898.0 0.010172433495733518 1
gene  1 28 126 -0.47650832302407853 0 19902.0 -0.47650832302407853 1
gene  1 31 126 -0.19431298750312248 0 19905.0 -0.19431298750312248 1
gene  1 32 126 0.6533527924797244 0 19906.0 0.6533527924797244 1
gene  1 33 126 0.6766313796083612 0 19907.0 0.6766313796083612 1
gene  1 34 126 -0.4045373174668417 0 19908.0 -0.4045373174668417 1
gene  1 35 126 0.11107732363202594 0 19909.0 0.11107732363202594 1
gene  1 36 126 0.32623070543859195 0 19910.0 0.32623070543859195 1
gene  1 39 126 0.6234849011340529 0 19913.0 0.6234849011340529 1
gene  1 40 126 -0.38240431564217553 0 19914.0 -0.38240431564217553 1
gene  1 42 126 0.08446712048374654 0 19916.0 0.08446712048374654 1
gene  1 43 126 -0.9819726485053147 0 19917.0 -0.9819726485053147 1
gene  1 44 126 -0.5124351526270781 0 19918.0 -0.5124351526270781 1
gene  1 45 126 -0.4497091504138826 0 19919.0 -0.4497091504138826 1
gene  1 46 126 0.6919353356185599 0 19920.0 0.6919353356185599 1
gene  1 47 126 -0.32711957244734324 0 19921.0 -0.32711957244734324 1
gene  1 50 126 0.7041353128360013 0 19924.0 0.7041353128360013 1
gene  1 52 126 -0.8332478723936514 0 19926.0 -0.8332478723936514 1
gene  1 54 126 -0.8888883477368742 0 19928.0 -0.8888883477368742 1
gene  1 56 126 0.19309848324011783 0 19930.0 0.19309848324011783 1
gene  1 59 126 -0.5870992315858051 0 19933.0 -0.5870992315858051 1
gene  1 63 126 0.48695505388927596 0 19937.0 0.48695505388927596 1
gene  1 64 126 -0.14251334668194038 0 19938.0 -0.14251334668194038 1
gene  1 65 126 0.7767195201747281 0 19939.0 0.7767195201747281 1
gene  1 66 126 0.0992979987183452 0 19940.0 0.0992979987183452 1
gene  1 68 126 -0.0690517323924624 0 19942.0 -0.0690517323924624 1
gene  1 69 126 -0.9382042883309369 0 19943.0 -0.9382042883309369 1
gene  1 73 126 0.4402432855168119 0 19947.0 0.4402432855168119 1
gene  1 74 126 -0.8681283080146479 0 19948.0 -0.8681283080146479 1
gene  1 77 126 -0.5902885698686493 0 19951.0 -0.5902885698686493 1
gene  1 78 126 0.9665704813521417 0 19952.0 0.9665704813521417 1
gene  1 79 126 -0.9302387232519789 0 19953.0 -0.9302387232519789 1
gene  1 80 126 -0.3609932500992078 0 19954.0 -0.3609932500992078 1
gene  1 81 126 -0.3971766899116566 0 19955.0 -0.3971766899116566 1
gene  1 82 126 0.03080154331493802 0 19956.0 0.03080154331493802 1
gene  1 92 126 0.4721280333271945 0 19966.0 0.4721280333271945 1
gene  1 93 126 0.27133170723340333 0 19967.0 0.27133170723340333 1
gene  1 94 126 0.4535335056919736 0 19968.0 0.4535335056919736 1
gene  1 95 126 -0.4429761902658736 0 19969.0 -0.4429761902658736 1
gene  1 96 126 1.0690195134940046 0 19970.0 1.0690195134940046 1
gene  1 99 126 0.7543488887622316 0 19973.0 0.7543488887622316 1
gene  1 100 126 -0.09808967582908468 0 19974.0 -0.09808967582908468 1
gene  1 101 126 -0.06229901273187881 0 19975.0 -0.06229901273187881 1
gene  1 102 126 0.6481907291492918 0 19976.0 0.6481907291492918 1
gene  1 103 126 0.8491418877136309 0 19977.0 0.8491418877136309 1
gene  1 105 126 -0.5624834823086655 0 19979.0 -0.5624834823086655 1
gene  1 109 126 0.21555407786439967 0 19983.0 0.21555407786439967 1
gene  1 110 126 -0.7768314313015003 0 19984.0 -0.7768314313015003 1
gene  1 112 126 0.15701326073064545 0 19986.0 0.15701326073064545 1
gene  1 113 126 -1.1734873367343386 0 19987.0 -1.1734873367343386 1
gene  1 117 126 -0.9104034743515953 0 19991.0 -0.9104034743515953 1
gene  1 118 126 -0.5577712370403899 0 19992.0 -0.5577712370403899 1
gene  1 119 126 -0.14865755117572924 0 19993.0 -0.14865755117572924 1
gene  1 120 126 -0.4013988640232951 0 19994.0 -0.4013988640232951 1
gene  1 123 126 -0.6128858969737007 0 19997.0 -0.6128858969737007 1
gene  1 124 126 -0.7618136525273256 0 19998.0 -0.7618136525273256 1
gene  1 125 126 -0.5427815877771355 0 19999.0 -0.5427815877771355 1
gene  1 128 126 0.2719546606685661 1 20002.0 0.2719546606685661 1
gene  1 132 126 -0.41975178479992215 1 20006.0 -0.41975178479992215 1
gene  1 155 126 0.6531628825131439 1 20029.0 0.6531628825131439 1
gene  1 156 126 -0.22348568972326618 1 20030.0 -0.22348568972326618 1
gene  1 158 126 -0.3978678691947155 1 20032.0 -0.3978678691947155 1
gene  1 159 126 -0.21226542304375565 1 20033.0 -0.21226542304375565 1
gene  1 4 127 0.21755503984048977 0 20037.0 0.21755503984048977 1
gene  1 8 127 -0.04991604020226673 0 20041.0 -0.04991604020226673 1
gene  1 11 127 0.7355433221047826 0 20044.0 0.7355433221047826 1
gene  1 13 127 0.8015394631469095 0 20046.0 0.8015394631469095 1
gene  1 16 127 -0.33572542730871485 0 20049.0 -0.33572542730871485 1
gene  1 17 127 0.0900836486810395 0 20050.0 0.0900836486810395 1
gene  1 21 127 -0.7160858568378903 0 20054.0 -0.7160858568378903 1
gene  1 23 127 0.5003638957525111 0 20056.0 0.5003638957525111 1
gene  1 25 127 -0.6654165972543215 0 20058.0 -0.6654165972543215 1
gene  1 29 127 -0.4070313861721805 0 20062.0 -0.4070313861721805 1
gene  1 31 127 0.31179089224308826 0 20064.0 0.31179089224308826 1
gene  1 32 127 -0.3408143261223484 0 20065.0 -0.3408143261223484 1
gene  1 33 127 -1.0325175125401698 0 20066.0 -1.0325175125401698 1
gene  1 36 127 0.020330334726730875 0 20069.0 0.020330334726730875 1
gene  1 37 127 -0.4060780519412974 0 20070.0 -0.4060780519412974 1
gene  1 38 127 -0.19790977344874947 0 20071.0 -0.19790977344874947 1
gene  1 41 127 0.8862028317795722 0 20074.0 0.8862028317795722 1
gene  1 42 127 0.04293215320661031 0 20075.0 0.04293215320661031 1
gene  1 45 127 -0.7890645923783443 0 20078.0 -0.7890645923783443 1
gene  1 47 127 -0.569272323834608 0 20080.0 -0.569272323834608 1
gene  1 48 127 0.07568219226239499 0 20081.0 0.07568219226239499 1
gene  1 51 127 0.1508946069637019 0 20084.0 0.1508946069637019 1
gene  1 52 127 -0.6842529327077396 0 20085.0 -0.6842529327077396 1
gene  1 57 127 0.47694631427792383 0 20090.0 0.47694631427792383 1
gene  1 58 127 -0.2990464595760926 0 20091.0 -0.2990464595760926 1
gene  1 61 127 -0.306052650088905 0 20094.0 -0.306052650088905 1
gene  1 63 127 -0.2992426847626193 0 20096.0 -0.2992426847626193 1
gene  1 64 127 0.7777981105090137 0 20097.0 0.7777981105090137 1
gene  1 65 127 -0.09577510589970732 0 20098.0 -0.09577510589970732 1
gene  1 67 127 -0.4474890705623576 0 20100.0 -0.4474890705623576 1
gene  1 68 127 -0.8387217594261483 0 20101.0 -0.8387217594261483 1
gene  1 69 127 0.7741655903539644 0 20102.0 0.7741655903539644 1
gene  1 70 127 -0.5322557793375463 0 20103.0 -0.5322557793375463 1
gene  1 71 127 0.8915533303252227 0 20104.0 0.8915533303252227 1
gene  1 73 127 0.5034973102361678 0 20106.0 0.5034973102361678 1
gene  1 75 127 -0.5732819809790637 0 20108.0 -0.5732819809790637 1
gene  1 81 127 0.7003457636528223 0 20114.0 0.7003457636528223 1
gene  1 83 127 0.2822637353862336 0 20116.0 0.2822637353862336 1
gene  1 84 127 -0.9393523002376809 0 20117.0 -0.9393523002376809 1
gene  1 86 127 0.34099364336856264 0 20119.0 0.34099364336856264 1
gene  1 87 127 0.29617876201487836 0 20120.0 0.29617876201487836 1
gene  1 90 127 -0.11922967353409306 0 20123.0 -0.11922967353409306 1
gene  1 92 127 0.8272902795302506 0 20125.0 0.8272902795302506 1
gene  1 96 127 -0.13342875790990955 0 20129.0 -0.13342875790990955 1
gene  1 97 127 0.49754439973685843 0 20130.0 0.49754439973685843 1
gene  1 101 127 -0.21183602150645192 0 20134.0 -0.21183602150645192 1
gene  1 102 127 -0.5280780208288085 0 20135.0 -0.5280780208288085 1
gene  1 104 127 0.42056092681842816 0 20137.0 0.42056092681842816 1
gene  1 106 127 0.09057288063952634 0 20139.0 0.09057288063952634 1
gene  1 107 127 0.2686899861404557 0 20140.0 0.2686899861404557 1
gene  1 109 127 0.19308279768934242 0 20142.0 0.19308279768934242 1
gene  1 110 127 0.06745231517633371 0 20143.0 0.06745231517633371 1
gene  1 111 127 -0.4689648857079947 0 20144.0 -0.4689648857079947 1
gene  1 113 127 0.4758623661437095 0 20146.0 0.4758623661437095 1
gene  1 116 127 -0.540905367109465 0 20149.0 -0.540905367109465 1
gene  1 117 127 -0.515889530479805 0 20150.0 -0.515889530479805 1
gene  1 118 127 -0.6092318644561439 0 20151.0 -0.6092318644561439 1
gene  1 125 127 0.4470194010987177 0 20158.0 0.4470194010987177 1
gene  1 129 127 0.45496347569839485 1 20162.0 0.45496347569839485 1
gene  1 130 127 0.36948192994887546 1 20163.0 0.36948192994887546 1
gene  1 131 127 0.6992149188276897 1 20164.0 0.6992149188276897 1
gene  1 132 127 -0.43365208466879457 1 20165.0 -0.43365208466879457 1
gene  1 155 127 -0.2759114116008636 1 20188.0 -0.2759114116008636 1
gene  1 157 127 0.01260185918301393 1 20190.0 0.01260185918301393 1
gene  1 159 127 0.5788008486865577 1 20192.0 0.5788008486865577 1
gene  1 2 128 -0.17750084398492028 0 20194.0 -0.17750084398492028 1
gene  1 3 128 -0.45115081873348806 0 20195.0 -0.45115081873348806 1
gene  1 4 128 0.6095794628638136 0 20196.0 0.6095794628638136 1
gene  1 6 128 0.9643544938362524 0 20198.0 0.9643544938362524 1
gene  1 7 128 0.12936254595218766 0 20199.0 0.12936254595218766 1
gene  1 8 128 0.39056451909860385 0 20200.0 0.39056451909860385 1
gene  1 10 128 -0.8911081048798689 0 20202.0 -0.8911081048798689 1
gene  1 11 128 0.8020448345238079 0 20203.0 0.8020448345238079 1
gene  1 17 128 -0.7402213956639636 0 20209.0 -0.7402213956639636 1
gene  1 18 128 -0.30830899189063865 0 20210.0 -0.30830899189063865 1
gene  1 19 128 0.6407788296986245 0 20211.0 0.6407788296986245 1
gene  1 21 128 -0.3311577190942792 0 20213.0 -0.3311577190942792 1
gene  1 22 128 0.6012363301273491 0 20214.0 0.6012363301273491 1
gene  1 29 128 -0.17072813305723847 0 20221.0 -0.17072813305723847 1
gene  1 30 128 -0.6821233354988794 0 20222.0 -0.6821233354988794 1
gene  1 31 128 0.13682370604273572 0 20223.0 0.13682370604273572 1
gene  1 32 128 0.4118864084833442 0 20224.0 0.4118864084833442 1
gene  1 34 128 -0.5933755133576114 0 20226.0 -0.5933755133576114 1
gene  1 35 128 -0.4476707817939258 0 20227.0 -0.4476707817939258 1
gene  1 37 128 0.6776049385315448 0 20229.0 0.6776049385315448 1
gene  1 38 128 -0.9291953952414008 0 20230.0 -0.9291953952414008 1
gene  1 42 128 0.33249940208487416 0 20234.0 0.33249940208487416 1
gene  1 43 128 -0.8235157615262807 0 20235.0 -0.8235157615262807 1
gene  1 48 128 -0.21834809239766156 0 20240.0 -0.21834809239766156 1
gene  1 49 128 0.15360747650695053 0 20241.0 0.15360747650695053 1
gene  1 50 128 -0.24109302843654123 0 20242.0 -0.24109302843654123 1
gene  1 51 128 0.6530417116234767 0 20243.0 0.6530417116234767 1
gene  1 52 128 0.568882880545273 0 20244.0 0.568882880545273 1
gene  1 54 128 0.8678628881695633 0 20246.0 0.8678628881695633 1
gene  1 58 128 -0.14379743205859502 0 20250.0 -0.14379743205859502 1
gene  1 59 128 0.32168181411932806 0 20251.0 0.32168181411932806 1
gene  1 63 128 -0.3265468882467088 0 20255.0 -0.3265468882467088 1
gene  1 69 128 -0.13674176709438884 0 20261.0 -0.13674176709438884 1
gene  1 72 128 -0.3572426153995712 0 20264.0 -0.3572426153995712 1
gene  1 73 128 0.1340110904034609 0 20265.0 0.1340110904034609 1
gene  1 75 128 0.716022382878938 0 20267.0 0.716022382878938 1
gene  1 76 128 0.6254759063302834 0 20268.0 0.6254759063302834 1
gene  1 81 128 -0.7612953835877866 0 20273.0 -0.7612953835877866 1
gene  1 85 128 -1.1325933702839324 0 20277.0 -1.1325933702839324 1
gene  1 87 128 -0.4755040827218302 0 20279.0 -0.4755040827218302 1
gene  1 90 128 0.19286411766875644 0 20282.0 0.19286411766875644 1
gene  1 93 128 -0.2096181033277881 0 20285.0 -0.2096181033277881 1
gene  1 94 128 -0.1369953276809702 0 20286.0 -0.1369953276809702 1
gene  1 96 128 0.4036971986561363 0 20288.0 0.4036971986561363 1
gene  1 98 128 0.36765850077785983 0 20290.0 0.36765850077785983 1
gene  1 99 128 -0.16630379032389292 0 20291.0 -0.16630379032389292 1
gene  1 101 128 0.056641036266560876 0 20293.0 0.056641036266560876 1
gene  1 103 128 -0.34769155556533116 0 20295.0 -0.34769155556533116 1
gene  1 107 128 0.8512714145153569 0 20299.0 0.8512714145153569 1
gene  1 108 128 -0.7502707789112164 0 20300.0 -0.7502707789112164 1
gene  1 110 128 0.4920972321807591 0 20302.0 0.4920972321807591 1
gene  1 112 128 0.7574061047195995 0 20304.0 0.7574061047195995 1
gene  1 114 128 -0.1878163827760175 0 20306.0 -0.1878163827760175 1
gene  1 115 128 0.3938092951705275 0 20307.0 0.3938092951705275 1
gene  1 118 128 0.6836860191937082 0 20310.0 0.6836860191937082 1
gene  1 119 128 -0.7163241729909272 0 20311.0 -0.7163241729909272 1
gene  1 121 128 0.6746759415889313 0 20313.0 0.6746759415889313 1
gene  1 122 128 0.2756435864683437 0 20314.0 0.2756435864683437 1
gene  1 123 128 -0.2566572607227385 0 20315.0 -0.2566572607227385 1
gene  1 125 128 -0.15725786178817625 0 20317.0 -0.15725786178817625 1
gene  1 126 128 -0.4388962337502661 0 20318.0 -0.4388962337502661 1
gene  1 128 128 0.100513491881834 1 20320.0 0.100513491881834 1
gene  1 155 128 -0.1851644311540133 1 20347.0 -0.1851644311540133 1
gene  1 156 128 -0.19869660126322186 1 20348.0 -0.19869660126322186 1
gene  1 158 128 -0.21256204014604924 1 20350.0 -0.21256204014604924 1
gene  1 159 128 0.6960035586589703 1 20351.0 0.6960035586589703 1
gene  1 1 129 -0.5371048774523843 0 20352.0 -0.5371048774523843 1
gene  1 2 129 -0.22851474110802739 0 20353.0 -0.22851474110802739 1
gene  1 4 129 0.6715676838029042 0 20355.0 0.6715676838029042 1
gene  1 5 129 -0.6082783165635025 0 20356.0 -0.6082783165635025 1
gene  1 6 129 -0.2752416192786888 0 20357.0 -0.2752416192786888 1
gene  1 7 129 0.09360075975442131 0 20358.0 0.09360075975442131 1
gene  1 8 129 0.5069667529665852 0 20359.0 0.5069667529665852 1
gene  1 11 129 0.33199351300717617 0 20362.0 0.33199351300717617 1
gene  1 12 129 0.4944316164189911 0 20363.0 0.4944316164189911 1
gene  1 16 129 0.6636829200175618 0 20367.0 0.6636829200175618 1
gene  1 17 129 0.9082676362407928 0 20368.0 0.9082676362407928 1
gene  1 20 129 -0.19698619120141186 0 20371.0 -0.19698619120141186 1
gene  1 23 129 -0.7881476456489233 0 20374.0 -0.7881476456489233 1
gene  1 25 129 -0.4102967454727726 0 20376.0 -0.4102967454727726 1
gene  1 26 129 0.6633189994737516 0 20377.0 0.6633189994737516 1
gene  1 27 129 -0.30143928667094405 0 20378.0 -0.30143928667094405 1
gene  1 28 129 -0.23534449966486456 0 20379.0 -0.23534449966486456 1
gene  1 35 129 0.2799951986120385 0 20386.0 0.2799951986120385 1
gene  1 36 129 -0.15063901150737852 0 20387.0 -0.15063901150737852 1
gene  1 37 129 -0.5992601224363825 0 20388.0 -0.5992601224363825 1
gene  1 39 129 0.6282145830112746 0 20390.0 0.6282145830112746 1
gene  1 41 129 0.8744976193003549 0 20392.0 0.8744976193003549 1
gene  1 42 129 0.69501067084947 0 20393.0 0.69501067084947 1
gene  1 44 129 0.49131599936275 0 20395.0 0.49131599936275 1
gene  1 45 129 0.1582493470848626 0 20396.0 0.1582493470848626 1
gene  1 46 129 0.8169935795301136 0 20397.0 0.8169935795301136 1
gene  1 49 129 0.500484299876591 0 20400.0 0.500484299876591 1
gene  1 51 129 0.8523990444076213 0 20402.0 0.8523990444076213 1
gene  1 52 129 -0.6894553125904662 0 20403.0 -0.6894553125904662 1
gene  1 53 129 0.21720789114379158 0 20404.0 0.21720789114379158 1
gene  1 57 129 -0.6457217742753608 0 20408.0 -0.6457217742753608 1
gene  1 61 129 0.4878444689109165 0 20412.0 0.4878444689109165 1
gene  1 64 129 -0.4426153799582941 0 20415.0 -0.4426153799582941 1
gene  1 66 129 0.26021747481325735 0 20417.0 0.26021747481325735 1
gene  1 67 129 -0.7583987545061559 0 20418.0 -0.7583987545061559 1
gene  1 71 129 0.629605278874457 0 20422.0 0.629605278874457 1
gene  1 72 129 0.6428100394077592 0 20423.0 0.6428100394077592 1
gene  1 73 129 -0.43110607691151637 0 20424.0 -0.43110607691151637 1
gene  1 74 129 0.15196197261416194 0 20425.0 0.15196197261416194 1
gene  1 76 129 0.11210169516132282 0 20427.0 0.11210169516132282 1
gene  1 77 129 -0.33245539192277346 0 20428.0 -0.33245539192277346 1
gene  1 78 129 -0.536679819889819 0 20429.0 -0.536679819889819 1
gene  1 80 129 0.42873409719563943 0 20431.0 0.42873409719563943 1
gene  1 82 129 0.45687457321157177 0 20433.0 0.45687457321157177 1
gene  1 83 129 0.008257048403987464 0 20434.0 0.008257048403987464 1
gene  1 86 129 0.40827775571772085 0 20437.0 0.40827775571772085 1
gene  1 87 129 0.2613231952369358 0 20438.0 0.2613231952369358 1
gene  1 90 129 0.04328456332437121 0 20441.0 0.04328456332437121 1
gene  1 94 129 0.5736575119578002 0 20445.0 0.5736575119578002 1
gene  1 95 129 0.8581868971470923 0 20446.0 0.8581868971470923 1
gene  1 101 129 0.8191084360127152 0 20452.0 0.8191084360127152 1
gene  1 102 129 -0.060386808060312075 0 20453.0 -0.060386808060312075 1
gene  1 103 129 0.88305689051815 0 20454.0 0.88305689051815 1
gene  1 104 129 -0.28682638667786203 0 20455.0 -0.28682638667786203 1
gene  1 106 129 0.27418328270558273 0 20457.0 0.27418328270558273 1
gene  1 108 129 0.029991058487899507 0 20459.0 0.029991058487899507 1
gene  1 110 129 -0.1933064517687345 0 20461.0 -0.1933064517687345 1
gene  1 112 129 0.19519122744672107 0 20463.0 0.19519122744672107 1
gene  1 113 129 -0.9877799959262916 0 20464.0 -0.9877799959262916 1
gene  1 114 129 0.9187340681427749 0 20465.0 0.9187340681427749 1
gene  1 115 129 0.4046679179140892 0 20466.0 0.4046679179140892 1
gene  1 117 129 0.1682370092638582 0 20468.0 0.1682370092638582 1
gene  1 118 129 0.3537371035375603 0 20469.0 0.3537371035375603 1
gene  1 121 129 -0.8373492729703226 0 20472.0 -0.8373492729703226 1
gene  1 122 129 0.08891126763129481 0 20473.0 0.08891126763129481 1
gene  1 125 129 0.26922041636384264 0 20476.0 0.26922041636384264 1
gene  1 126 129 -0.3687879572271494 0 20477.0 -0.3687879572271494 1
gene  1 130 129 0.33963065970042366 1 20481.0 0.33963065970042366 1
gene  1 131 129 -0.7221515255188156 1 20482.0 -0.7221515255188156 1
gene  1 132 129 -0.3928783014787224 1 20483.0 -0.3928783014787224 1
gene  1 1 130 -0.9620166617508022 0 20511.0 -0.9620166617508022 1
gene  1 3 130 0.17981745115092412 0 20513.0 0.17981745115092412 1
gene  1 4 130 0.08027853236564285 0 20514.0 0.08027853236564285 1
gene  1 5 130 0.46406071434798557 0 20515.0 0.46406071434798557 1
gene  1 7 130 0.20639501296158963 0 20517.0 0.20639501296158963 1
gene  1 8 130 0.11803486373698654 0 20518.0 0.11803486373698654 1
gene  1 11 130 0.8492444906225647 0 20521.0 0.8492444906225647 1
gene  1 14 130 0.3487095508873015 0 20524.0 0.3487095508873015 1
gene  1 16 130 0.6434354176713442 0 20526.0 0.6434354176713442 1
gene  1 19 130 0.17051723453424306 0 20529.0 0.17051723453424306 1
gene  1 20 130 0.2612132836611424 0 20530.0 0.2612132836611424 1
gene  1 23 130 1.0599850050554238 0 20533.0 1.0599850050554238 1
gene  1 26 130 -0.49609047948720086 0 20536.0 -0.49609047948720086 1
gene  1 27 130 0.6837436285338496 0 20537.0 0.6837436285338496 1
gene  1 32 130 -0.18673079289852954 0 20542.0 -0.18673079289852954 1
gene  1 35 130 0.2559609149705266 0 20545.0 0.2559609149705266 1
gene  1 36 130 -0.589211802168443 0 20546.0 -0.589211802168443 1
gene  1 39 130 0.09043161414904516 0 20549.0 0.09043161414904516 1
gene  1 40 130 0.5004695480342785 0 20550.0 0.5004695480342785 1
gene  1 41 130 -0.15767426518871303 0 20551.0 -0.15767426518871303 1
gene  1 43 130 0.39101631373347634 0 20553.0 0.39101631373347634 1
gene  1 46 130 -0.1658342441919939 0 20556.0 -0.1658342441919939 1
gene  1 47 130 -0.07744704595697048 0 20557.0 -0.07744704595697048 1
gene  1 48 130 0.3237258255695763 0 20558.0 0.3237258255695763 1
gene  1 49 130 0.21476011059413253 0 20559.0 0.21476011059413253 1
gene  1 51 130 0.2955910540603197 0 20561.0 0.2955910540603197 1
gene  1 52 130 -0.3859171595362577 0 20562.0 -0.3859171595362577 1
gene  1 55 130 0.3654210902331583 0 20565.0 0.3654210902331583 1
gene  1 58 130 0.045726532897431164 0 20568.0 0.045726532897431164 1
gene  1 61 130 0.5235065693968437 0 20571.0 0.5235065693968437 1
gene  1 62 130 -0.22722069143815232 0 20572.0 -0.22722069143815232 1
gene  1 64 130 0.882991436936539 0 20574.0 0.882991436936539 1
gene  1 67 130 -0.3672052981737108 0 20577.0 -0.3672052981737108 1
gene  1 71 130 0.5690563414077461 0 20581.0 0.5690563414077461 1
gene  1 73 130 0.02224771541235583 0 20583.0 0.02224771541235583 1
gene  1 76 130 0.5048065940989648 0 20586.0 0.5048065940989648 1
gene  1 82 130 -0.11988569919190276 0 20592.0 -0.11988569919190276 1
gene  1 83 130 -0.21002326735265034 0 20593.0 -0.21002326735265034 1
gene  1 84 130 0.5688590443295432 0 20594.0 0.5688590443295432 1
gene  1 88 130 0.023384374790144682 0 20598.0 0.023384374790144682 1
gene  1 90 130 0.6181453217213457 0 20600.0 0.6181453217213457 1
gene  1 91 130 0.7141528573378896 0 20601.0 0.7141528573378896 1
gene  1 93 130 0.5074167430639095 0 20603.0 0.5074167430639095 1
gene  1 95 130 -0.9792053827707771 0 20605.0 -0.9792053827707771 1
gene  1 98 130 -0.681393485704811 0 20608.0 -0.681393485704811 1
gene  1 99 130 -0.4338712590926671 0 20609.0 -0.4338712590926671 1
gene  1 101 130 0.6457580268811899 0 20611.0 0.6457580268811899 1
gene  1 106 130 0.5146534113621397 0 20616.0 0.5146534113621397 1
gene  1 107 130 -0.19605636831546433 0 20617.0 -0.19605636831546433 1
gene  1 108 130 -1.0432297905293402 0 20618.0 -1.0432297905293402 1
gene  1 109 130 0.4776143663980716 0 20619.0 0.4776143663980716 1
gene  1 112 130 0.13087055596910918 0 20622.0 0.13087055596910918 1
gene  1 113 130 0.12324855036188788 0 20623.0 0.12324855036188788 1
gene  1 114 130 -0.8285415683000762 0 20624.0 -0.8285415683000762 1
gene  1 115 130 -0.3137555766655615 0 20625.0 -0.3137555766655615 1
gene  1 116 130 0.6390386436962979 0 20626.0 0.6390386436962979 1
gene  1 119 130 -0.28835066807552845 0 20629.0 -0.28835066807552845 1
gene  1 120 130 -0.766995367917839 0 20630.0 -0.766995367917839 1
gene  1 121 130 0.3815468566987474 0 20631.0 0.3815468566987474 1
gene  1 122 130 -0.4335918893353801 0 20632.0 -0.4335918893353801 1
gene  1 123 130 0.24417516012745927 0 20633.0 0.24417516012745927 1
gene  1 128 130 -0.27545551239440147 0 20638.0 -0.27545551239440147 1
gene  1 131 130 0.3250537856840779 1 20641.0 0.3250537856840779 1
gene  1 132 130 -0.39629878543036395 1 20642.0 -0.39629878543036395 1
gene  1 156 130 -0.6240579104660621 1 20666.0 -0.6240579104660621 1
gene  1 1 131 -0.43431929160377913 0 20670.0 -0.43431929160377913 1
gene  1 5 131 0.092038018496037 0 20674.0 0.092038018496037 1
gene  1 9 131 -0.5422695748086035 0 20678.0 -0.5422695748086035 1
gene  1 10 131 -0.30814962933982365 0 20679.0 -0.30814962933982365 1
gene  1 12 131 -0.1312728006980429 0 20681.0 -0.1312728006980429 1
gene  1 13 131 0.07845484017607285 0 20682.0 0.07845484017607285 1
gene  1 14 131 -0.48714256332742195 0 20683.0 -0.48714256332742195 1
gene  1 15 131 -0.10272076262227964 0 20684.0 -0.10272076262227964 1
gene  1 16 131 -0.3949253278123081 0 20685.0 -0.3949253278123081 1
gene  1 18 131 0.21936390389639673 0 20687.0 0.21936390389639673 1
gene  1 19 131 0.2487088867231471 0 20688.0 0.2487088867231471 1
gene  1 22 131 0.6995838154222956 0 20691.0 0.6995838154222956 1
gene  1 24 131 -0.7973190224018791 0 20693.0 -0.7973190224018791 1
gene  1 25 131 0.22212238799826806 0 20694.0 0.22212238799826806 1
gene  1 26 131 -0.0637111957832057 0 20695.0 -0.0637111957832057 1
gene  1 27 131 0.6901167895148851 0 20696.0 0.6901167895148851 1
gene  1 29 131 -0.20402576374423387 0 20698.0 -0.20402576374423387 1
gene  1 30 131 0.3422416330421223 0 20699.0 0.3422416330421223 1
gene  1 31 131 -0.07008507027276946 0 20700.0 -0.07008507027276946 1
gene  1 33 131 0.7659984710806407 0 20702.0 0.7659984710806407 1
gene  1 34 131 0.5687595031088751 0 20703.0 0.5687595031088751 1
gene  1 39 131 0.13036935405333816 0 20708.0 0.13036935405333816 1
gene  1 40 131 -0.8940446423064445 0 20709.0 -0.8940446423064445 1
gene  1 42 131 -0.24844664213664105 0 20711.0 -0.24844664213664105 1
gene  1 43 131 0.41912700212082 0 20712.0 0.41912700212082 1
gene  1 44 131 0.2594156119938496 0 20713.0 0.2594156119938496 1
gene  1 45 131 -0.06907780507798143 0 20714.0 -0.06907780507798143 1
gene  1 46 131 0.08110381335957223 0 20715.0 0.08110381335957223 1
gene  1 47 131 -0.16419007608133535 0 20716.0 -0.16419007608133535 1
gene  1 48 131 0.438786028710364 0 20717.0 0.438786028710364 1
gene  1 50 131 -0.8754705012569222 0 20719.0 -0.8754705012569222 1
gene  1 53 131 -0.08246311483120068 0 20722.0 -0.08246311483120068 1
gene  1 54 131 0.25267461240930944 0 20723.0 0.25267461240930944 1
gene  1 55 131 0.3520455791143849 0 20724.0 0.3520455791143849 1
gene  1 56 131 1.0928988802200652 0 20725.0 1.0928988802200652 1
gene  1 57 131 0.7818589984624779 0 20726.0 0.7818589984624779 1
gene  1 59 131 0.957960535459286 0 20728.0 0.957960535459286 1
gene  1 62 131 -0.22218647170930467 0 20731.0 -0.22218647170930467 1
gene  1 63 131 0.4140503618553768 0 20732.0 0.4140503618553768 1
gene  1 65 131 0.22286885961209313 0 20734.0 0.22286885961209313 1
gene  1 67 131 -0.2099204001042287 0 20736.0 -0.2099204001042287 1
gene  1 69 131 0.012725105144538215 0 20738.0 0.012725105144538215 1
gene  1 70 131 0.06089258995154667 0 20739.0 0.06089258995154667 1
gene  1 71 131 0.42855466147205634 0 20740.0 0.42855466147205634 1
gene  1 74 131 0.8161388745489122 0 20743.0 0.8161388745489122 1
gene  1 75 131 -0.47262135617194795 0 20744.0 -0.47262135617194795 1
gene  1 77 131 -0.3475387876363692 0 20746.0 -0.3475387876363692 1
gene  1 79 131 -0.6471840432169088 0 20748.0 -0.6471840432169088 1
gene  1 80 131 0.6007056647933985 0 20749.0 0.6007056647933985 1
gene  1 82 131 -0.38320421175234415 0 20751.0 -0.38320421175234415 1
gene  1 83 131 -0.49058565049483827 0 20752.0 -0.49058565049483827 1
gene  1 85 131 0.17802190591593509 0 20754.0 0.17802190591593509 1
gene  1 87 131 0.02205060331846756 0 20756.0 0.02205060331846756 1
gene  1 88 131 -0.26096967426205286 0 20757.0 -0.26096967426205286 1
gene  1 89 131 0.5308605825277282 0 20758.0 0.5308605825277282 1
gene  1 90 131 -0.788672248880747 0 20759.0 -0.788672248880747 1
gene  1 92 131 -0.6662153659143699 0 20761.0 -0.6662153659143699 1
gene  1 93 131 -0.7392482255982558 0 20762.0 -0.7392482255982558 1
gene  1 96 131 -0.6055340844858118 0 20765.0 -0.6055340844858118 1
gene  1 98 131 -0.5571515253989167 0 20767.0 -0.5571515253989167 1
gene  1 99 131 -0.919441252472957 0 20768.0 -0.919441252472957 1
gene  1 100 131 0.08453285408219746 0 20769.0 0.08453285408219746 1
gene  1 103 131 0.03930110263828142 0 20772.0 0.03930110263828142 1
gene  1 105 131 0.8002626345034722 0 20774.0 0.8002626345034722 1
gene  1 110 131 -0.24673489165380147 0 20779.0 -0.24673489165380147 1
gene  1 114 131 0.166951644303767 0 20783.0 0.166951644303767 1
gene  1 116 131 0.06292345849967618 0 20785.0 0.06292345849967618 1
gene  1 117 131 -0.9819487373473639 0 20786.0 -0.9819487373473639 1
gene  1 118 131 0.7730309494201497 0 20787.0 0.7730309494201497 1
gene  1 123 131 -0.46114779799914063 0 20792.0 -0.46114779799914063 1
gene  1 124 131 -0.3164613692457495 0 20793.0 -0.3164613692457495 1
gene  1 125 131 -0.6445249643905719 0 20794.0 -0.6445249643905719 1
gene  1 126 131 0.04033636988569557 0 20795.0 0.04033636988569557 1
gene  1 129 131 0.11949070882192134 0 20798.0 0.11949070882192134 1
gene  1 130 131 0.5263781784664285 0 20799.0 0.5263781784664285 1
gene  1 132 131 -0.6546915368539227 1 20801.0 -0.6546915368539227 1
gene  1 156 131 -0.3746394590946913 1 20825.0 -0.3746394590946913 1
gene  1 159 131 -0.550870622805138 1 20828.0 -0.550870622805138 1
gene  1 1 132 -0.3631728492076205 0 20829.0 -0.3631728492076205 1
gene  1 3 132 0.7078391143820073 0 20831.0 0.7078391143820073 1
gene  1 11 132 0.44615673770943265 0 20839.0 0.44615673770943265 1
gene  1 13 132 0.17574677276058018 0 20841.0 0.17574677276058018 1
gene  1 14 132 -0.19354718003762836 0 20842.0 -0.19354718003762836 1
gene  1 15 132 0.4583832098024147 0 20843.0 0.4583832098024147 1
gene  1 16 132 -0.07688340259754683 0 20844.0 -0.07688340259754683 1
gene  1 17 132 -0.38943342014658316 0 20845.0 -0.38943342014658316 1
gene  1 18 132 0.6031318112516193 0 20846.0 0.6031318112516193 1
gene  1 20 132 -0.7805036538562033 0 20848.0 -0.7805036538562033 1
gene  1 21 132 0.434335203231059 0 20849.0 0.434335203231059 1
gene  1 27 132 -0.36297874333534635 0 20855.0 -0.36297874333534635 1
gene  1 32 132 0.5311141675306588 0 20860.0 0.5311141675306588 1
gene  1 33 132 0.7412245749471779 0 20861.0 0.7412245749471779 1
gene  1 34 132 -0.9155962652425859 0 20862.0 -0.9155962652425859 1
gene  1 35 132 0.1496276563122329 0 20863.0 0.1496276563122329 1
gene  1 37 132 -0.06856953955679863 0 20865.0 -0.06856953955679863 1
gene  1 38 132 0.6894361681575772 0 20866.0 0.6894361681575772 1
gene  1 39 132 0.1380066514031059 0 20867.0 0.1380066514031059 1
gene  1 44 132 -0.9335767483003672 0 20872.0 -0.9335767483003672 1
gene  1 45 132 -0.6294376220181106 0 20873.0 -0.6294376220181106 1
gene  1 46 132 0.28836842000011964 0 20874.0 0.28836842000011964 1
gene  1 47 132 -0.3433710900533787 0 20875.0 -0.3433710900533787 1
gene  1 49 132 -0.32079406307582786 0 20877.0 -0.32079406307582786 1
gene  1 50 132 0.18060897235653575 0 20878.0 0.18060897235653575 1
gene  1 51 132 0.7666572684373659 0 20879.0 0.7666572684373659 1
gene  1 55 132 0.13706128745536333 0 20883.0 0.13706128745536333 1
gene  1 56 132 -0.29026150427536285 0 20884.0 -0.29026150427536285 1
gene  1 57 132 0.8621204230650982 0 20885.0 0.8621204230650982 1
gene  1 58 132 0.12472948591828163 0 20886.0 0.12472948591828163 1
gene  1 59 132 -0.16921971570079347 0 20887.0 -0.16921971570079347 1
gene  1 62 132 -0.042535951007313534 0 20890.0 -0.042535951007313534 1
gene  1 63 132 -0.4830772677775174 0 20891.0 -0.4830772677775174 1
gene  1 64 132 -0.17983626224233448 0 20892.0 -0.17983626224233448 1
gene  1 66 132 -0.8773088221013238 0 20894.0 -0.8773088221013238 1
gene  1 68 132 -0.7612429727439546 0 20896.0 -0.7612429727439546 1
gene  1 70 132 0.16350654429975367 0 20898.0 0.16350654429975367 1
gene  1 71 132 0.5255201261494598 0 20899.0 0.5255201261494598 1
gene  1 72 132 0.7221880436988577 0 20900.0 0.7221880436988577 1
gene  1 75 132 0.7907819448159874 0 20903.0 0.7907819448159874 1
gene  1 76 132 0.6494616653009838 0 20904.0 0.6494616653009838 1
gene  1 77 132 0.07969253333856618 0 20905.0 0.07969253333856618 1
gene  1 78 132 0.39984366169775176 0 20906.0 0.39984366169775176 1
gene  1 81 132 -0.16712282904744288 0 20909.0 -0.16712282904744288 1
gene  1 83 132 -0.07471067254626484 0 20911.0 -0.07471067254626484 1
gene  1 84 132 0.850355815542302 0 20912.0 0.850355815542302 1
gene  1 85 132 -0.1515490646555971 0 20913.0 -0.1515490646555971 1
gene  1 89 132 -0.5177510240967726 0 20917.0 -0.5177510240967726 1
gene  1 92 132 0.7375542864761618 0 20920.0 0.7375542864761618 1
gene  1 93 132 0.8778574867459122 0 20921.0 0.8778574867459122 1
gene  1 95 132 0.3186498451193494 0 20923.0 0.3186498451193494 1
gene  1 97 132 0.5920285325770913 0 20925.0 0.5920285325770913 1
gene  1 98 132 0.1168843522425414 0 20926.0 0.1168843522425414 1
gene  1 101 132 0.0329969587491237 0 20929.0 0.0329969587491237 1
gene  1 104 132 0.4459884500748386 0 20932.0 0.4459884500748386 1
gene  1 105 132 0.8664344504434074 0 20933.0 0.8664344504434074 1
gene  1 107 132 -0.0274445880736114 0 20935.0 -0.0274445880736114 1
gene  1 109 132 -0.3594911549079672 0 20937.0 -0.3594911549079672 1
gene  1 110 132 -0.1395152613992842 0 20938.0 -0.1395152613992842 1
gene  1 111 132 0.41537588523870816 0 20939.0 0.41537588523870816 1
gene  1 115 132 -0.4607477928123497 0 20943.0 -0.4607477928123497 1
gene  1 117 132 0.5238626544529281 0 20945.0 0.5238626544529281 1
gene  1 119 132 -0.8892977480295877 0 20947.0 -0.8892977480295877 1
gene  1 124 132 0.6443822456746704 0 20952.0 0.6443822456746704 1
gene  1 125 132 -0.30213812281041574 0 20953.0 -0.30213812281041574 1
gene  1 129 132 0.06049466395068386 0 20957.0 0.06049466395068386 1
gene  1 130 132 0.9313120263142206 0 20958.0 0.9313120263142206 1
gene  1 131 132 0.6219757383977712 0 20959.0 0.6219757383977712 1
gene  1 155 132 -0.7846255596377008 1 20983.0 -0.7846255596377008 1
gene  1 156 132 -0.36187138903925553 1 20984.0 -0.36187138903925553 1
gene  1 158 132 -0.02376919229457121 1 20986.0 -0.02376919229457121 1
gene  1 1 155 -0.4243995960756001 0 24486.0 -0.4243995960756001 1
gene  1 2 155 0.048700950138021434 0 24487.0 0.048700950138021434 1
gene  1 4 155 0.4235605853561416 0 24489.0 0.4235605853561416 1
gene  1 5 155 0.3587336684438236 0 24490.0 0.3587336684438236 1
gene  1 9 155 -0.07649329440279905 0 24494.0 -0.07649329440279905 1
gene  1 15 155 -0.6334415824914142 0 24500.0 -0.6334415824914142 1
gene  1 18 155 0.7571196563172536 0 24503.0 0.7571196563172536 1
gene  1 19 155 -0.16547218503618333 0 24504.0 -0.16547218503618333 1
gene  1 21 155 -0.09093856634331149 0 24506.0 -0.09093856634331149 1
gene  1 22 155 -0.18067551880873747 0 24507.0 -0.18067551880873747 1
gene  1 25 155 -0.3645847658985549 0 24510.0 -0.3645847658985549 1
gene  1 27 155 0.6377482035112688 0 24512.0 0.6377482035112688 1
gene  1 29 155 0.8539796184988493 0 24514.0 0.8539796184988493 1
gene  1 32 155 0.7074767819727388 0 24517.0 0.7074767819727388 1
gene  1 38 155 0.4649630757284722 0 24523.0 0.4649630757284722 1
gene  1 39 155 -0.45648617332474106 0 24524.0 -0.45648617332474106 1
gene  1 40 155 0.17639489892695528 0 24525.0 0.17639489892695528 1
gene  1 41 155 0.25689031661781003 0 24526.0 0.25689031661781003 1
gene  1 42 155 0.7053981996023926 0 24527.0 0.7053981996023926 1
gene  1 43 155 0.6366571173628922 0 24528.0 0.6366571173628922 1
gene  1 48 155 1.008546797282826 0 24533.0 1.008546797282826 1
gene  1 50 155 0.7149001932958309 0 24535.0 0.7149001932958309 1
gene  1 51 155 0.1243754584125683 0 24536.0 0.1243754584125683 1
gene  1 52 155 0.30061074418278927 0 24537.0 0.30061074418278927 0
gene  1 54 155 0.3211468360011004 0 24539.0 0.3211468360011004 1
gene  1 56 155 -1.1696572543292532 0 24541.0 -1.1696572543292532 1
gene  1 58 155 -0.6365125579553007 0 24543.0 -0.6365125579553007 1
gene  1 60 155 -0.9532839917306195 0 24545.0 -0.9532839917306195 1
gene  1 61 155 0.6193149874785114 0 24546.0 0.6193149874785114 1
gene  1 67 155 -1.1812334881318294 0 24552.0 -1.1812334881318294 1
gene  1 68 155 -0.031381248078049054 0 24553.0 -0.031381248078049054 1
gene  1 70 155 -0.2519000689585963 0 24555.0 -0.2519000689585963 1
gene  1 71 155 -0.05551991181119681 0 24556.0 -0.05551991181119681 1
gene  1 73 155 -0.2386090309589958 0 24558.0 -0.2386090309589958 1
gene  1 75 155 -0.2739975306695658 0 24560.0 -0.2739975306695658 1
gene  1 77 155 0.33786072411645784 0 24562.0 0.33786072411645784 1
gene  1 78 155 -0.09190830396258241 0 24563.0 -0.09190830396258241 1
gene  1 79 155 -0.09741531166680953 0 24564.0 -0.09741531166680953 1
gene  1 80 155 0.6446043964263308 0 24565.0 0.6446043964263308 1
gene  1 81 155 -0.12319057782171948 0 24566.0 -0.12319057782171948 1
gene  1 82 155 0.5429168776219805 0 24567.0 0.5429168776219805 1
gene  1 83 155 -0.32917699949249 0 24568.0 -0.32917699949249 1
gene  1 84 155 0.6721602374121577 0 24569.0 0.6721602374121577 1
gene  1 88 155 0.8562102112049833 0 24573.0 0.8562102112049833 1
gene  1 90 155 0.08042445250791966 0 24575.0 0.08042445250791966 1
gene  1 94 155 0.21281794242849572 0 24579.0 0.21281794242849572 1
gene  1 97 155 -0.4154580929084746 0 24582.0 -0.4154580929084746 1
gene  1 101 155 -0.7730537449030924 0 24586.0 -0.7730537449030924 1
gene  1 102 155 -0.2109871895352507 0 24587.0 -0.2109871895352507 1
gene  1 103 155 -0.038852223826911475 0 24588.0 -0.038852223826911475 1
gene  1 106 155 -0.05759179663899531 0 24591.0 -0.05759179663899531 1
gene  1 107 155 -0.5343566724335518 0 24592.0 -0.5343566724335518 1
gene  1 110 155 0.6573376964896626 0 24595.0 0.6573376964896626 1
gene  1 111 155 -0.2731307056416 0 24596.0 -0.2731307056416 1
gene  1 116 155 -0.033038724048267756 0 24601.0 -0.033038724048267756 1
gene  1 117 155 -0.3915565951212693 0 24602.0 -0.3915565951212693 1
gene  1 120 155 0.07481579150154373 0 24605.0 0.07481579150154373 1
gene  1 121 155 0.17847030001427977 0 24606.0 0.17847030001427977 1
gene  1 123 155 0.07095045095502951 0 24608.0 0.07095045095502951 1
gene  1 125 155 -1.0680666852697056 0 24610.0 -1.0680666852697056 1
gene  1 126 155 0.16904453756072588 0 24611.0 0.16904453756072588 1
gene  1 127 155 0.5195806523369544 0 24612.0 0.5195806523369544 1
gene  1 128 155 0.14143224908402682 0 24613.0 0.14143224908402682 1
gene  1 131 155 0.20301850353476156 0 24616.0 0.20301850353476156 1
gene  1 156 155 0.8410593454610631 1 24641.0 0.8410593454610631 1
gene  1 157 155 -0.656149860362156 1 24642.0 -0.656149860362156 1
gene  1 158 155 0.251381251122068 1 24643.0 0.251381251122068 1
gene  1 1 156 0.23730005755423306 0 24645.0 0.23730005755423306 1
gene  1 2 156 0.5020706140382064 0 24646.0 0.5020706140382064 1
gene  1 3 156 0.336767480869066 0 24647.0 0.336767480869066 1
gene  1 4 156 0.6417554566699963 0 24648.0 0.6417554566699963 1
gene  1 5 156 -0.20086670221846553 0 24649.0 -0.20086670221846553 1
gene  1 7 156 0.18725368643991228 0 24651.0 0.18725368643991228 1
gene  1 10 156 0.30046472873263924 0 24654.0 0.30046472873263924 1
gene  1 12 156 -0.6479992504976286 0 24656.0 -0.6479992504976286 1
gene  1 13 156 -0.7154441634183295 0 24657.0 -0.7154441634183295 1
gene  1 15 156 -0.04825783292557502 0 24659.0 -0.04825783292557502 1
gene  1 17 156 -0.904475976373552 0 24661.0 -0.904475976373552 1
gene  1 19 156 -0.731943423968127 0 24663.0 -0.731943423968127 1
gene  1 20 156 0.6367039797559867 0 24664.0 0.6367039797559867 1
gene  1 22 156 0.16798044846869942 0 24666.0 0.16798044846869942 1
gene  1 23 156 -0.38909445686114796 0 24667.0 -0.38909445686114796 1
gene  1 25 156 -0.45170521730277224 0 24669.0 -0.45170521730277224 1
gene  1 26 156 -0.5342816719773784 0 24670.0 -0.5342816719773784 1
gene  1 30 156 -0.6879352657562182 0 24674.0 -0.6879352657562182 1
gene  1 32 156 -0.013580241798168427 0 24676.0 -0.013580241798168427 1
gene  1 33 156 0.3987526490197949 0 24677.0 0.3987526490197949 1
gene  1 36 156 0.3407317848452322 0 24680.0 0.3407317848452322 1
gene  1 37 156 -0.49245271697891213 0 24681.0 -0.49245271697891213 0
gene  1 39 156 0.7568953974005073 0 24683.0 0.7568953974005073 1
gene  1 41 156 -0.13445178888471862 0 24685.0 -0.13445178888471862 1
gene  1 42 156 -0.5128319069741302 0 24686.0 -0.5128319069741302 1
gene  1 43 156 0.3503240749013306 0 24687.0 0.3503240749013306 1
gene  1 44 156 -0.8859773245573861 0 24688.0 -0.8859773245573861 1
gene  1 45 156 -5.345645657096471E-4 0 24689.0 -5.345645657096471E-4 1
gene  1 46 156 -0.3353393291468029 0 24690.0 -0.3353393291468029 1
gene  1 47 156 0.42919519556260954 0 24691.0 0.42919519556260954 1
gene  1 50 156 0.9341433464730362 0 24694.0 0.9341433464730362 1
gene  1 51 156 -0.7130345352743883 0 24695.0 -0.7130345352743883 1
gene  1 53 156 -0.4498367734858374 0 24697.0 -0.4498367734858374 1
gene  1 54 156 0.5567214742180873 0 24698.0 0.5567214742180873 1
gene  1 55 156 0.5033915360137124 0 24699.0 0.5033915360137124 1
gene  1 57 156 0.3931569413073978 0 24701.0 0.3931569413073978 1
gene  1 58 156 0.7743782665839842 0 24702.0 0.7743782665839842 1
gene  1 61 156 0.6276786343100427 0 24705.0 0.6276786343100427 1
gene  1 64 156 0.6487277975742075 0 24708.0 0.6487277975742075 1
gene  1 67 156 0.052752206590040276 0 24711.0 0.052752206590040276 1
gene  1 70 156 -0.7641517090730495 0 24714.0 -0.7641517090730495 1
gene  1 71 156 0.500876144095395 0 24715.0 0.500876144095395 1
gene  1 73 156 0.07645196848101363 0 24717.0 0.07645196848101363 1
gene  1 74 156 -0.5932000750318727 0 24718.0 -0.5932000750318727 1
gene  1 75 156 -0.6009096304314013 0 24719.0 -0.6009096304314013 1
gene  1 78 156 0.598070863376345 0 24722.0 0.598070863376345 1
gene  1 80 156 -0.7657807859514604 0 24724.0 -0.7657807859514604 1
gene  1 81 156 -0.7502435324432304 0 24725.0 -0.7502435324432304 1
gene  1 83 156 -0.5612142026766572 0 24727.0 -0.5612142026766572 1
gene  1 87 156 0.6648332654704006 0 24731.0 0.6648332654704006 1
gene  1 93 156 0.7478019625081498 0 24737.0 0.7478019625081498 1
gene  1 94 156 -0.38647656125328106 0 24738.0 -0.38647656125328106 1
gene  1 96 156 0.58012348359566 0 24740.0 0.58012348359566 1
gene  1 97 156 -0.52218022963744 0 24741.0 -0.52218022963744 1
gene  1 99 156 0.25289700250037617 0 24743.0 0.25289700250037617 1
gene  1 100 156 0.19384527796168105 0 24744.0 0.19384527796168105 1
gene  1 101 156 -0.44279136013235526 0 24745.0 -0.44279136013235526 1
gene  1 102 156 0.1978807524782182 0 24746.0 0.1978807524782182 1
gene  1 104 156 0.09723738957772657 0 24748.0 0.09723738957772657 1
gene  1 106 156 -0.13099082320736435 0 24750.0 -0.13099082320736435 1
gene  1 108 156 0.7672111015901222 0 24752.0 0.7672111015901222 1
gene  1 109 156 0.08060373304326339 0 24753.0 0.08060373304326339 1
gene  1 111 156 -0.4712591096739644 0 24755.0 -0.4712591096739644 1
gene  1 112 156 -0.7597743050849246 0 24756.0 -0.7597743050849246 1
gene  1 114 156 0.5126327583229525 0 24758.0 0.5126327583229525 1
gene  1 119 156 0.7002257397051849 0 24763.0 0.7002257397051849 1
gene  1 120 156 0.3019713004515459 0 24764.0 0.3019713004515459 1
gene  1 126 156 -0.4397600771195223 0 24770.0 -0.4397600771195223 1
gene  1 127 156 0.3765320467762275 0 24771.0 0.3765320467762275 1
gene  1 128 156 -0.7123267526481685 0 24772.0 -0.7123267526481685 1
gene  1 129 156 -0.9438410437898208 0 24773.0 -0.9438410437898208 1
gene  1 130 156 -0.5175505236425127 0 24774.0 -0.5175505236425127 1
gene  1 132 156 -0.027679643860049744 0 24776.0 -0.027679643860049744 1
gene  1 155 156 -0.4485809091569737 0 24799.0 -0.4485809091569737 1
gene  1 156 156 0.25576310453712814 1 24800.0 0.25576310453712814 1
gene  1 1 157 0.753780096366487 0 24804.0 0.753780096366487 1
gene  1 4 157 2.739700152453242E-4 0 24807.0 2.739700152453242E-4 1
gene  1 5 157 0.41790435861823616 0 24808.0 0.41790435861823616 1
gene  1 7 157 -0.18741933591980448 0 24810.0 -0.18741933591980448 1
gene  1 9 157 -0.7436732288792792 0 24812.0 -0.7436732288792792 1
gene  1 10 157 -0.1189099404847199 0 24813.0 -0.1189099404847199 1
gene  1 13 157 -0.628982576681035 0 24816.0 -0.628982576681035 1
gene  1 14 157 0.23727605946526645 0 24817.0 0.23727605946526645 1
gene  1 19 157 -0.11919785577015256 0 24822.0 -0.11919785577015256 1
gene  1 20 157 -0.38531362284347553 0 24823.0 -0.38531362284347553 1
gene  1 22 157 -0.06417404947630956 0 24825.0 -0.06417404947630956 1
gene  1 24 157 0.4192821870063189 0 24827.0 0.4192821870063189 1
gene  1 25 157 -0.015735311066576288 0 24828.0 -0.015735311066576288 1
gene  1 28 157 -0.4346055516118372 0 24831.0 -0.4346055516118372 1
gene  1 32 157 -0.548436062800058 0 24835.0 -0.548436062800058 1
gene  1 36 157 -0.2927766468894467 0 24839.0 -0.2927766468894467 1
gene  1 37 157 0.6124980689279381 0 24840.0 0.6124980689279381 1
gene  1 38 157 -0.4654246866727349 0 24841.0 -0.4654246866727349 1
gene  1 41 157 -0.8336122508847545 0 24844.0 -0.8336122508847545 1
gene  1 43 157 -0.1842098848136654 0 24846.0 -0.1842098848136654 1
gene  1 46 157 0.6185196013567777 0 24849.0 0.6185196013567777 1
gene  1 47 157 0.6986194917128041 0 24850.0 0.6986194917128041 1
gene  1 48 157 0.4496002663633733 0 24851.0 0.4496002663633733 1
gene  1 52 157 0.11072905771995642 0 24855.0 0.11072905771995642 1
gene  1 53 157 0.17422581569293394 0 24856.0 0.17422581569293394 1
gene  1 54 157 0.10802064664025507 0 24857.0 0.10802064664025507 1
gene  1 56 157 -0.41470107908245807 0 24859.0 -0.41470107908245807 1
gene  1 61 157 -0.09280331749575556 0 24864.0 -0.09280331749575556 1
gene  1 62 157 0.15182483480700684 0 24865.0 0.15182483480700684 1
gene  1 63 157 0.8104864795734659 0 24866.0 0.8104864795734659 1
gene  1 64 157 0.21223250415686823 0 24867.0 0.21223250415686823 0
gene  1 68 157 -0.47567898905410494 0 24871.0 -0.47567898905410494 1
gene  1 70 157 0.5330312464787638 0 24873.0 0.5330312464787638 1
gene  1 72 157 0.09410651602611692 0 24875.0 0.09410651602611692 1
gene  1 73 157 -0.22396805733730557 0 24876.0 -0.22396805733730557 1
gene  1 76 157 0.7111321431892575 0 24879.0 0.7111321431892575 1
gene  1 78 157 -1.0643273307508536 0 24881.0 -1.0643273307508536 1
gene  1 79 157 -0.2799923164131881 0 24882.0 -0.2799923164131881 1
gene  1 80 157 -0.01611606489294531 0 24883.0 -0.01611606489294531 1
gene  1 82 157 0.11803889654807664 0 24885.0 0.11803889654807664 1
gene  1 83 157 0.10384589925037753 0 24886.0 0.10384589925037753 1
gene  1 84 157 0.029320273207376943 0 24887.0 0.029320273207376943 1
gene  1 86 157 0.11501931828872583 0 24889.0 0.11501931828872583 1
gene  1 90 157 -0.11457926344721037 0 24893.0 -0.11457926344721037 1
gene  1 91 157 -0.1743941021432496 0 24894.0 -0.1743941021432496 1
gene  1 92 157 -0.06078117202986481 0 24895.0 -0.06078117202986481 1
gene  1 93 157 -0.8582978628060209 0 24896.0 -0.8582978628060209 1
gene  1 94 157 0.05600463530187651 0 24897.0 0.05600463530187651 1
gene  1 95 157 0.03601760921587536 0 24898.0 0.03601760921587536 1
gene  1 96 157 0.5385760130277748 0 24899.0 0.5385760130277748 1
gene  1 97 157 0.0838088931860774 0 24900.0 0.0838088931860774 1
gene  1 98 157 -0.035147726789954176 0 24901.0 -0.035147726789954176 1
gene  1 100 157 0.22470693455080393 0 24903.0 0.22470693455080393 1
gene  1 103 157 0.007251316405300339 0 24906.0 0.007251316405300339 1
gene  1 107 157 -0.7563248271398274 0 24910.0 -0.7563248271398274 1
gene  1 109 157 0.24845713299511607 0 24912.0 0.24845713299511607 1
gene  1 110 157 -0.6251229789392065 0 24913.0 -0.6251229789392065 1
gene  1 112 157 -0.39828495451528456 0 24915.0 -0.39828495451528456 1
gene  1 114 157 0.11140639351770468 0 24917.0 0.11140639351770468 1
gene  1 118 157 -0.23065640237256438 0 24921.0 -0.23065640237256438 1
gene  1 121 157 -0.05777314723570962 0 24924.0 -0.05777314723570962 1
gene  1 124 157 -0.42406965155346177 0 24927.0 -0.42406965155346177 1
gene  1 125 157 0.5170195083014671 0 24928.0 0.5170195083014671 1
gene  1 128 157 0.270474882723034 0 24931.0 0.270474882723034 1
gene  1 129 157 -0.2558848831021442 0 24932.0 -0.2558848831021442 1
gene  1 131 157 0.020178691565010433 0 24934.0 0.020178691565010433 1
gene  1 155 157 -0.7178954463653061 0 24958.0 -0.7178954463653061 1
gene  1 157 157 0.7226292032955149 1 24960.0 0.7226292032955149 1
gene  1 158 157 0.08312786268382412 1 24961.0 0.08312786268382412 1
gene  1 159 157 0.06516956211309305 1 24962.0 0.06516956211309305 1
gene  1 6 158 0.03568451190729025 0 24968.0 0.03568451190729025 1
gene  1 7 158 -0.013563126954862982 0 24969.0 -0.013563126954862982 1
gene  1 8 158 0.028170965214642366 0 24970.0 0.028170965214642366 1
gene  1 9 158 -0.08042208036828993 0 24971.0 -0.08042208036828993 1
gene  1 11 158 0.057793304600051845 0 24973.0 0.057793304600051845 1
gene  1 12 158 0.019758918142196248 0 24974.0 0.019758918142196248 1
gene  1 13 158 0.025834408873264054 0 24975.0 0.025834408873264054 1
gene  1 14 158 -0.04568668972246364 0 24976.0 -0.04568668972246364 1
gene  1 17 158 -0.03123735588880594 0 24979.0 -0.03123735588880594 1
gene  1 18 158 -0.6824524242626177 0 24980.0 -0.6824524242626177 1
gene  1 22 158 0.26835385776679366 0 24984.0 0.26835385776679366 1
gene  1 23 158 0.48485629579819955 0 24985.0 0.48485629579819955 1
gene  1 25 158 -0.32903472981483034 0 24987.0 -0.32903472981483034 1
gene  1 27 158 0.041195867688835944 0 24989.0 0.041195867688835944 1
gene  1 28 158 -0.1387803729832054 0 24990.0 -0.1387803729832054 1
gene  1 31 158 -0.09629487328436394 0 24993.0 -0.09629487328436394 1
gene  1 34 158 0.08317746295472714 0 24996.0 0.08317746295472714 1
gene  1 35 158 -0.0031925173201097536 0 24997.0 -0.0031925173201097536 1
gene  1 37 158 0.7514459431202432 0 24999.0 0.7514459431202432 1
gene  1 38 158 -0.5964712559028122 0 25000.0 -0.5964712559028122 1
gene  1 39 158 0.07173571129337265 0 25001.0 0.07173571129337265 1
gene  1 40 158 -0.6133465283921973 0 25002.0 -0.6133465283921973 1
gene  1 42 158 0.1796796546536559 0 25004.0 0.1796796546536559 1
gene  1 47 158 -0.12140609692830467 0 25009.0 -0.12140609692830467 1
gene  1 48 158 -0.015209243800174882 0 25010.0 -0.015209243800174882 1
gene  1 49 158 0.08047228538723764 0 25011.0 0.08047228538723764 1
gene  1 55 158 0.017275620616034125 0 25017.0 0.017275620616034125 1
gene  1 56 158 0.15341905668569622 0 25018.0 0.15341905668569622 1
gene  1 58 158 0.08765020512535601 0 25020.0 0.08765020512535601 1
gene  1 61 158 -0.07757760810304046 0 25023.0 -0.07757760810304046 1
gene  1 62 158 0.04468724176532559 0 25024.0 0.04468724176532559 1
gene  1 67 158 -0.22070415398235638 0 25029.0 -0.22070415398235638 1
gene  1 71 158 -0.08626410978543503 0 25033.0 -0.08626410978543503 1
gene  1 73 158 0.007043811503709696 0 25035.0 0.007043811503709696 1
gene  1 78 158 0.09947808018882184 0 25040.0 0.09947808018882184 1
gene  1 81 158 -0.37156495898684705 0 25043.0 -0.37156495898684705 1
gene  1 82 158 -0.04870128307946427 0 25044.0 -0.04870128307946427 1
gene  1 83 158 0.33715711534387166 0 25045.0 0.33715711534387166 1
gene  1 85 158 -0.01036165391266012 0 25047.0 -0.01036165391266012 1
gene  1 86 158 -0.160149510356365 0 25048.0 -0.160149510356365 1
gene  1 89 158 0.47426745569945666 0 25051.0 0.47426745569945666 1
gene  1 90 158 -0.8485265520401716 0 25052.0 -0.8485265520401716 1
gene  1 91 158 0.28653230579484373 0 25053.0 0.28653230579484373 1
gene  1 92 158 0.036558121269835056 0 25054.0 0.036558121269835056 1
gene  1 93 158 -0.15676731836612892 0 25055.0 -0.15676731836612892 1
gene  1 95 158 0.6094854943247888 0 25057.0 0.6094854943247888 1
gene  1 96 158 0.0684344860622997 0 25058.0 0.0684344860622997 1
gene  1 100 158 -0.04130327926986492 0 25062.0 -0.04130327926986492 1
gene  1 102 158 -0.510839351653836 0 25064.0 -0.510839351653836 1
gene  1 106 158 0.5320203798913645 0 25068.0 0.5320203798913645 1
gene  1 109 158 -0.16322463515496935 0 25071.0 -0.16322463515496935 1
gene  1 110 158 0.1495256251208343 0 25072.0 0.1495256251208343 1
gene  1 111 158 -0.31734169647046956 0 25073.0 -0.31734169647046956 1
gene  1 115 158 -0.0209978443220331 0 25077.0 -0.0209978443220331 1
gene  1 117 158 -0.8696384781414825 0 25079.0 -0.8696384781414825 1
gene  1 118 158 0.06532485694916774 0 25080.0 0.06532485694916774 1
gene  1 119 158 -0.0061997236086801305 0 25081.0 -0.0061997236086801305 1
gene  1 120 158 0.07364918354896165 0 25082.0 0.07364918354896165 1
gene  1 121 158 -0.0706295786519287 0 25083.0 -0.0706295786519287 1
gene  1 122 158 -0.16391684146941995 0 25084.0 -0.16391684146941995 1
gene  1 124 158 -0.08778023616097222 0 25086.0 -0.08778023616097222 1
gene  1 125 158 -0.02984064836142747 0 25087.0 -0.02984064836142747 1
gene  1 126 158 -0.06333496769560354 0 25088.0 -0.06333496769560354 1
gene  1 128 158 0.4359698165452799 0 25090.0 0.4359698165452799 1
gene  1 130 158 1.0030023281677007 0 25092.0 1.0030023281677007 1
gene  1 131 158 -0.5294914497415582 0 25093.0 -0.5294914497415582 1
gene  1 132 158 0.33414077453178176 0 25094.0 0.33414077453178176 1
gene  1 155 158 0.09846159749184877 0 25117.0 0.09846159749184877 1
gene  1 156 158 -0.08199314079611854 0 25118.0 -0.08199314079611854 1
gene  1 157 158 0.6443635549682285 0 25119.0 0.6443635549682285 1
gene  1 159 158 -0.08479079139943732 1 25121.0 -0.08479079139943732 1
gene  1 1 159 0.042767573062977134 0 25122.0 0.042767573062977134 1
gene  1 2 159 -0.1635767278476679 0 25123.0 -0.1635767278476679 1
gene  1 4 159 -0.05529361264787665 0 25125.0 -0.05529361264787665 1
gene  1 6 159 0.22496552330150896 0 25127.0 0.22496552330150896 1
gene  1 8 159 0.08263375547635257 0 25129.0 0.08263375547635257 1
gene  1 11 159 -0.14143782995985033 0 25132.0 -0.14143782995985033 1
gene  1 13 159 -0.68074262395277 0 25134.0 -0.68074262395277 1
gene  1 18 159 -0.00977725721433037 0 25139.0 -0.00977725721433037 1
gene  1 21 159 -0.07929684084659094 0 25142.0 -0.07929684084659094 1
gene  1 23 159 0.44337214879556996 0 25144.0 0.44337214879556996 1
gene  1 24 159 -0.5900584743032546 0 25145.0 -0.5900584743032546 1
gene  1 26 159 0.09169763255357063 0 25147.0 0.09169763255357063 1
gene  1 27 159 0.3310933416059517 0 25148.0 0.3310933416059517 1
gene  1 30 159 -1.002534697502905 0 25151.0 -1.002534697502905 1
gene  1 32 159 0.09273182384599499 0 25153.0 0.09273182384599499 1
gene  1 37 159 0.0246313719530739 0 25158.0 0.0246313719530739 1
gene  1 38 159 -0.38335735398347687 0 25159.0 -0.38335735398347687 1
gene  1 39 159 0.29408158032256443 0 25160.0 0.29408158032256443 1
gene  1 42 159 -0.04419962596433408 0 25163.0 -0.04419962596433408 1
gene  1 44 159 0.5533190380257615 0 25165.0 0.5533190380257615 1
gene  1 45 159 -0.016003543136603123 0 25166.0 -0.016003543136603123 1
gene  1 46 159 0.02405173941169273 0 25167.0 0.02405173941169273 1
gene  1 47 159 0.24395030254939754 0 25168.0 0.24395030254939754 1
gene  1 48 159 0.04049323127201026 0 25169.0 0.04049323127201026 1
gene  1 50 159 0.03153718238672745 0 25171.0 0.03153718238672745 1
gene  1 51 159 0.021158532707068217 0 25172.0 0.021158532707068217 1
gene  1 52 159 -0.013894814370126043 0 25173.0 -0.013894814370126043 1
gene  1 53 159 0.523361158852484 0 25174.0 0.523361158852484 1
gene  1 54 159 -0.8746344589919012 0 25175.0 -0.8746344589919012 1
gene  1 57 159 -0.06738169336397884 0 25178.0 -0.06738169336397884 1
gene  1 60 159 0.09450268646927668 0 25181.0 0.09450268646927668 1
gene  1 63 159 -0.17115279322773436 0 25184.0 -0.17115279322773436 1
gene  1 64 159 0.11437301490810241 0 25185.0 0.11437301490810241 1
gene  1 66 159 0.15618478673934422 0 25187.0 0.15618478673934422 1
gene  1 68 159 -0.013128271626262723 0 25189.0 -0.013128271626262723 1
gene  1 70 159 1.0006126670432005 0 25191.0 1.0006126670432005 1
gene  1 72 159 -0.023706724647492253 0 25193.0 -0.023706724647492253 1
gene  1 73 159 -0.05190524454615602 0 25194.0 -0.05190524454615602 1
gene  1 76 159 0.7779614199764489 0 25197.0 0.7779614199764489 1
gene  1 77 159 -0.34053822212741053 0 25198.0 -0.34053822212741053 1
gene  1 81 159 0.13372383494596382 0 25202.0 0.13372383494596382 0
gene  1 82 159 0.054819385716997245 0 25203.0 0.054819385716997245 1
gene  1 83 159 0.020172977280457208 0 25204.0 0.020172977280457208 1
gene  1 85 159 0.35450961083596233 0 25206.0 0.35450961083596233 1
gene  1 86 159 -0.04148414115746366 0 25207.0 -0.04148414115746366 1
gene  1 87 159 0.4966977465155852 0 25208.0 0.4966977465155852 1
gene  1 88 159 -0.1171043782340001 0 25209.0 -0.1171043782340001 1
gene  1 89 159 -0.04683143086178078 0 25210.0 -0.04683143086178078 1
gene  1 90 159 0.046450312273684874 0 25211.0 0.046450312273684874 0
gene  1 92 159 0.06004140048956058 0 25213.0 0.06004140048956058 1
gene  1 93 159 0.010849509997949716 0 25214.0 0.010849509997949716 1
gene  1 98 159 1.1331419624534431 0 25219.0 1.1331419624534431 1
gene  1 100 159 0.3303011987716131 0 25221.0 0.3303011987716131 1
gene  1 104 159 0.0348045275711529 0 25225.0 0.0348045275711529 1
gene  1 106 159 0.6204828769778106 0 25227.0 0.6204828769778106 1
gene  1 108 159 0.06692513007776801 0 25229.0 0.06692513007776801 1
gene  1 110 159 0.06461230568815522 0 25231.0 0.06461230568815522 1
gene  1 111 159 0.09466159358111581 0 25232.0 0.09466159358111581 1
gene  1 112 159 0.25151638872071297 0 25233.0 0.25151638872071297 1
gene  1 113 159 -0.2919076341980916 0 25234.0 -0.2919076341980916 1
gene  1 115 159 0.7990917748020183 0 25236.0 0.7990917748020183 1
gene  1 116 159 -0.6082921100712568 0 25237.0 -0.6082921100712568 1
gene  1 117 159 -0.09412324227666401 0 25238.0 -0.09412324227666401 1
gene  1 119 159 -0.04689764278509211 0 25240.0 -0.04689764278509211 1
gene  1 120 159 0.0743589371601388 0 25241.0 0.0743589371601388 1
gene  1 123 159 -0.08060000265800031 0 25244.0 -0.08060000265800031 1
gene  1 125 159 -0.8302539781354762 0 25246.0 -0.8302539781354762 1
gene  1 127 159 -0.7652990501625686 0 25248.0 -0.7652990501625686 1
gene  1 128 159 -0.8077288848715554 0 25249.0 -0.8077288848715554 1
gene  1 129 159 0.017651018269916285 0 25250.0 0.017651018269916285 1
gene  1 130 159 -0.16477837617880992 0 25251.0 -0.16477837617880992 1
gene  1 132 159 -0.16888613985783213 0 25253.0 -0.16888613985783213 1
gene  1 156 159 -0.21346364550018893 0 25277.0 -0.21346364550018893 1
gene  1 159 159 0.4227342792186503 1 25280.0 0.4227342792186503 1
gene  1 103 156 0.04376337115661866 0 25307.0 0.04376337115661866 1
gene  1 15 128 5.556076900538475 0 25498.0 5.556076900538475 1
gene  1 111 157 0.13185667499382817 0 25530.0 0.13185667499382817 1
gene  1 129 130 -0.09050292449578329 0 25572.0 -0.09050292449578329 1
gene  1 68 158 0.040025127873973255 0 25625.0 0.040025127873973255 1
gene  1 109 286 1.0522268178104155 0 25639.0 1.0522268178104155 1
gene  1 286 125 0.006257355968458715 0 25640.0 0.006257355968458715 1
gene  1 38 306 1.0156643240744547 0 25693.0 1.0156643240744547 1
gene  1 306 155 -0.0342082097272567 0 25694.0 -0.0342082097272567 1
gene  1 127 128 -9.459871656802438 0 25711.0 -9.459871656802438 1
gene  1 14 306 -0.0704273213330822 0 25762.0 -0.0704273213330822 1
gene  1 37 336 1.00052586870611 0 25777.0 1.00052586870611 1
gene  1 336 156 -0.6478166379135003 0 25778.0 -0.6478166379135003 1
gene  1 74 127 -9.898155270188115 0 25839.0 -9.898155270188115 1
gene  1 112 286 -0.8713188786388515 0 25895.0 -0.8713188786388515 1
gene  1 12 128 7.167201967112448 0 25937.0 7.167201967112448 1
gene  1 68 130 3.4989909845340903 0 25959.0 3.4989909845340903 1
gene  1 100 412 0.9729040247123879 0 25999.0 0.9729040247123879 1
gene  1 412 126 -0.03821659842089836 0 26000.0 -0.03821659842089836 1
gene  1 17 419 0.9897852350317362 0 26016.0 0.9897852350317362 1
gene  1 419 128 -0.7088260391113197 0 26017.0 -0.7088260391113197 1
gene  1 419 158 0.33882936587656176 0 26057.0 0.33882936587656176 1
gene  1 81 461 1.09010522960352 0 26126.0 1.09010522960352 1
gene  1 461 126 -0.38811506328979306 0 26127.0 -0.38811506328979306 1
gene  1 120 464 1.0945095385439685 0 26135.0 1.0945095385439685 1
gene  1 464 126 -8.310763584552628E-4 0 26136.0 -8.310763584552628E-4 1
gene  1 52 496 1.0978893885332817 0 26244.0 1.0978893885332817 1
gene  1 496 155 0.24871567630425592 0 26245.0 0.24871567630425592 1
gene  1 64 511 0.9616188338672829 0 26284.0 0.9616188338672829 1
gene  1 511 157 0.19803118691007754 0 26285.0 0.19803118691007754 1
gene  1 95 537 0.9964769244341575 0 26352.0 0.9964769244341575 1
gene  1 537 158 -0.059479556619543045 0 26353.0 -0.059479556619543045 1
gene  1 13 155 -0.04996056183607605 0 26371.0 -0.04996056183607605 1
gene  1 92 306 -0.007217037899551005 0 26391.0 -0.007217037899551005 1
gene  1 99 419 0.04287940041334892 0 26417.0 0.04287940041334892 1
genomeend 0
/* Organism # 001 Fitness: - 84,890 Error:  0,000                      */
genomestart  1
trait 1 0.10029251222431139 0.05555852363420427 0.264811347269305 0.0 0.32838707958595253 0.0 0.22295106674465928 0.19402672130389084 
node 1 1 1 1
node 2 1 1 1
node 3 1 1 1
node 4 1 1 1
node 5 1 1 1
node 6 1 1 1
node 7 1 1 1
node 8 1 1 1
node 9 1 1 1
node 10 1 1 1
node 11 1 1 1
node 12 1 1 1
node 13 1 1 1
node 14 1 1 1
node 15 1 1 1
node 16 1 1 1
node 17 1 1 1
node 18 1 1 1
node 19 1 1 1
node 20 1 1 1
node 21 1 1 1
node 22 1 1 1
node 23 1 1 1
node 24 1 1 1
node 25 1 1 1
node 26 1 1 1
node 27 1 1 1
node 28 1 1 1
node 29 1 1 1
node 30 1 1 1
node 31 1 1 1
node 32 1 1 1
node 33 1 1 1
node 34 1 1 1
node 35 1 1 1
node 36 1 1 1
node 37 1 1 1
node 38 1 1 1
node 39 1 1 1
node 40 1 1 1
node 41 1 1 1
node 42 1 1 1
node 43 1 1 1
node 44 1 1 1
node 45 1 1 1
node 46 1 1 1
node 47 1 1 1
node 48 1 1 1
node 49 1 1 1
node 50 1 1 1
node 51 1 1 1
node 52 1 1 1
node 53 1 1 1
node 54 1 1 1
node 55 1 1 1
node 56 1 1 1
node 57 1 1 1
node 58 1 1 1
node 59 1 1 1
node 60 1 1 1
node 61 1 1 1
node 62 1 1 1
node 63 1 1 1
node 64 1 1 1
node 65 1 1 1
node 66 1 1 1
node 67 1 1 1
node 68 1 1 1
node 69 1 1 1
node 70 1 1 1
node 71 1 1 1
node 72 1 1 1
node 73 1 1 1
node 74 1 1 1
node 75 1 1 1
node 76 1 1 1
node 77 1 1 1
node 78 1 1 1
node 79 1 1 1
node 80 1 1 1
node 81 1 1 1
node 82 1 1 1
node 83 1 1 1
node 84 1 1 1
node 85 1 1 1
node 86 1 1 1
node 87 1 1 1
node 88 1 1 1
node 89 1 1 1
node 90 1 1 1
node 91 1 1 1
node 92 1 1 1
node 93 1 1 1
node 94 1 1 1
node 95 1 1 1
node 96 1 1 1
node 97 1 1 1
node 98 1 1 1
node 99 1 1 1
node 100 1 1 1
node 101 1 1 1
node 102 1 1 1
node 103 1 1 1
node 104 1 1 1
node 105 1 1 1
node 106 1 1 1
node 107 1 1 1
node 108 1 1 1
node 109 1 1 1
node 110 1 1 1
node 111 1 1 1
node 112 1 1 1
node 113 1 1 1
node 114 1 1 1
node 115 1 1 1
node 116 1 1 1
node 117 1 1 1
node 118 1 1 1
node 119 1 1 1
node 120 1 1 1
node 121 1 1 1
node 122 1 1 1
node 123 1 1 1
node 124 1 1 3
node 125 1 0 0
node 126 1 0 0
node 127 1 0 0
node 128 1 0 0
node 129 1 0 0
node 130 1 0 0
node 131 1 0 0
node 132 1 0 0
node 155 1 0 2
node 156 1 0 2
node 157 1 0 2
node 158 1 0 2
node 159 1 0 2
node 286 1 0 0
node 306 1 0 0
node 336 1 0 0
node 412 1 0 0
node 419 1 0 0
node 461 1 0 0
node 464 1 0 0
node 496 1 0 0
node 511 1 0 0
node 537 1 0 0
gene  1 1 125 -0.021657966863137687 0 19716.0 -0.021657966863137687 1
gene  1 2 125 -0.396727529987708 0 19717.0 -0.396727529987708 1
gene  1 6 125 -0.9125316201352949 0 19721.0 -0.9125316201352949 1
gene  1 9 125 0.10472971581104584 0 19724.0 0.10472971581104584 1
gene  1 14 125 -0.5705948823715083 0 19729.0 -0.5705948823715083 1
gene  1 15 125 -0.2710962456176056 0 19730.0 -0.2710962456176056 1
gene  1 17 125 0.40755101016677947 0 19732.0 0.40755101016677947 1
gene  1 18 125 0.5357087703855417 0 19733.0 0.5357087703855417 1
gene  1 21 125 -0.13700141989161077 0 19736.0 -0.13700141989161077 1
gene  1 22 125 -1.2015827482052963 0 19737.0 -1.2015827482052963 1
gene  1 26 125 0.29708841905657585 0 19741.0 0.29708841905657585 1
gene  1 28 125 0.9460477535644227 0 19743.0 0.9460477535644227 1
gene  1 31 125 -0.39359094143121914 0 19746.0 -0.39359094143121914 1
gene  1 32 125 -0.510182709335379 0 19747.0 -0.510182709335379 1
gene  1 33 125 -0.16721223261261758 0 19748.0 -0.16721223261261758 1
gene  1 35 125 -0.23452299734841392 0 19750.0 -0.23452299734841392 1
gene  1 37 125 -0.7348902967073296 0 19752.0 -0.7348902967073296 1
gene  1 38 125 -0.08155682184680077 0 19753.0 -0.08155682184680077 1
gene  1 40 125 -0.879403426028524 0 19755.0 -0.879403426028524 1
gene  1 43 125 0.9269974466556448 0 19758.0 0.9269974466556448 1
gene  1 44 125 -0.6958056503330927 0 19759.0 -0.6958056503330927 1
gene  1 45 125 0.19201761058508582 0 19760.0 0.19201761058508582 1
gene  1 50 125 -0.7563543611757375 0 19765.0 -0.7563543611757375 1
gene  1 51 125 -0.2998564505116121 0 19766.0 -0.2998564505116121 1
gene  1 53 125 -0.3049786957000211 0 19768.0 -0.3049786957000211 1
gene  1 54 125 -0.41871581066470387 0 19769.0 -0.41871581066470387 1
gene  1 55 125 -0.4921107256636811 0 19770.0 -0.4921107256636811 1
gene  1 59 125 0.11800073160369257 0 19774.0 0.11800073160369257 1
gene  1 60 125 -0.35312183433906763 0 19775.0 -0.35312183433906763 1
gene  1 62 125 -0.24846397538889517 0 19777.0 -0.24846397538889517 1
gene  1 63 125 0.7861867761735806 0 19778.0 0.7861867761735806 1
gene  1 64 125 -0.016575636874684024 0 19779.0 -0.016575636874684024 1
gene  1 68 125 0.3202149656168112 0 19783.0 0.3202149656168112 1
gene  1 70 125 -0.08426047444579196 0 19785.0 -0.08426047444579196 1
gene  1 71 125 0.5279280324454574 0 19786.0 0.5279280324454574 1
gene  1 73 125 0.5252149897672642 0 19788.0 0.5252149897672642 1
gene  1 74 125 0.1718188814376226 0 19789.0 0.1718188814376226 1
gene  1 75 125 -0.21808882943841756 0 19790.0 -0.21808882943841756 1
gene  1 77 125 -0.7037008465185008 0 19792.0 -0.7037008465185008 1
gene  1 78 125 0.7456289823425677 0 19793.0 0.7456289823425677 1
gene  1 84 125 -0.40843227338492716 0 19799.0 -0.40843227338492716 1
gene  1 85 125 0.1354532465529678 0 19800.0 0.1354532465529678 1
gene  1 86 125 -0.6869797331666428 0 19801.0 -0.6869797331666428 1
gene  1 87 125 0.01835414797525185 0 19802.0 0.01835414797525185 1
gene  1 88 125 0.5976427672335718 0 19803.0 0.5976427672335718 1
gene  1 91 125 0.17132172319319022 0 19806.0 0.17132172319319022 1
gene  1 92 125 -0.11226272767381061 0 19807.0 -0.11226272767381061 1
gene  1 94 125 -0.4193564766439103 0 19809.0 -0.4193564766439103 1
gene  1 98 125 0.01740937905568505 0 19813.0 0.01740937905568505 1
gene  1 99 125 0.75972300745324 0 19814.0 0.75972300745324 1
gene  1 100 125 -0.2773363640091342 0 19815.0 -0.2773363640091342 1
gene  1 101 125 0.6210846246982531 0 19816.0 0.6210846246982531 1
gene  1 109 125 0.08626883355041906 0 19824.0 0.08626883355041906 1
gene  1 112 125 -0.26116319242838126 0 19827.0 -0.26116319242838126 1
gene  1 114 125 -0.7472188527823791 0 19829.0 -0.7472188527823791 1
gene  1 116 125 0.615271301390957 0 19831.0 0.615271301390957 1
gene  1 117 125 -0.0020963470169092363 0 19832.0 -0.0020963470169092363 1
gene  1 118 125 0.18295957155650722 0 19833.0 0.18295957155650722 1
gene  1 121 125 -0.5533192223767758 0 19836.0 -0.5533192223767758 1
gene  1 122 125 0.657104460509965 0 19837.0 0.657104460509965 1
gene  1 123 125 -0.41935019789123645 0 19838.0 -0.41935019789123645 1
gene  1 124 125 -0.7727946864141851 0 19839.0 -0.7727946864141851 1
gene  1 125 125 0.37052534301815854 1 19840.0 0.37052534301815854 1
gene  1 126 125 -0.3864810076894588 1 19841.0 -0.3864810076894588 1
gene  1 127 125 -0.75438812307895 1 19842.0 -0.75438812307895 1
gene  1 128 125 0.7670851216593902 1 19843.0 0.7670851216593902 1
gene  1 131 125 -0.36042476336360235 1 19846.0 -0.36042476336360235 1
gene  1 156 125 -0.16227707252820261 1 19871.0 -0.16227707252820261 1
gene  1 157 125 0.6975167923541488 1 19872.0 0.6975167923541488 1
gene  1 159 125 -1.0549929706855616 1 19874.0 -1.0549929706855616 1
gene  1 3 126 0.8142356264859871 0 19877.0 0.8142356264859871 1
gene  1 4 126 0.17756323526045037 0 19878.0 0.17756323526045037 1
gene  1 8 126 0.6873752662084714 0 19882.0 0.6873752662084714 1
gene  1 10 126 0.08627910740853964 0 19884.0 0.08627910740853964 1
gene  1 11 126 -0.6479978581857719 0 19885.0 -0.6479978581857719 1
gene  1 12 126 0.713676103607267 0 19886.0 0.713676103607267 1
gene  1 13 126 0.5187842815790951 0 19887.0 0.5187842815790951 1
gene  1 16 126 0.2739861222193118 0 19890.0 0.2739861222193118 1
gene  1 19 126 -0.8905521075596968 0 19893.0 -0.8905521075596968 1
gene  1 20 126 -0.20974920039827322 0 19894.0 -0.20974920039827322 1
gene  1 22 126 0.3603732860067316 0 19896.0 0.3603732860067316 1
gene  1 23 126 0.8147518276295407 0 19897.0 0.8147518276295407 1
gene  1 24 126 0.10000641849451568 0 19898.0 0.10000641849451568 1
gene  1 28 126 -0.3577348506521295 0 19902.0 -0.3577348506521295 1
gene  1 31 126 -0.11138095726479426 0 19905.0 -0.11138095726479426 1
gene  1 32 126 0.5841348516382541 0 19906.0 0.5841348516382541 1
gene  1 33 126 0.7304842105805728 0 19907.0 0.7304842105805728 1
gene  1 34 126 -0.4102968377032843 0 19908.0 -0.4102968377032843 1
gene  1 35 126 0.07991723019515545 0 19909.0 0.07991723019515545 1
gene  1 36 126 0.3451854098171791 0 19910.0 0.3451854098171791 1
gene  1 39 126 0.7295748277251406 0 19913.0 0.7295748277251406 1
gene  1 40 126 -0.3839770231126797 0 19914.0 -0.3839770231126797 1
gene  1 42 126 -0.01361080552597381 0 19916.0 -0.01361080552597381 1
gene  1 43 126 -0.9776966818358598 0 19917.0 -0.9776966818358598 1
gene  1 44 126 -0.4849555681863488 0 19918.0 -0.4849555681863488 1
gene  1 45 126 -0.44615129769453 0 19919.0 -0.44615129769453 1
gene  1 46 126 0.6506711017726489 0 19920.0 0.6506711017726489 1
gene  1 47 126 -0.399194468047154 0 19921.0 -0.399194468047154 1
gene  1 50 126 0.740834420355538 0 19924.0 0.740834420355538 1
gene  1 52 126 -0.8869199304615991 0 19926.0 -0.8869199304615991 1
gene  1 54 126 -0.9460756338873664 0 19928.0 -0.9460756338873664 1
gene  1 56 126 0.1858688284695421 0 19930.0 0.1858688284695421 1
gene  1 59 126 -0.5776520331357569 0 19933.0 -0.5776520331357569 1
gene  1 63 126 0.36367988220108904 0 19937.0 0.36367988220108904 1
gene  1 64 126 -0.08182983730979143 0 19938.0 -0.08182983730979143 1
gene  1 65 126 0.6872442687040234 0 19939.0 0.6872442687040234 1
gene  1 66 126 0.14210921981621283 0 19940.0 0.14210921981621283 1
gene  1 68 126 -0.08519575284020704 0 19942.0 -0.08519575284020704 1
gene  1 69 126 -0.8500573179636451 0 19943.0 -0.8500573179636451 1
gene  1 73 126 0.4746757700469977 0 19947.0 0.4746757700469977 1
gene  1 74 126 -0.8659475464966409 0 19948.0 -0.8659475464966409 1
gene  1 77 126 -0.49762652860726897 0 19951.0 -0.49762652860726897 1
gene  1 78 126 1.0538618472347352 0 19952.0 1.0538618472347352 1
gene  1 79 126 -1.0657580858429743 0 19953.0 -1.0657580858429743 1
gene  1 80 126 -0.37249074545509536 0 19954.0 -0.37249074545509536 1
gene  1 81 126 -0.455177626893278 0 19955.0 -0.455177626893278 0
gene  1 82 126 0.013817077466746049 0 19956.0 0.013817077466746049 1
gene  1 92 126 0.5082699532885998 0 19966.0 0.5082699532885998 1
gene  1 93 126 0.21251302246763595 0 19967.0 0.21251302246763595 1
gene  1 94 126 0.4088236841054551 0 19968.0 0.4088236841054551 1
gene  1 95 126 -0.417879036313323 0 19969.0 -0.417879036313323 1
gene  1 96 126 1.1367369006067713 0 19970.0 1.1367369006067713 1
gene  1 99 126 0.7544826452805606 0 19973.0 0.7544826452805606 1
gene  1 100 126 -0.10871161846121966 0 19974.0 -0.10871161846121966 1
gene  1 101 126 0.015326721908005964 0 19975.0 0.015326721908005964 1
gene  1 102 126 0.5935717025784892 0 19976.0 0.5935717025784892 1
gene  1 103 126 0.8326658299738738 0 19977.0 0.8326658299738738 1
gene  1 105 126 -0.5402224847600603 0 19979.0 -0.5402224847600603 1
gene  1 109 126 0.12812057857073217 0 19983.0 0.12812057857073217 1
gene  1 110 126 -0.8217355928292618 0 19984.0 -0.8217355928292618 1
gene  1 112 126 0.1417767076969561 0 19986.0 0.1417767076969561 1
gene  1 113 126 -1.0762062058846356 0 19987.0 -1.0762062058846356 1
gene  1 117 126 -0.8495793859415932 0 19991.0 -0.8495793859415932 1
gene  1 118 126 -0.5973514859468796 0 19992.0 -0.5973514859468796 1
gene  1 119 126 -0.08968629439409728 0 19993.0 -0.08968629439409728 1
gene  1 120 126 -0.4866242779292853 0 19994.0 -0.4866242779292853 1
gene  1 123 126 -0.6333767653453679 0 19997.0 -0.6333767653453679 1
gene  1 124 126 -0.8179158089644224 0 19998.0 -0.8179158089644224 1
gene  1 125 126 -0.5380286378525037 0 19999.0 -0.5380286378525037 1
gene  1 128 126 0.23982838875255746 1 20002.0 0.23982838875255746 1
gene  1 132 126 -0.35041532281594834 1 20006.0 -0.35041532281594834 1
gene  1 155 126 0.6561058264765002 1 20029.0 0.6561058264765002 1
gene  1 156 126 -0.23120154787768868 1 20030.0 -0.23120154787768868 1
gene  1 158 126 -0.26568231103074574 1 20032.0 -0.26568231103074574 1
gene  1 159 126 -0.30351624994277754 1 20033.0 -0.30351624994277754 1
gene  1 4 127 0.22313637902058692 0 20037.0 0.22313637902058692 1
gene  1 8 127 -0.09808569286697023 0 20041.0 -0.09808569286697023 1
gene  1 11 127 0.6965308827605515 0 20044.0 0.6965308827605515 1
gene  1 13 127 0.7696633115689031 0 20046.0 0.7696633115689031 1
gene  1 16 127 -0.323835518828439 0 20049.0 -0.323835518828439 1
gene  1 17 127 0.03262976820224814 0 20050.0 0.03262976820224814 1
gene  1 21 127 -0.6932744733918713 0 20054.0 -0.6932744733918713 1
gene  1 23 127 0.5492331900489407 0 20056.0 0.5492331900489407 1
gene  1 25 127 -0.7503755263758636 0 20058.0 -0.7503755263758636 1
gene  1 29 127 -0.4288626996139675 0 20062.0 -0.4288626996139675 1
gene  1 31 127 0.38104503749571544 0 20064.0 0.38104503749571544 1
gene  1 32 127 -0.26482584389749264 0 20065.0 -0.26482584389749264 1
gene  1 33 127 -0.9803068939828348 0 20066.0 -0.9803068939828348 1
gene  1 36 127 -0.05201034650742932 0 20069.0 -0.05201034650742932 1
gene  1 37 127 -0.4838669363005824 0 20070.0 -0.4838669363005824 1
gene  1 38 127 -0.11217111127062243 0 20071.0 -0.11217111127062243 1
gene  1 41 127 0.9074154107405159 0 20074.0 0.9074154107405159 1
gene  1 42 127 0.09488289967437354 0 20075.0 0.09488289967437354 1
gene  1 45 127 -0.7562654972604121 0 20078.0 -0.7562654972604121 1
gene  1 47 127 -0.6383265556106306 0 20080.0 -0.6383265556106306 1
gene  1 48 127 0.06657361477297229 0 20081.0 0.06657361477297229 1
gene  1 51 127 0.09536292235881842 0 20084.0 0.09536292235881842 1
gene  1 52 127 -0.6516181326668409 0 20085.0 -0.6516181326668409 1
gene  1 57 127 0.4341362632063578 0 20090.0 0.4341362632063578 1
gene  1 58 127 -0.3630139710807485 0 20091.0 -0.3630139710807485 1
gene  1 61 127 -0.30304028752455847 0 20094.0 -0.30304028752455847 1
gene  1 63 127 -0.34253673928129946 0 20096.0 -0.34253673928129946 1
gene  1 64 127 0.7401519630087681 0 20097.0 0.7401519630087681 1
gene  1 65 127 -0.03539431818657228 0 20098.0 -0.03539431818657228 1
gene  1 67 127 -0.4886659147234744 0 20100.0 -0.4886659147234744 1
gene  1 68 127 -0.868155663087222 0 20101.0 -0.868155663087222 1
gene  1 69 127 0.7162588876216586 0 20102.0 0.7162588876216586 1
gene  1 70 127 -0.5881456928729418 0 20103.0 -0.5881456928729418 1
gene  1 71 127 0.8258805397795767 0 20104.0 0.8258805397795767 1
gene  1 73 127 0.46891789048318044 0 20106.0 0.46891789048318044 1
gene  1 75 127 -0.5432955410150753 0 20108.0 -0.5432955410150753 1
gene  1 81 127 0.6081869867361607 0 20114.0 0.6081869867361607 1
gene  1 83 127 0.3592538245577202 0 20116.0 0.3592538245577202 1
gene  1 84 127 -0.9330942689619139 0 20117.0 -0.9330942689619139 1
gene  1 86 127 0.36676854939613274 0 20119.0 0.36676854939613274 1
gene  1 87 127 0.23872897436963303 0 20120.0 0.23872897436963303 1
gene  1 90 127 -0.06669365324012111 0 20123.0 -0.06669365324012111 1
gene  1 92 127 0.8066419726358209 0 20125.0 0.8066419726358209 1
gene  1 96 127 -0.09794604012646652 0 20129.0 -0.09794604012646652 1
gene  1 97 127 0.6158142581052959 0 20130.0 0.6158142581052959 1
gene  1 101 127 -0.16095511314237923 0 20134.0 -0.16095511314237923 1
gene  1 102 127 -0.5085892495699089 0 20135.0 -0.5085892495699089 1
gene  1 104 127 0.4170173889220731 0 20137.0 0.4170173889220731 1
gene  1 106 127 0.07313445691043358 0 20139.0 0.07313445691043358 1
gene  1 107 127 0.23742645751081984 0 20140.0 0.23742645751081984 1
gene  1 109 127 0.14582027472660888 0 20142.0 0.14582027472660888 1
gene  1 110 127 0.10872709766308901 0 20143.0 0.10872709766308901 1
gene  1 111 127 -0.583290106159017 0 20144.0 -0.583290106159017 1
gene  1 113 127 0.4205517219413246 0 20146.0 0.4205517219413246 1
gene  1 116 127 -0.5100112047428401 0 20149.0 -0.5100112047428401 1
gene  1 117 127 -0.6302480985279271 0 20150.0 -0.6302480985279271 1
gene  1 118 127 -0.5144022648036327 0 20151.0 -0.5144022648036327 1
gene  1 125 127 0.42163244733015487 0 20158.0 0.42163244733015487 1
gene  1 129 127 0.40800595372913384 1 20162.0 0.40800595372913384 1
gene  1 130 127 0.251182730686621 1 20163.0 0.251182730686621 1
gene  1 131 127 0.8047045636243609 1 20164.0 0.8047045636243609 1
gene  1 132 127 -0.40903831516284034 1 20165.0 -0.40903831516284034 1
gene  1 155 127 -0.26547184934311985 1 20188.0 -0.26547184934311985 1
gene  1 157 127 0.038891016586408755 1 20190.0 0.038891016586408755 1
gene  1 159 127 0.5878894130647627 1 20192.0 0.5878894130647627 1
gene  1 2 128 -0.12596572610656243 0 20194.0 -0.12596572610656243 1
gene  1 3 128 -0.4910807669857953 0 20195.0 -0.4910807669857953 1
gene  1 4 128 0.5726282995716705 0 20196.0 0.5726282995716705 1
gene  1 6 128 0.9053020941984093 0 20198.0 0.9053020941984093 1
gene  1 7 128 0.1476246948491602 0 20199.0 0.1476246948491602 1
gene  1 8 128 0.30258328051467187 0 20200.0 0.30258328051467187 1
gene  1 10 128 -0.9459681326634168 0 20202.0 -0.9459681326634168 1
gene  1 11 128 0.8019962503021963 0 20203.0 0.8019962503021963 1
gene  1 17 128 -0.7088260391113197 0 20209.0 -0.7088260391113197 0
gene  1 18 128 -0.264996900851967 0 20210.0 -0.264996900851967 1
gene  1 19 128 0.6831370225336425 0 20211.0 0.6831370225336425 1
gene  1 21 128 -0.24705951665978038 0 20213.0 -0.24705951665978038 1
gene  1 22 128 0.5180146965171442 0 20214.0 0.5180146965171442 1
gene  1 29 128 -0.16857811348515558 0 20221.0 -0.16857811348515558 1
gene  1 30 128 -0.6797405628318207 0 20222.0 -0.6797405628318207 1
gene  1 31 128 0.09858340765033788 0 20223.0 0.09858340765033788 1
gene  1 32 128 0.4681692819795973 0 20224.0 0.4681692819795973 1
gene  1 34 128 -0.6112885236124227 0 20226.0 -0.6112885236124227 1
gene  1 35 128 -0.5677430545009966 0 20227.0 -0.5677430545009966 1
gene  1 37 128 0.8053853260835077 0 20229.0 0.8053853260835077 1
gene  1 38 128 -0.8922216117889679 0 20230.0 -0.8922216117889679 1
gene  1 42 128 0.25115340692297455 0 20234.0 0.25115340692297455 1
gene  1 43 128 -0.7236618098404384 0 20235.0 -0.7236618098404384 1
gene  1 48 128 -0.29543584239116366 0 20240.0 -0.29543584239116366 1
gene  1 49 128 0.1770668423810529 0 20241.0 0.1770668423810529 1
gene  1 50 128 -0.24333765711957325 0 20242.0 -0.24333765711957325 1
gene  1 51 128 0.7226974496241014 0 20243.0 0.7226974496241014 1
gene  1 52 128 0.5131495699716457 0 20244.0 0.5131495699716457 1
gene  1 54 128 0.9176205766989947 0 20246.0 0.9176205766989947 1
gene  1 58 128 -0.12222166193464548 0 20250.0 -0.12222166193464548 1
gene  1 59 128 0.23283908903484057 0 20251.0 0.23283908903484057 1
gene  1 63 128 -0.2666006839845271 0 20255.0 -0.2666006839845271 1
gene  1 69 128 -0.18091697869843698 0 20261.0 -0.18091697869843698 1
gene  1 72 128 -0.37155476081892913 0 20264.0 -0.37155476081892913 1
gene  1 73 128 0.16746011054622734 0 20265.0 0.16746011054622734 1
gene  1 75 128 0.6203186765771125 0 20267.0 0.6203186765771125 1
gene  1 76 128 0.5658578833867921 0 20268.0 0.5658578833867921 1
gene  1 81 128 -0.7729645904249087 0 20273.0 -0.7729645904249087 1
gene  1 85 128 -1.0403160888164737 0 20277.0 -1.0403160888164737 1
gene  1 87 128 -0.3700254891894945 0 20279.0 -0.3700254891894945 1
gene  1 90 128 0.21754720801745603 0 20282.0 0.21754720801745603 1
gene  1 93 128 -0.17724316581543564 0 20285.0 -0.17724316581543564 1
gene  1 94 128 -0.07808487487070198 0 20286.0 -0.07808487487070198 1
gene  1 96 128 0.5188114277627384 0 20288.0 0.5188114277627384 1
gene  1 98 128 0.3400263908147146 0 20290.0 0.3400263908147146 1
gene  1 99 128 -0.12328764098925027 0 20291.0 -0.12328764098925027 1
gene  1 101 128 0.06469400542634253 0 20293.0 0.06469400542634253 1
gene  1 103 128 -0.27000496151937226 0 20295.0 -0.27000496151937226 1
gene  1 107 128 0.7989964547670669 0 20299.0 0.7989964547670669 1
gene  1 108 128 -0.7736366955182752 0 20300.0 -0.7736366955182752 1
gene  1 110 128 0.443429653813793 0 20302.0 0.443429653813793 1
gene  1 112 128 0.8862225215379924 0 20304.0 0.8862225215379924 1
gene  1 114 128 -0.11908772979361204 0 20306.0 -0.11908772979361204 1
gene  1 115 128 0.48497899697607155 0 20307.0 0.48497899697607155 1
gene  1 118 128 0.5954578500923073 0 20310.0 0.5954578500923073 1
gene  1 119 128 -0.7476369720690821 0 20311.0 -0.7476369720690821 1
gene  1 121 128 0.6284849746081386 0 20313.0 0.6284849746081386 1
gene  1 122 128 0.22542295343464958 0 20314.0 0.22542295343464958 1
gene  1 123 128 -0.2626321771427355 0 20315.0 -0.2626321771427355 1
gene  1 125 128 -0.26077574238036305 0 20317.0 -0.26077574238036305 1
gene  1 126 128 -0.5116376881628493 0 20318.0 -0.5116376881628493 1
gene  1 128 128 0.10621878732716275 1 20320.0 0.10621878732716275 1
gene  1 155 128 -0.08828906980983753 1 20347.0 -0.08828906980983753 1
gene  1 156 128 -0.21562468051345135 1 20348.0 -0.21562468051345135 1
gene  1 158 128 -0.2933035836617346 1 20350.0 -0.2933035836617346 1
gene  1 159 128 0.6909267012790121 1 20351.0 0.6909267012790121 1
gene  1 1 129 -0.5925334411685568 0 20352.0 -0.5925334411685568 1
gene  1 2 129 -0.34767385995244987 0 20353.0 -0.34767385995244987 1
gene  1 4 129 0.6642991757959731 0 20355.0 0.6642991757959731 1
gene  1 5 129 -0.6011879347924168 0 20356.0 -0.6011879347924168 1
gene  1 6 129 -0.29214489369227864 0 20357.0 -0.29214489369227864 1
gene  1 7 129 0.09080861307698393 0 20358.0 0.09080861307698393 1
gene  1 8 129 0.4939428137085774 0 20359.0 0.4939428137085774 1
gene  1 11 129 0.33787539987952603 0 20362.0 0.33787539987952603 1
gene  1 12 129 0.4647627377197721 0 20363.0 0.4647627377197721 1
gene  1 16 129 0.7151975691867953 0 20367.0 0.7151975691867953 1
gene  1 17 129 0.9165831076197918 0 20368.0 0.9165831076197918 1
gene  1 20 129 -0.15674773569034617 0 20371.0 -0.15674773569034617 1
gene  1 23 129 -0.7388564173096008 0 20374.0 -0.7388564173096008 1
gene  1 25 129 -0.3321312800490001 0 20376.0 -0.3321312800490001 1
gene  1 26 129 0.6420689783181988 0 20377.0 0.6420689783181988 1
gene  1 27 129 -0.29403551108435055 0 20378.0 -0.29403551108435055 1
gene  1 28 129 -0.1997352579329319 0 20379.0 -0.1997352579329319 1
gene  1 35 129 0.20092122846912708 0 20386.0 0.20092122846912708 1
gene  1 36 129 -0.0508813219464945 0 20387.0 -0.0508813219464945 1
gene  1 37 129 -0.6591897198428865 0 20388.0 -0.6591897198428865 1
gene  1 39 129 0.616005001602791 0 20390.0 0.616005001602791 1
gene  1 41 129 0.7915160379234747 0 20392.0 0.7915160379234747 1
gene  1 42 129 0.6675227713889216 0 20393.0 0.6675227713889216 1
gene  1 44 129 0.5357956869084456 0 20395.0 0.5357956869084456 1
gene  1 45 129 0.21791456584509739 0 20396.0 0.21791456584509739 1
gene  1 46 129 0.8959476731655931 0 20397.0 0.8959476731655931 1
gene  1 49 129 0.4483531384570802 0 20400.0 0.4483531384570802 1
gene  1 51 129 0.7838455186127257 0 20402.0 0.7838455186127257 1
gene  1 52 129 -0.5908217500620692 0 20403.0 -0.5908217500620692 1
gene  1 53 129 0.1489920629482908 0 20404.0 0.1489920629482908 1
gene  1 57 129 -0.6285746987490083 0 20408.0 -0.6285746987490083 1
gene  1 61 129 0.5114723644458726 0 20412.0 0.5114723644458726 1
gene  1 64 129 -0.36630856937977385 0 20415.0 -0.36630856937977385 1
gene  1 66 129 0.26013589484626554 0 20417.0 0.26013589484626554 1
gene  1 67 129 -0.8131816650543516 0 20418.0 -0.8131816650543516 1
gene  1 71 129 0.6407089804976009 0 20422.0 0.6407089804976009 1
gene  1 72 129 0.6340624142035347 0 20423.0 0.6340624142035347 1
gene  1 73 129 -0.4954058586610705 0 20424.0 -0.4954058586610705 1
gene  1 74 129 0.01887874221225693 0 20425.0 0.01887874221225693 1
gene  1 76 129 0.22168983981691726 0 20427.0 0.22168983981691726 1
gene  1 77 129 -0.3161639823835718 0 20428.0 -0.3161639823835718 1
gene  1 78 129 -0.6058196123037628 0 20429.0 -0.6058196123037628 1
gene  1 80 129 0.5143826844152402 0 20431.0 0.5143826844152402 1
gene  1 82 129 0.5205733365031856 0 20433.0 0.5205733365031856 1
gene  1 83 129 0.005711153202647977 0 20434.0 0.005711153202647977 1
gene  1 86 129 0.41306803258386293 0 20437.0 0.41306803258386293 1
gene  1 87 129 0.3387570569410427 0 20438.0 0.3387570569410427 1
gene  1 90 129 -0.04429510489554198 0 20441.0 -0.04429510489554198 1
gene  1 94 129 0.5702942705124217 0 20445.0 0.5702942705124217 1
gene  1 95 129 0.9544239785479454 0 20446.0 0.9544239785479454 1
gene  1 101 129 0.8450980696720598 0 20452.0 0.8450980696720598 1
gene  1 102 129 -0.09051698400310482 0 20453.0 -0.09051698400310482 1
gene  1 103 129 0.7910997762574455 0 20454.0 0.7910997762574455 1
gene  1 104 129 -0.280218136691141 0 20455.0 -0.280218136691141 1
gene  1 106 129 0.21437117906951886 0 20457.0 0.21437117906951886 1
gene  1 108 129 -0.01405436943817688 0 20459.0 -0.01405436943817688 1
gene  1 110 129 -0.2146249833392994 0 20461.0 -0.2146249833392994 1
gene  1 112 129 0.0901321649324478 0 20463.0 0.0901321649324478 1
gene  1 113 129 -0.8536796104720846 0 20464.0 -0.8536796104720846 1
gene  1 114 129 0.8208493799916319 0 20465.0 0.8208493799916319 1
gene  1 115 129 0.4297438202015791 0 20466.0 0.4297438202015791 1
gene  1 117 129 0.16653734048005725 0 20468.0 0.16653734048005725 1
gene  1 118 129 0.37821480624539916 0 20469.0 0.37821480624539916 1
gene  1 121 129 -0.7504155887509281 0 20472.0 -0.7504155887509281 1
gene  1 122 129 0.1340798040037063 0 20473.0 0.1340798040037063 1
gene  1 125 129 0.2736362600142734 0 20476.0 0.2736362600142734 1
gene  1 126 129 -0.3483894110468181 0 20477.0 -0.3483894110468181 1
gene  1 130 129 0.2573841048582639 1 20481.0 0.2573841048582639 1
gene  1 131 129 -0.7407099284663924 1 20482.0 -0.7407099284663924 1
gene  1 132 129 -0.3500972037884027 1 20483.0 -0.3500972037884027 1
gene  1 1 130 -0.876617147947981 0 20511.0 -0.876617147947981 1
gene  1 3 130 0.14342879986412338 0 20513.0 0.14342879986412338 1
gene  1 4 130 0.08681324452550052 0 20514.0 0.08681324452550052 1
gene  1 5 130 0.4489253031958148 0 20515.0 0.4489253031958148 1
gene  1 7 130 0.1865521918963834 0 20517.0 0.1865521918963834 1
gene  1 8 130 0.08024565542366516 0 20518.0 0.08024565542366516 1
gene  1 11 130 0.9211030695818765 0 20521.0 0.9211030695818765 1
gene  1 14 130 0.39867303906532364 0 20524.0 0.39867303906532364 1
gene  1 16 130 0.6359110631350968 0 20526.0 0.6359110631350968 1
gene  1 19 130 0.19570425351499657 0 20529.0 0.19570425351499657 1
gene  1 20 130 0.24752416489170093 0 20530.0 0.24752416489170093 1
gene  1 23 130 1.0077903045261911 0 20533.0 1.0077903045261911 1
gene  1 26 130 -0.41321106686446346 0 20536.0 -0.41321106686446346 1
gene  1 27 130 0.6651691103824202 0 20537.0 0.6651691103824202 1
gene  1 32 130 -0.28570354865084646 0 20542.0 -0.28570354865084646 1
gene  1 35 130 0.19686910968586946 0 20545.0 0.19686910968586946 1
gene  1 36 130 -0.69450993770464 0 20546.0 -0.69450993770464 1
gene  1 39 130 0.031702371581391386 0 20549.0 0.031702371581391386 1
gene  1 40 130 0.5123694071159937 0 20550.0 0.5123694071159937 1
gene  1 41 130 -0.19384120605026217 0 20551.0 -0.19384120605026217 1
gene  1 43 130 0.5069288500289497 0 20553.0 0.5069288500289497 1
gene  1 46 130 -0.1545068894059391 0 20556.0 -0.1545068894059391 1
gene  1 47 130 -0.023145469219725795 0 20557.0 -0.023145469219725795 0
gene  1 48 130 0.27657184473565255 0 20558.0 0.27657184473565255 1
gene  1 49 130 0.23694596672823212 0 20559.0 0.23694596672823212 1
gene  1 51 130 0.25472577428763465 0 20561.0 0.25472577428763465 1
gene  1 52 130 -0.2869788727171732 0 20562.0 -0.2869788727171732 1
gene  1 55 130 0.4588875566840154 0 20565.0 0.4588875566840154 1
gene  1 58 130 0.04610379773854029 0 20568.0 0.04610379773854029 1
gene  1 61 130 0.6126353668974158 0 20571.0 0.6126353668974158 1
gene  1 62 130 -0.22487135203387387 0 20572.0 -0.22487135203387387 1
gene  1 64 130 0.9430665905304668 0 20574.0 0.9430665905304668 1
gene  1 67 130 -0.38605936229038706 0 20577.0 -0.38605936229038706 1
gene  1 71 130 0.653808964917054 0 20581.0 0.653808964917054 1
gene  1 73 130 0.1123262841456486 0 20583.0 0.1123262841456486 1
gene  1 76 130 0.5348889017307078 0 20586.0 0.5348889017307078 1
gene  1 82 130 -0.13221791365208085 0 20592.0 -0.13221791365208085 1
gene  1 83 130 -0.1972003038316713 0 20593.0 -0.1972003038316713 1
gene  1 84 130 0.6546929932465405 0 20594.0 0.6546929932465405 1
gene  1 88 130 0.04476765504657183 0 20598.0 0.04476765504657183 1
gene  1 90 130 0.6275386317361776 0 20600.0 0.6275386317361776 1
gene  1 91 130 0.6756294628658749 0 20601.0 0.6756294628658749 1
gene  1 93 130 0.41312363089295645 0 20603.0 0.41312363089295645 1
gene  1 95 130 -0.946823684567005 0 20605.0 -0.946823684567005 1
gene  1 98 130 -0.7152971561518049 0 20608.0 -0.7152971561518049 1
gene  1 99 130 -0.3922679923548772 0 20609.0 -0.3922679923548772 1
gene  1 101 130 0.6799949845463892 0 20611.0 0.6799949845463892 1
gene  1 106 130 0.5601152366305868 0 20616.0 0.5601152366305868 1
gene  1 107 130 -0.16219100785021412 0 20617.0 -0.16219100785021412 1
gene  1 108 130 -1.0171006063582595 0 20618.0 -1.0171006063582595 1
gene  1 109 130 0.5367624539537598 0 20619.0 0.5367624539537598 1
gene  1 112 130 0.10555389576033801 0 20622.0 0.10555389576033801 1
gene  1 113 130 0.18699569155099646 0 20623.0 0.18699569155099646 1
gene  1 114 130 -0.9196530956065503 0 20624.0 -0.9196530956065503 1
gene  1 115 130 -0.41382117772195604 0 20625.0 -0.41382117772195604 1
gene  1 116 130 0.6597731784122696 0 20626.0 0.6597731784122696 1
gene  1 119 130 -0.20887359563052466 0 20629.0 -0.20887359563052466 1
gene  1 120 130 -0.7428686249359179 0 20630.0 -0.7428686249359179 1
gene  1 121 130 0.403626012950444 0 20631.0 0.403626012950444 1
gene  1 122 130 -0.36665503316967857 0 20632.0 -0.36665503316967857 1
gene  1 123 130 0.17743254607454834 0 20633.0 0.17743254607454834 1
gene  1 128 130 -0.2175006172806468 0 20638.0 -0.2175006172806468 1
gene  1 131 130 0.3184833079640157 1 20641.0 0.3184833079640157 1
gene  1 132 130 -0.4220397973683283 1 20642.0 -0.4220397973683283 1
gene  1 156 130 -0.5897644931896768 1 20666.0 -0.5897644931896768 1
gene  1 1 131 -0.5031741721871695 0 20670.0 -0.5031741721871695 1
gene  1 5 131 0.18594800575442216 0 20674.0 0.18594800575442216 1
gene  1 9 131 -0.5709144750716999 0 20678.0 -0.5709144750716999 1
gene  1 10 131 -0.41280214362866013 0 20679.0 -0.41280214362866013 1
gene  1 12 131 -0.15712401808793344 0 20681.0 -0.15712401808793344 1
gene  1 13 131 0.11819941448657603 0 20682.0 0.11819941448657603 1
gene  1 14 131 -0.5945570614481144 0 20683.0 -0.5945570614481144 1
gene  1 15 131 -0.04470715877596884 0 20684.0 -0.04470715877596884 1
gene  1 16 131 -0.3240810492814667 0 20685.0 -0.3240810492814667 1
gene  1 18 131 0.27971152812431305 0 20687.0 0.27971152812431305 1
gene  1 19 131 0.3214110830423379 0 20688.0 0.3214110830423379 1
gene  1 22 131 0.6068859542236424 0 20691.0 0.6068859542236424 1
gene  1 24 131 -0.7218302371564107 0 20693.0 -0.7218302371564107 1
gene  1 25 131 0.22929624285502362 0 20694.0 0.22929624285502362 1
gene  1 26 131 -0.11671461822504779 0 20695.0 -0.11671461822504779 1
gene  1 27 131 0.7118370901344838 0 20696.0 0.7118370901344838 1
gene  1 29 131 -0.08969188650198798 0 20698.0 -0.08969188650198798 1
gene  1 30 131 0.4244214882188351 0 20699.0 0.4244214882188351 1
gene  1 31 131 -0.06610862785966203 0 20700.0 -0.06610862785966203 1
gene  1 33 131 0.6970703437037145 0 20702.0 0.6970703437037145 1
gene  1 34 131 0.5432909861539144 0 20703.0 0.5432909861539144 1
gene  1 39 131 0.22311344442149125 0 20708.0 0.22311344442149125 1
gene  1 40 131 -0.8113048634032213 0 20709.0 -0.8113048634032213 1
gene  1 42 131 -0.17867165848631017 0 20711.0 -0.17867165848631017 1
gene  1 43 131 0.4492983341626897 0 20712.0 0.4492983341626897 1
gene  1 44 131 0.19022081501841237 0 20713.0 0.19022081501841237 1
gene  1 45 131 0.018457364002590133 0 20714.0 0.018457364002590133 1
gene  1 46 131 0.039517658207758384 0 20715.0 0.039517658207758384 1
gene  1 47 131 -0.13339927133219154 0 20716.0 -0.13339927133219154 1
gene  1 48 131 0.41025216544740384 0 20717.0 0.41025216544740384 1
gene  1 50 131 -0.9624113732575758 0 20719.0 -0.9624113732575758 1
gene  1 53 131 -0.09942127400042346 0 20722.0 -0.09942127400042346 1
gene  1 54 131 0.15411764435966793 0 20723.0 0.15411764435966793 1
gene  1 55 131 0.4292427555970385 0 20724.0 0.4292427555970385 1
gene  1 56 131 0.9956016043476402 0 20725.0 0.9956016043476402 1
gene  1 57 131 0.6909875816178974 0 20726.0 0.6909875816178974 1
gene  1 59 131 0.8830311019501447 0 20728.0 0.8830311019501447 1
gene  1 62 131 -0.1318715157535228 0 20731.0 -0.1318715157535228 1
gene  1 63 131 0.3831571036585103 0 20732.0 0.3831571036585103 1
gene  1 65 131 0.20265443801724903 0 20734.0 0.20265443801724903 1
gene  1 67 131 -0.28269297130424903 0 20736.0 -0.28269297130424903 1
gene  1 69 131 -0.12669431302638484 0 20738.0 -0.12669431302638484 1
gene  1 70 131 0.009945585286820602 0 20739.0 0.009945585286820602 1
gene  1 71 131 0.44418773460665695 0 20740.0 0.44418773460665695 1
gene  1 74 131 0.7858371756251388 0 20743.0 0.7858371756251388 1
gene  1 75 131 -0.5482733479811381 0 20744.0 -0.5482733479811381 1
gene  1 77 131 -0.3562478972733365 0 20746.0 -0.3562478972733365 1
gene  1 79 131 -0.7828738232779531 0 20748.0 -0.7828738232779531 1
gene  1 80 131 0.7169390878099929 0 20749.0 0.7169390878099929 1
gene  1 82 131 -0.4175007861743784 0 20751.0 -0.4175007861743784 1
gene  1 83 131 -0.6062073544651594 0 20752.0 -0.6062073544651594 1
gene  1 85 131 0.1470487853567469 0 20754.0 0.1470487853567469 1
gene  1 87 131 -0.051267037938274036 0 20756.0 -0.051267037938274036 1
gene  1 88 131 -0.18745941679519643 0 20757.0 -0.18745941679519643 1
gene  1 89 131 0.45900743777514125 0 20758.0 0.45900743777514125 1
gene  1 90 131 -0.6962513164817541 0 20759.0 -0.6962513164817541 1
gene  1 92 131 -0.7030740771340935 0 20761.0 -0.7030740771340935 1
