/* Species # 103         : (size= 013) (AvfFit= 0,000) (Age= 2,000)  */
/*-------------------------------------------------------------------*/
/* Organism # 000 Fitness: - 1,967 Error:  0,000                      */
genomestart  0
trait 1 0.0 0.0 0.0 0.0 0.0 0.0 0.0 0.0 
node 1 1 1 1
node 2 1 1 1
node 3 1 1 1
node 4 1 1 1
node 5 1 1 1
node 6 1 1 1
node 7 1 1 1
node 8 1 1 1
node 9 1 1 1
node 10 1 1 1
node 11 1 1 1
node 12 1 1 3
node 13 1 0 0
node 14 1 0 0
node 15 1 0 0
node 16 1 0 0
node 17 1 0 0
node 18 1 0 0
node 19 1 0 0
node 20 1 0 0
node 21 1 0 0
node 22 1 0 0
node 23 1 0 0
node 24 1 0 0
node 25 1 0 0
node 26 1 0 0
node 27 1 0 0
node 28 1 0 0
node 29 1 0 0
node 30 1 0 0
node 31 1 0 0
node 32 1 0 0
node 33 1 0 0
node 34 1 0 0
node 35 1 0 0
node 36 1 0 0
node 37 1 0 0
node 38 1 0 0
node 39 1 0 0
node 63 1 0 2
node 64 1 0 2
node 65 1 0 2
node 66 1 0 2
node 67 1 0 2
node 96 1 0 0
node 101 1 0 0
node 112 1 0 0
gene  1 3 13 0.03495615133717106 0 806.0 0.03495615133717106 1
gene  1 6 13 0.26620038255656203 0 809.0 0.26620038255656203 1
gene  1 7 13 -0.4582439285343074 0 810.0 -0.4582439285343074 1
gene  1 10 13 0.8675723773713455 0 813.0 0.8675723773713455 1
gene  1 11 13 0.503838350504595 0 814.0 0.503838350504595 1
gene  1 16 13 0.5350119291730607 1 819.0 0.5350119291730607 1
gene  1 17 13 0.21565492954616744 1 820.0 0.21565492954616744 1
gene  1 19 13 0.7519830850554027 1 822.0 0.7519830850554027 1
gene  1 20 13 0.7298433337261565 1 823.0 0.7298433337261565 1
gene  1 21 13 -0.5546532154548245 1 824.0 -0.5546532154548245 1
gene  1 23 13 0.005634563345991939 1 826.0 0.005634563345991939 1
gene  1 25 13 0.7333217302915718 1 828.0 0.7333217302915718 1
gene  1 29 13 -0.6530749854207434 1 832.0 -0.6530749854207434 1
gene  1 30 13 1.0141105406725874 1 833.0 1.0141105406725874 1
gene  1 31 13 -0.0748341903211726 1 834.0 -0.0748341903211726 1
gene  1 35 13 0.7661533951239942 1 838.0 0.7661533951239942 1
gene  1 36 13 0.005404325428464596 1 839.0 0.005404325428464596 1
gene  1 37 13 0.3069372310607894 1 840.0 0.3069372310607894 1
gene  1 38 13 0.8370244829519691 1 841.0 0.8370244829519691 1
gene  1 39 13 -0.8209032173444091 1 842.0 -0.8209032173444091 1
gene  1 63 13 0.8913764784687521 1 866.0 0.8913764784687521 1
gene  1 1 14 0.07028457404596268 0 871.0 0.07028457404596268 1
gene  1 2 14 -0.14034573287214375 0 872.0 -0.14034573287214375 1
gene  1 3 14 -0.03884893689224064 0 873.0 -0.03884893689224064 1
gene  1 5 14 0.8359640771236226 0 875.0 0.8359640771236226 1
gene  1 9 14 -0.01769440839026244 0 879.0 -0.01769440839026244 1
gene  1 11 14 0.6112812068205958 0 881.0 0.6112812068205958 1
gene  1 12 14 0.9872468442044406 0 882.0 0.9872468442044406 1
gene  1 16 14 -0.2278930433326537 1 886.0 -0.2278930433326537 1
gene  1 19 14 -0.061337183016594625 1 889.0 -0.061337183016594625 1
gene  1 20 14 -0.3646148237840069 1 890.0 -0.3646148237840069 1
gene  1 22 14 -0.6977313602650979 1 892.0 -0.6977313602650979 1
gene  1 23 14 0.6287781065139333 1 893.0 0.6287781065139333 1
gene  1 26 14 -0.6202704414241348 1 896.0 -0.6202704414241348 1
gene  1 29 14 0.3013265688995073 1 899.0 0.3013265688995073 1
gene  1 33 14 -0.5281500755141365 1 903.0 -0.5281500755141365 1
gene  1 36 14 -0.7703422562845786 1 906.0 -0.7703422562845786 1
gene  1 37 14 -0.8057620473089738 1 907.0 -0.8057620473089738 1
gene  1 39 14 0.9340300498097902 1 909.0 0.9340300498097902 1
gene  1 64 14 0.05985521589912551 1 934.0 0.05985521589912551 1
gene  1 65 14 0.9544105697783776 1 935.0 0.9544105697783776 1
gene  1 67 14 -0.9691784735211021 1 937.0 -0.9691784735211021 1
gene  1 3 15 0.038123138181439656 0 940.0 0.038123138181439656 1
gene  1 4 15 0.9901744987790246 0 941.0 0.9901744987790246 1
gene  1 8 15 0.5011118218337189 0 945.0 0.5011118218337189 1
gene  1 9 15 0.8974624277518809 0 946.0 0.8974624277518809 1
gene  1 11 15 -0.7428201368137908 0 948.0 -0.7428201368137908 1
gene  1 13 15 0.46941972870536675 0 950.0 0.46941972870536675 1
gene  1 17 15 0.21376548079538282 1 954.0 0.21376548079538282 1
gene  1 20 15 -0.8166253038319434 1 957.0 -0.8166253038319434 1
gene  1 21 15 0.22290523540309132 1 958.0 0.22290523540309132 1
gene  1 23 15 -0.33884569251404106 1 960.0 -0.33884569251404106 1
gene  1 24 15 -0.25832139999395165 1 961.0 -0.25832139999395165 1
gene  1 25 15 -0.4218774491844515 1 962.0 -0.4218774491844515 1
gene  1 27 15 -0.31385912064879995 1 964.0 -0.31385912064879995 1
gene  1 30 15 -0.03533832078069326 1 967.0 -0.03533832078069326 1
gene  1 31 15 -0.004742545769530537 1 968.0 -0.004742545769530537 1
gene  1 33 15 -0.06029283964272428 1 970.0 -0.06029283964272428 1
gene  1 66 15 0.15726924615973137 1 1003.0 0.15726924615973137 1
gene  1 1 16 -0.024069774290141056 0 1005.0 -0.024069774290141056 1
gene  1 2 16 0.06622403970563143 0 1006.0 0.06622403970563143 1
gene  1 3 16 -0.49270747948226734 0 1007.0 -0.49270747948226734 1
gene  1 4 16 -0.03356742291912928 0 1008.0 -0.03356742291912928 1
gene  1 6 16 -0.6311483484600632 0 1010.0 -0.6311483484600632 1
gene  1 7 16 -0.2584594879052821 0 1011.0 -0.2584594879052821 1
gene  1 8 16 0.0651392011237832 0 1012.0 0.0651392011237832 1
gene  1 9 16 -0.7111104610687197 0 1013.0 -0.7111104610687197 1
gene  1 10 16 0.0811141024280281 0 1014.0 0.0811141024280281 1
gene  1 12 16 -0.15276412112407067 0 1016.0 -0.15276412112407067 1
gene  1 13 16 -0.4856384578204728 0 1017.0 -0.4856384578204728 1
gene  1 15 16 0.9551026960366535 0 1019.0 0.9551026960366535 1
gene  1 16 16 -0.04964997379666555 1 1020.0 -0.04964997379666555 1
gene  1 18 16 -0.09844281244839578 1 1022.0 -0.09844281244839578 1
gene  1 19 16 0.08322400026562493 1 1023.0 0.08322400026562493 1
gene  1 23 16 -0.03850342668510753 1 1027.0 -0.03850342668510753 1
gene  1 24 16 -0.9206707328610731 1 1028.0 -0.9206707328610731 1
gene  1 25 16 0.32600767371309824 1 1029.0 0.32600767371309824 1
gene  1 28 16 -0.5143814315333152 1 1032.0 -0.5143814315333152 1
gene  1 29 16 0.352389891813572 1 1033.0 0.352389891813572 1
gene  1 34 16 -0.5064484073346501 1 1038.0 -0.5064484073346501 1
gene  1 35 16 -0.39961220790977375 1 1039.0 -0.39961220790977375 1
gene  1 38 16 -0.7793618168499534 1 1042.0 -0.7793618168499534 1
gene  1 39 16 0.9411606412194508 1 1043.0 0.9411606412194508 1
gene  1 65 16 -0.026218435717207944 1 1069.0 -0.026218435717207944 1
gene  1 67 16 -0.032950454971695145 1 1071.0 -0.032950454971695145 1
gene  1 1 17 -0.8248294598633407 0 1072.0 -0.8248294598633407 1
gene  1 2 17 0.2423325463863079 0 1073.0 0.2423325463863079 1
gene  1 3 17 -0.609206783106204 0 1074.0 -0.609206783106204 1
gene  1 4 17 0.22329131504062028 0 1075.0 0.22329131504062028 1
gene  1 6 17 -0.03191928544536996 0 1077.0 -0.03191928544536996 1
gene  1 9 17 0.9991387578792745 0 1080.0 0.9991387578792745 1
gene  1 11 17 -0.05442845976433282 0 1082.0 -0.05442845976433282 1
gene  1 14 17 0.038229080751489154 0 1085.0 0.038229080751489154 1
gene  1 15 17 -0.24425310194883937 0 1086.0 -0.24425310194883937 1
gene  1 17 17 0.639057461398162 1 1088.0 0.639057461398162 1
gene  1 18 17 -0.9760322950702827 1 1089.0 -0.9760322950702827 1
gene  1 20 17 0.16993803468594346 1 1091.0 0.16993803468594346 1
gene  1 21 17 0.01301400009557695 1 1092.0 0.01301400009557695 1
gene  1 23 17 -0.0564356555919042 1 1094.0 -0.0564356555919042 1
gene  1 25 17 -0.05440010428940103 1 1096.0 -0.05440010428940103 1
gene  1 26 17 -0.34961060087973633 1 1097.0 -0.34961060087973633 1
gene  1 31 17 -0.36461375501836335 1 1102.0 -0.36461375501836335 1
gene  1 32 17 1.0826071151598085 1 1103.0 1.0826071151598085 1
gene  1 33 17 0.28012600960005907 1 1104.0 0.28012600960005907 1
gene  1 35 17 -1.0243659368645304 1 1106.0 -1.0243659368645304 1
gene  1 38 17 -0.5317107189109236 1 1109.0 -0.5317107189109236 1
gene  1 39 17 -0.0025101384418507178 1 1110.0 -0.0025101384418507178 1
gene  1 1 18 0.2983569132871493 0 1139.0 0.2983569132871493 1
gene  1 3 18 0.3576842945655563 0 1141.0 0.3576842945655563 1
gene  1 5 18 0.9530261617576928 0 1143.0 0.9530261617576928 1
gene  1 6 18 0.04333895227760781 0 1144.0 0.04333895227760781 1
gene  1 7 18 -0.07880995731859287 0 1145.0 -0.07880995731859287 1
gene  1 8 18 -0.4666969524834971 0 1146.0 -0.4666969524834971 1
gene  1 9 18 -0.06548711025577607 0 1147.0 -0.06548711025577607 1
gene  1 14 18 0.05581223616804048 0 1152.0 0.05581223616804048 1
gene  1 16 18 0.05043980033435789 0 1154.0 0.05043980033435789 1
gene  1 17 18 0.577556339783215 0 1155.0 0.577556339783215 1
gene  1 21 18 -0.04066549390682864 1 1159.0 -0.04066549390682864 1
gene  1 22 18 -0.3412522522147665 1 1160.0 -0.3412522522147665 1
gene  1 23 18 0.2923826073979713 1 1161.0 0.2923826073979713 1
gene  1 25 18 -0.17839723145754252 1 1163.0 -0.17839723145754252 1
gene  1 27 18 0.025019436453573685 1 1165.0 0.025019436453573685 1
gene  1 30 18 0.14357859342693569 1 1168.0 0.14357859342693569 1
gene  1 31 18 -0.07787551650935301 1 1169.0 -0.07787551650935301 1
gene  1 32 18 0.015337822787810762 1 1170.0 0.015337822787810762 1
gene  1 34 18 -0.4517172435459965 1 1172.0 -0.4517172435459965 1
gene  1 37 18 -0.46022197520910074 1 1175.0 -0.46022197520910074 1
gene  1 38 18 -0.049285429504396336 1 1176.0 -0.049285429504396336 1
gene  1 63 18 0.9298021071221596 1 1201.0 0.9298021071221596 1
gene  1 67 18 -0.09333464252537503 1 1205.0 -0.09333464252537503 1
gene  1 2 19 0.5451818372640064 0 1207.0 0.5451818372640064 1
gene  1 6 19 -0.05361580922739097 0 1211.0 -0.05361580922739097 1
gene  1 7 19 -0.46746385189169093 0 1212.0 -0.46746385189169093 1
gene  1 15 19 0.07488858795194359 0 1220.0 0.07488858795194359 1
gene  1 16 19 -0.6936357649218445 0 1221.0 -0.6936357649218445 1
gene  1 17 19 0.39002531534453927 0 1222.0 0.39002531534453927 1
gene  1 18 19 -0.2763248329403123 0 1223.0 -0.2763248329403123 1
gene  1 21 19 0.8590214080341438 1 1226.0 0.8590214080341438 1
gene  1 22 19 -0.6391480672586537 1 1227.0 -0.6391480672586537 1
gene  1 24 19 -0.0414294085670509 1 1229.0 -0.0414294085670509 1
gene  1 25 19 -0.3261275066016496 1 1230.0 -0.3261275066016496 1
gene  1 26 19 -0.8017495868733947 1 1231.0 -0.8017495868733947 1
gene  1 27 19 -0.18723950409009968 1 1232.0 -0.18723950409009968 1
gene  1 29 19 -0.19001862424673974 1 1234.0 -0.19001862424673974 1
gene  1 33 19 -0.8122659837238274 1 1238.0 -0.8122659837238274 1
gene  1 38 19 0.06862191102131947 1 1243.0 0.06862191102131947 1
gene  1 39 19 0.6952362178851319 1 1244.0 0.6952362178851319 1
gene  1 65 19 -0.6646405316501517 1 1270.0 -0.6646405316501517 1
gene  1 66 19 0.005359453185346863 1 1271.0 0.005359453185346863 1
gene  1 67 19 -0.9189895435412423 1 1272.0 -0.9189895435412423 1
gene  1 1 20 0.3028498618853148 0 1273.0 0.3028498618853148 1
gene  1 3 20 -0.40407858610836084 0 1275.0 -0.40407858610836084 1
gene  1 5 20 0.6897773015919292 0 1277.0 0.6897773015919292 1
gene  1 6 20 0.41909216719765646 0 1278.0 0.41909216719765646 1
gene  1 7 20 0.6049747621008865 0 1279.0 0.6049747621008865 1
gene  1 10 20 -0.8429207954749389 0 1282.0 -0.8429207954749389 1
gene  1 13 20 -0.8209504254932433 0 1285.0 -0.8209504254932433 1
gene  1 16 20 -0.29939558504778996 0 1288.0 -0.29939558504778996 1
gene  1 18 20 -0.2015555034081211 0 1290.0 -0.2015555034081211 1
gene  1 19 20 -0.43629545816079485 0 1291.0 -0.43629545816079485 1
gene  1 20 20 -0.6190894563717081 1 1292.0 -0.6190894563717081 1
gene  1 22 20 0.039886983887951324 1 1294.0 0.039886983887951324 1
gene  1 23 20 0.6613199471185739 1 1295.0 0.6613199471185739 1
gene  1 24 20 0.2972131396229718 1 1296.0 0.2972131396229718 1
gene  1 26 20 -0.27502279567849885 1 1298.0 -0.27502279567849885 1
gene  1 32 20 -0.6681072777103279 1 1304.0 -0.6681072777103279 1
gene  1 35 20 -0.6055056745413601 1 1307.0 -0.6055056745413601 1
gene  1 36 20 -0.3961606904344118 1 1308.0 -0.3961606904344118 1
gene  1 37 20 -0.8298419211127713 1 1309.0 -0.8298419211127713 1
gene  1 39 20 -7.494911961573314E-4 1 1311.0 -7.494911961573314E-4 1
gene  1 63 20 0.8313583009058594 1 1335.0 0.8313583009058594 1
gene  1 65 20 -0.7999389874540533 1 1337.0 -0.7999389874540533 1
gene  1 66 20 0.029656799487196284 1 1338.0 0.029656799487196284 1
gene  1 1 21 0.0018110055040611098 0 1340.0 0.0018110055040611098 1
gene  1 2 21 0.01801811634260847 0 1341.0 0.01801811634260847 1
gene  1 3 21 1.070271127628002 0 1342.0 1.070271127628002 1
gene  1 4 21 0.1389976453439418 0 1343.0 0.1389976453439418 1
gene  1 6 21 -0.06866239840580068 0 1345.0 -0.06866239840580068 1
gene  1 10 21 0.5147223466380183 0 1349.0 0.5147223466380183 1
gene  1 12 21 0.7108630709062258 0 1351.0 0.7108630709062258 1
gene  1 14 21 -0.07425443384211121 0 1353.0 -0.07425443384211121 1
gene  1 17 21 -0.34574720041700674 0 1356.0 -0.34574720041700674 1
gene  1 19 21 0.09184679919559441 0 1358.0 0.09184679919559441 1
gene  1 21 21 -0.10101255001638441 1 1360.0 -0.10101255001638441 1
gene  1 22 21 0.6473902423875803 1 1361.0 0.6473902423875803 1
gene  1 24 21 -0.15313057638165006 1 1363.0 -0.15313057638165006 1
gene  1 25 21 0.611201248669804 1 1364.0 0.611201248669804 1
gene  1 26 21 0.4246453239327337 1 1365.0 0.4246453239327337 1
gene  1 27 21 -0.6330428355251432 1 1366.0 -0.6330428355251432 1
gene  1 30 21 0.050111471986339834 1 1369.0 0.050111471986339834 1
gene  1 31 21 0.20074260222775303 1 1370.0 0.20074260222775303 1
gene  1 32 21 -0.1453989891505702 1 1371.0 -0.1453989891505702 1
gene  1 33 21 0.08371411292901063 1 1372.0 0.08371411292901063 1
gene  1 34 21 0.6516446898375875 1 1373.0 0.6516446898375875 1
gene  1 35 21 0.9260251235849979 1 1374.0 0.9260251235849979 1
gene  1 37 21 -0.1339555992556588 1 1376.0 -0.1339555992556588 1
gene  1 38 21 0.8464332334519701 1 1377.0 0.8464332334519701 1
gene  1 63 21 0.2576738476393288 1 1402.0 0.2576738476393288 1
gene  1 65 21 -0.5621913572925441 1 1404.0 -0.5621913572925441 1
gene  1 67 21 -0.06330668309547631 1 1406.0 -0.06330668309547631 1
gene  1 1 22 0.11885324042225878 0 1407.0 0.11885324042225878 1
gene  1 2 22 -0.7384076456271166 0 1408.0 -0.7384076456271166 1
gene  1 5 22 -0.6725317323572813 0 1411.0 -0.6725317323572813 1
gene  1 6 22 -0.08300713041137364 0 1412.0 -0.08300713041137364 1
gene  1 8 22 0.33862607084620466 0 1414.0 0.33862607084620466 1
gene  1 9 22 -0.04853659551616351 0 1415.0 -0.04853659551616351 1
gene  1 11 22 -0.5899042363837848 0 1417.0 -0.5899042363837848 1
gene  1 12 22 0.967919679498072 0 1418.0 0.967919679498072 1
gene  1 13 22 -0.38328957601089364 0 1419.0 -0.38328957601089364 1
gene  1 15 22 0.37963062149737 0 1421.0 0.37963062149737 1
gene  1 16 22 0.14739926045264984 0 1422.0 0.14739926045264984 1
gene  1 17 22 -0.8124756439032882 0 1423.0 -0.8124756439032882 1
gene  1 18 22 -0.8944895745424093 0 1424.0 -0.8944895745424093 1
gene  1 19 22 0.6264825111464298 0 1425.0 0.6264825111464298 1
gene  1 20 22 0.5051292165134885 0 1426.0 0.5051292165134885 1
gene  1 25 22 0.14979481032312905 1 1431.0 0.14979481032312905 1
gene  1 26 22 0.08264970042782147 1 1432.0 0.08264970042782147 1
gene  1 33 22 0.35533364812816776 1 1439.0 0.35533364812816776 1
gene  1 35 22 0.2437046433681358 1 1441.0 0.2437046433681358 1
gene  1 64 22 -0.23727832916306194 1 1470.0 -0.23727832916306194 1
gene  1 65 22 -0.7384215481317414 1 1471.0 -0.7384215481317414 1
gene  1 66 22 -0.9220913534968458 1 1472.0 -0.9220913534968458 1
gene  1 1 23 0.7136182019539548 0 1474.0 0.7136182019539548 1
gene  1 2 23 -0.561304381030896 0 1475.0 -0.561304381030896 1
gene  1 3 23 0.04396765460402056 0 1476.0 0.04396765460402056 1
gene  1 5 23 0.033372362212226184 0 1478.0 0.033372362212226184 1
gene  1 7 23 0.9022080266978173 0 1480.0 0.9022080266978173 1
gene  1 8 23 -0.34232063899664095 0 1481.0 -0.34232063899664095 1
gene  1 14 23 0.7461695079585356 0 1487.0 0.7461695079585356 1
gene  1 15 23 0.06397675568142155 0 1488.0 0.06397675568142155 1
gene  1 16 23 -0.3393132410488058 0 1489.0 -0.3393132410488058 1
gene  1 19 23 0.795081590571417 0 1492.0 0.795081590571417 1
gene  1 20 23 -0.5463376814974867 0 1493.0 -0.5463376814974867 1
gene  1 21 23 0.38097385280784773 0 1494.0 0.38097385280784773 1
gene  1 22 23 0.09287520053871388 0 1495.0 0.09287520053871388 1
gene  1 23 23 0.5856408492135368 1 1496.0 0.5856408492135368 1
gene  1 26 23 0.8003417708849782 1 1499.0 0.8003417708849782 1
gene  1 27 23 -0.9415744810792738 1 1500.0 -0.9415744810792738 1
gene  1 32 23 -0.03503689325059008 1 1505.0 -0.03503689325059008 1
gene  1 34 23 0.7630516701369942 1 1507.0 0.7630516701369942 1
gene  1 36 23 -1.0821010051046773 1 1509.0 -1.0821010051046773 1
gene  1 38 23 0.3345968187739032 1 1511.0 0.3345968187739032 1
gene  1 39 23 0.8907746713796142 1 1512.0 0.8907746713796142 1
gene  1 63 23 -0.4272618138487572 1 1536.0 -0.4272618138487572 1
gene  1 64 23 0.48189281130548 1 1537.0 0.48189281130548 1
gene  1 65 23 -0.43722031569733233 1 1538.0 -0.43722031569733233 1
gene  1 4 24 -0.7472928364790268 0 1544.0 -0.7472928364790268 1
gene  1 5 24 -0.03922838258054644 0 1545.0 -0.03922838258054644 1
gene  1 6 24 0.8022541242388487 0 1546.0 0.8022541242388487 1
gene  1 7 24 -0.6085987169187862 0 1547.0 -0.6085987169187862 1
gene  1 8 24 0.7584992832997351 0 1548.0 0.7584992832997351 1
gene  1 9 24 -0.05446498106191651 0 1549.0 -0.05446498106191651 1
gene  1 10 24 -0.02277556097267456 0 1550.0 -0.02277556097267456 1
gene  1 11 24 0.17782267036222593 0 1551.0 0.17782267036222593 1
gene  1 16 24 0.04116498517242376 0 1556.0 0.04116498517242376 1
gene  1 19 24 0.1757414168448222 0 1559.0 0.1757414168448222 1
gene  1 23 24 -0.4172987572235085 0 1563.0 -0.4172987572235085 1
gene  1 24 24 0.35577135680015076 1 1564.0 0.35577135680015076 1
gene  1 26 24 -0.10740788634569241 1 1566.0 -0.10740788634569241 1
gene  1 28 24 1.038691296920536 1 1568.0 1.038691296920536 1
gene  1 29 24 0.5438203078035069 1 1569.0 0.5438203078035069 1
gene  1 33 24 -0.008096754513721206 1 1573.0 -0.008096754513721206 1
gene  1 36 24 -0.6019016365860159 1 1576.0 -0.6019016365860159 1
gene  1 39 24 -0.0194157213834348 1 1579.0 -0.0194157213834348 1
gene  1 67 24 0.9938899366232734 1 1607.0 0.9938899366232734 1
gene  1 1 25 -0.014317918633122085 0 1608.0 -0.014317918633122085 1
gene  1 2 25 0.7283826052590593 0 1609.0 0.7283826052590593 1
gene  1 3 25 0.8638113740687153 0 1610.0 0.8638113740687153 1
gene  1 4 25 -0.6648599759731496 0 1611.0 -0.6648599759731496 1
gene  1 6 25 0.15871335249431462 0 1613.0 0.15871335249431462 1
gene  1 9 25 0.39864587043373845 0 1616.0 0.39864587043373845 1
gene  1 11 25 0.033402818885573796 0 1618.0 0.033402818885573796 1
gene  1 14 25 0.02454871319007672 0 1621.0 0.02454871319007672 1
gene  1 19 25 -0.5876252251367013 0 1626.0 -0.5876252251367013 1
gene  1 20 25 -0.49563511101133767 0 1627.0 -0.49563511101133767 1
gene  1 24 25 -0.0036925366426541206 0 1631.0 -0.0036925366426541206 1
gene  1 26 25 0.02003615140193048 1 1633.0 0.02003615140193048 1
gene  1 27 25 0.830540151371093 1 1634.0 0.830540151371093 1
gene  1 37 25 0.4508150215083062 1 1644.0 0.4508150215083062 1
gene  1 2 26 -0.4124161803883018 0 1676.0 -0.4124161803883018 1
gene  1 4 26 -0.6931402705255881 0 1678.0 -0.6931402705255881 1
gene  1 5 26 0.07968286783347542 0 1679.0 0.07968286783347542 1
gene  1 7 26 -0.032318569159848286 0 1681.0 -0.032318569159848286 1
gene  1 8 26 0.27519006423834375 0 1682.0 0.27519006423834375 1
gene  1 10 26 -0.23424360745254524 0 1684.0 -0.23424360745254524 1
gene  1 16 26 0.0822085366434167 0 1690.0 0.0822085366434167 1
gene  1 17 26 1.0351602056317846 0 1691.0 1.0351602056317846 1
gene  1 18 26 -0.9259729902130545 0 1692.0 -0.9259729902130545 1
gene  1 19 26 -0.8963130201492155 0 1693.0 -0.8963130201492155 1
gene  1 21 26 -0.040246725853775436 0 1695.0 -0.040246725853775436 1
gene  1 24 26 -0.0803277627564496 0 1698.0 -0.0803277627564496 1
gene  1 26 26 -0.009511366088358626 1 1700.0 -0.009511366088358626 1
gene  1 29 26 0.0979051007212078 1 1703.0 0.0979051007212078 1
gene  1 30 26 -0.3909331755015413 1 1704.0 -0.3909331755015413 1
gene  1 31 26 0.6246489250103981 1 1705.0 0.6246489250103981 1
gene  1 32 26 0.3783162644335889 1 1706.0 0.3783162644335889 1
gene  1 33 26 -0.07176551799456445 1 1707.0 -0.07176551799456445 1
gene  1 37 26 -1.0146195378169902 1 1711.0 -1.0146195378169902 1
gene  1 38 26 0.4018577117492392 1 1712.0 0.4018577117492392 1
gene  1 39 26 -0.8446821529466443 1 1713.0 -0.8446821529466443 1
gene  1 63 26 -0.5966506457599036 1 1737.0 -0.5966506457599036 1
gene  1 64 26 0.7118064867005915 1 1738.0 0.7118064867005915 1
gene  1 65 26 0.502644200771357 1 1739.0 0.502644200771357 1
gene  1 67 26 0.029077516500170708 1 1741.0 0.029077516500170708 1
gene  1 1 27 -0.12103917848618273 0 1742.0 -0.12103917848618273 1
gene  1 4 27 0.4122368910196027 0 1745.0 0.4122368910196027 1
gene  1 6 27 -0.17192342357682233 0 1747.0 -0.17192342357682233 1
gene  1 9 27 -0.3113311745919664 0 1750.0 -0.3113311745919664 1
gene  1 10 27 -0.9159565783152404 0 1751.0 -0.9159565783152404 1
gene  1 12 27 0.06090088868689789 0 1753.0 0.06090088868689789 1
gene  1 14 27 -0.15108893694607914 0 1755.0 -0.15108893694607914 1
gene  1 15 27 -0.02327913779713329 0 1756.0 -0.02327913779713329 1
gene  1 16 27 0.41028524107187325 0 1757.0 0.41028524107187325 1
gene  1 17 27 0.4805397006040257 0 1758.0 0.4805397006040257 1
gene  1 21 27 -0.4703353218199515 0 1762.0 -0.4703353218199515 1
gene  1 23 27 -0.4245727448826727 0 1764.0 -0.4245727448826727 1
gene  1 27 27 -0.8975436018766074 1 1768.0 -0.8975436018766074 1
gene  1 28 27 -0.016955371123793007 1 1769.0 -0.016955371123793007 1
gene  1 29 27 0.3980791551432362 1 1770.0 0.3980791551432362 1
gene  1 31 27 -0.41955457096033244 1 1772.0 -0.41955457096033244 1
gene  1 36 27 0.7415877010380125 1 1777.0 0.7415877010380125 1
gene  1 38 27 -0.3610587645609086 1 1779.0 -0.3610587645609086 1
gene  1 39 27 -0.7391640968102166 1 1780.0 -0.7391640968102166 1
gene  1 63 27 -0.7852912440273757 1 1804.0 -0.7852912440273757 1
gene  1 64 27 0.027222246625145802 1 1805.0 0.027222246625145802 1
gene  1 2 28 -0.05972620530924198 0 1810.0 -0.05972620530924198 1
gene  1 3 28 -0.08698288058164898 0 1811.0 -0.08698288058164898 1
gene  1 4 28 0.24062933946431003 0 1812.0 0.24062933946431003 1
gene  1 9 28 -0.7829749346156056 0 1817.0 -0.7829749346156056 1
gene  1 13 28 -0.023175925941312514 0 1821.0 -0.023175925941312514 1
gene  1 14 28 0.4667167018643669 0 1822.0 0.4667167018643669 1
gene  1 15 28 -0.3783211610855251 0 1823.0 -0.3783211610855251 1
gene  1 16 28 -0.7197369002418623 0 1824.0 -0.7197369002418623 1
gene  1 19 28 0.5610839120944212 0 1827.0 0.5610839120944212 1
gene  1 20 28 0.26865705167605036 0 1828.0 0.26865705167605036 1
gene  1 26 28 0.7707670817979356 0 1834.0 0.7707670817979356 1
gene  1 29 28 0.7410999514087175 1 1837.0 0.7410999514087175 1
gene  1 30 28 -0.5704410714538433 1 1838.0 -0.5704410714538433 1
gene  1 32 28 0.5156119391081749 1 1840.0 0.5156119391081749 1
gene  1 37 28 0.4522327089488868 1 1845.0 0.4522327089488868 1
gene  1 39 28 0.8368176668210684 1 1847.0 0.8368176668210684 1
gene  1 65 28 0.822019111084117 1 1873.0 0.822019111084117 1
gene  1 67 28 0.8538427007889727 1 1875.0 0.8538427007889727 1
gene  1 5 29 -0.40657483724889465 0 1880.0 -0.40657483724889465 1
gene  1 10 29 0.44722779800208884 0 1885.0 0.44722779800208884 1
gene  1 11 29 -0.44657250340335997 0 1886.0 -0.44657250340335997 1
gene  1 12 29 0.6306421597601237 0 1887.0 0.6306421597601237 1
gene  1 13 29 -0.3501414063006645 0 1888.0 -0.3501414063006645 1
gene  1 14 29 -0.04349992983623546 0 1889.0 -0.04349992983623546 1
gene  1 15 29 -0.7332835412466123 0 1890.0 -0.7332835412466123 1
gene  1 16 29 0.6786755922202994 0 1891.0 0.6786755922202994 1
gene  1 17 29 0.898327225892932 0 1892.0 0.898327225892932 1
gene  1 18 29 0.0013660380999090283 0 1893.0 0.0013660380999090283 1
gene  1 19 29 0.11063926414305414 0 1894.0 0.11063926414305414 1
gene  1 21 29 -0.9289769772694514 0 1896.0 -0.9289769772694514 1
gene  1 24 29 0.024218414890971707 0 1899.0 0.024218414890971707 1
gene  1 25 29 -0.03145782697629917 0 1900.0 -0.03145782697629917 1
gene  1 27 29 -0.8085337116442494 0 1902.0 -0.8085337116442494 1
gene  1 29 29 0.9966627568631001 1 1904.0 0.9966627568631001 1
gene  1 31 29 -0.04014878195023981 1 1906.0 -0.04014878195023981 1
gene  1 33 29 0.9018271870303126 1 1908.0 0.9018271870303126 1
gene  1 37 29 0.8155521505888416 1 1912.0 0.8155521505888416 1
gene  1 38 29 -0.06516000179401417 1 1913.0 -0.06516000179401417 1
gene  1 64 29 0.48919023755870567 1 1939.0 0.48919023755870567 1
gene  1 65 29 0.9046018987547062 1 1940.0 0.9046018987547062 1
gene  1 66 29 -0.025458502907517812 1 1941.0 -0.025458502907517812 0
gene  1 67 29 0.7129877202567825 1 1942.0 0.7129877202567825 1
gene  1 2 30 -0.3837534224443129 0 1944.0 -0.3837534224443129 1
gene  1 3 30 -0.9844130997285695 0 1945.0 -0.9844130997285695 1
gene  1 8 30 0.334349155862798 0 1950.0 0.334349155862798 1
gene  1 9 30 -0.02852678376155652 0 1951.0 -0.02852678376155652 1
gene  1 11 30 -0.3321549849148189 0 1953.0 -0.3321549849148189 1
gene  1 12 30 0.024799023401613787 0 1954.0 0.024799023401613787 1
gene  1 14 30 0.8018783046936789 0 1956.0 0.8018783046936789 1
gene  1 16 30 0.268732352177142 0 1958.0 0.268732352177142 1
gene  1 17 30 -7.645320619923957E-4 0 1959.0 -7.645320619923957E-4 1
gene  1 19 30 0.7898301684046183 0 1961.0 0.7898301684046183 1
gene  1 20 30 0.07513412025409255 0 1962.0 0.07513412025409255 1
gene  1 21 30 0.7579275659619877 0 1963.0 0.7579275659619877 1
gene  1 22 30 0.7230833965304516 0 1964.0 0.7230833965304516 1
gene  1 26 30 -0.3348085199070696 0 1968.0 -0.3348085199070696 1
gene  1 29 30 0.014373786434421687 0 1971.0 0.014373786434421687 1
gene  1 30 30 0.7902033538814922 1 1972.0 0.7902033538814922 1
gene  1 34 30 -0.06422747993015702 1 1976.0 -0.06422747993015702 1
gene  1 38 30 0.36622861217124064 1 1980.0 0.36622861217124064 1
gene  1 39 30 -0.5603317708352155 1 1981.0 -0.5603317708352155 1
gene  1 64 30 0.09919294751749025 1 2006.0 0.09919294751749025 1
gene  1 65 30 -0.07865270718845374 1 2007.0 -0.07865270718845374 1
gene  1 1 31 0.4690974985765698 0 2010.0 0.4690974985765698 1
gene  1 2 31 0.046024785928969615 0 2011.0 0.046024785928969615 1
gene  1 3 31 0.2793755839635364 0 2012.0 0.2793755839635364 1
gene  1 4 31 0.3401930106229901 0 2013.0 0.3401930106229901 1
gene  1 5 31 -0.31632374630302584 0 2014.0 -0.31632374630302584 1
gene  1 6 31 -0.6985525143605275 0 2015.0 -0.6985525143605275 1
gene  1 9 31 0.3760145110860085 0 2018.0 0.3760145110860085 1
gene  1 13 31 -0.04957829909006015 0 2022.0 -0.04957829909006015 1
gene  1 14 31 -0.1701053731707718 0 2023.0 -0.1701053731707718 1
gene  1 17 31 -0.4776672103503436 0 2026.0 -0.4776672103503436 1
gene  1 18 31 0.173416130318219 0 2027.0 0.173416130318219 1
gene  1 22 31 -0.3741589441836922 0 2031.0 -0.3741589441836922 1
gene  1 24 31 -0.3654686124481194 0 2033.0 -0.3654686124481194 1
gene  1 26 31 0.3439712899918025 0 2035.0 0.3439712899918025 1
gene  1 28 31 -0.7170454766287836 0 2037.0 -0.7170454766287836 1
gene  1 30 31 0.34094026994390053 0 2039.0 0.34094026994390053 1
gene  1 31 31 0.008745578232003948 1 2040.0 0.008745578232003948 1
gene  1 32 31 0.7681508969473527 1 2041.0 0.7681508969473527 1
gene  1 33 31 0.023755312018203203 1 2042.0 0.023755312018203203 1
gene  1 38 31 0.9846963896494225 1 2047.0 0.9846963896494225 1
gene  1 39 31 -0.0978728874517043 1 2048.0 -0.0978728874517043 1
gene  1 63 31 0.05661401541973761 1 2072.0 0.05661401541973761 1
gene  1 64 31 -0.6583083530043947 1 2073.0 -0.6583083530043947 1
gene  1 65 31 -0.07054517765309909 1 2074.0 -0.07054517765309909 1
gene  1 2 32 0.4004936544900997 0 2078.0 0.4004936544900997 1
gene  1 4 32 0.7973869862559948 0 2080.0 0.7973869862559948 1
gene  1 5 32 0.05433036210797536 0 2081.0 0.05433036210797536 1
gene  1 6 32 0.10059822876121267 0 2082.0 0.10059822876121267 1
gene  1 9 32 -0.03600530096167041 0 2085.0 -0.03600530096167041 1
gene  1 14 32 0.7777733118972069 0 2090.0 0.7777733118972069 1
gene  1 15 32 -0.7183244022188954 0 2091.0 -0.7183244022188954 1
gene  1 17 32 -0.3061627802989465 0 2093.0 -0.3061627802989465 1
gene  1 18 32 -0.6225306880571079 0 2094.0 -0.6225306880571079 1
gene  1 22 32 -0.8105320757135975 0 2098.0 -0.8105320757135975 1
gene  1 23 32 -0.2412069537225095 0 2099.0 -0.2412069537225095 1
gene  1 24 32 0.015408156455651956 0 2100.0 0.015408156455651956 1
gene  1 26 32 -0.8169887466834835 0 2102.0 -0.8169887466834835 1
gene  1 27 32 0.06819182395948696 0 2103.0 0.06819182395948696 1
gene  1 28 32 -0.053245569807853776 0 2104.0 -0.053245569807853776 1
gene  1 29 32 0.05912757030361491 0 2105.0 0.05912757030361491 1
gene  1 31 32 0.04121192078256162 0 2107.0 0.04121192078256162 1
gene  1 33 32 0.6762046198323589 1 2109.0 0.6762046198323589 1
gene  1 34 32 0.4320673949593916 1 2110.0 0.4320673949593916 1
gene  1 39 32 -0.20568739184418275 1 2115.0 -0.20568739184418275 1
gene  1 64 32 -0.6654719021836494 1 2140.0 -0.6654719021836494 1
gene  1 65 32 -0.2289089693900344 1 2141.0 -0.2289089693900344 1
gene  1 1 33 0.014979041986169596 0 2144.0 0.014979041986169596 1
gene  1 7 33 -0.04353822790847901 0 2150.0 -0.04353822790847901 1
gene  1 10 33 -0.40196847702261673 0 2153.0 -0.40196847702261673 1
gene  1 15 33 0.5166273551522954 0 2158.0 0.5166273551522954 1
gene  1 16 33 -1.043119220874991 0 2159.0 -1.043119220874991 1
gene  1 18 33 0.10525870496449949 0 2161.0 0.10525870496449949 1
gene  1 21 33 0.5549823925067715 0 2164.0 0.5549823925067715 1
gene  1 24 33 0.22991073101259682 0 2167.0 0.22991073101259682 1
gene  1 25 33 -0.9011434586147741 0 2168.0 -0.9011434586147741 1
gene  1 27 33 -0.28459565312573076 0 2170.0 -0.28459565312573076 1
gene  1 29 33 0.4259439547087279 0 2172.0 0.4259439547087279 1
gene  1 30 33 -0.2448429599732738 0 2173.0 -0.2448429599732738 1
gene  1 31 33 0.35892150778389303 0 2174.0 0.35892150778389303 1
gene  1 32 33 -0.4242940943734999 0 2175.0 -0.4242940943734999 1
gene  1 33 33 0.21557905674304595 1 2176.0 0.21557905674304595 1
gene  1 34 33 -0.0037681373540536245 1 2177.0 -0.0037681373540536245 1
gene  1 35 33 0.0017845987086613558 1 2178.0 0.0017845987086613558 1
gene  1 37 33 0.9129438768177179 1 2180.0 0.9129438768177179 1
gene  1 38 33 0.1955589928199702 1 2181.0 0.1955589928199702 1
gene  1 39 33 -0.43999514816888197 1 2182.0 -0.43999514816888197 1
gene  1 64 33 -0.439258200855693 1 2207.0 -0.439258200855693 1
gene  1 2 34 -0.9944717917084376 0 2212.0 -0.9944717917084376 1
gene  1 5 34 -0.06193296224470658 0 2215.0 -0.06193296224470658 1
gene  1 6 34 -0.0931374178634263 0 2216.0 -0.0931374178634263 1
gene  1 11 34 -0.0648723944271188 0 2221.0 -0.0648723944271188 1
gene  1 14 34 -0.3662433895173343 0 2224.0 -0.3662433895173343 1
gene  1 15 34 -0.469231791687361 0 2225.0 -0.469231791687361 1
gene  1 17 34 0.0558165492224528 0 2227.0 0.0558165492224528 1
gene  1 18 34 -0.008862960546345378 0 2228.0 -0.008862960546345378 1
gene  1 23 34 -0.6923292311914324 0 2233.0 -0.6923292311914324 1
gene  1 25 34 0.08967208180771018 0 2235.0 0.08967208180771018 1
gene  1 26 34 0.4033870503642156 0 2236.0 0.4033870503642156 1
gene  1 28 34 0.0827358579400786 0 2238.0 0.0827358579400786 1
gene  1 29 34 -0.3306760543843386 0 2239.0 -0.3306760543843386 1
gene  1 31 34 -0.7841462452803553 0 2241.0 -0.7841462452803553 1
gene  1 35 34 0.964688471066392 1 2245.0 0.964688471066392 1
gene  1 37 34 0.001474723966366498 1 2247.0 0.001474723966366498 1
gene  1 39 34 -0.09662157621830464 1 2249.0 -0.09662157621830464 1
gene  1 67 34 -0.16601141225725968 1 2277.0 -0.16601141225725968 1
gene  1 4 35 0.09439344347714461 0 2281.0 0.09439344347714461 1
gene  1 8 35 0.612779430886956 0 2285.0 0.612779430886956 1
gene  1 12 35 0.7225883846628274 0 2289.0 0.7225883846628274 1
gene  1 13 35 -0.17530545566839456 0 2290.0 -0.17530545566839456 1
gene  1 14 35 -0.028283907470071812 0 2291.0 -0.028283907470071812 1
gene  1 15 35 -0.6697951787551911 0 2292.0 -0.6697951787551911 1
gene  1 16 35 0.9393757154879598 0 2293.0 0.9393757154879598 1
gene  1 18 35 -0.22849777309718672 0 2295.0 -0.22849777309718672 1
gene  1 24 35 -0.8789552113276764 0 2301.0 -0.8789552113276764 1
gene  1 27 35 0.45447530446616985 0 2304.0 0.45447530446616985 1
gene  1 28 35 -0.8108598753892742 0 2305.0 -0.8108598753892742 1
gene  1 29 35 0.3478122049744669 0 2306.0 0.3478122049744669 1
gene  1 30 35 -0.6363192592962297 0 2307.0 -0.6363192592962297 1
gene  1 31 35 0.34143070014022336 0 2308.0 0.34143070014022336 1
gene  1 32 35 -0.808086348877992 0 2309.0 -0.808086348877992 1
gene  1 33 35 0.33620209752859853 0 2310.0 0.33620209752859853 1
gene  1 34 35 -0.2688474419645809 0 2311.0 -0.2688474419645809 1
gene  1 36 35 0.6227933968353906 1 2313.0 0.6227933968353906 1
gene  1 37 35 0.050669472830298705 1 2314.0 0.050669472830298705 1
gene  1 38 35 0.08292026807025397 1 2315.0 0.08292026807025397 1
gene  1 39 35 -0.5773523144395477 1 2316.0 -0.5773523144395477 1
gene  1 65 35 -0.15654418516714788 1 2342.0 -0.15654418516714788 1
gene  1 66 35 0.5968529432252333 1 2343.0 0.5968529432252333 1
gene  1 2 36 -0.25863172681759516 0 2346.0 -0.25863172681759516 1
gene  1 3 36 -0.0961463268958182 0 2347.0 -0.0961463268958182 1
gene  1 4 36 0.33281224590638636 0 2348.0 0.33281224590638636 1
gene  1 5 36 -0.2514247176277 0 2349.0 -0.2514247176277 1
gene  1 6 36 -0.0584863938025722 0 2350.0 -0.0584863938025722 1
gene  1 7 36 0.7731813788602587 0 2351.0 0.7731813788602587 1
gene  1 10 36 0.07722571705784931 0 2354.0 0.07722571705784931 1
gene  1 12 36 -0.5214437149399395 0 2356.0 -0.5214437149399395 1
gene  1 13 36 -0.8244259259213795 0 2357.0 -0.8244259259213795 1
gene  1 19 36 -0.04723114885209222 0 2363.0 -0.04723114885209222 1
gene  1 22 36 0.7215613914860541 0 2366.0 0.7215613914860541 1
gene  1 25 36 -0.06540562896237412 0 2369.0 -0.06540562896237412 1
gene  1 30 36 0.4148086967965097 0 2374.0 0.4148086967965097 1
gene  1 31 36 -0.7065440969435067 0 2375.0 -0.7065440969435067 1
gene  1 35 36 -0.41822307886882204 0 2379.0 -0.41822307886882204 1
gene  1 36 36 0.9779859654790339 1 2380.0 0.9779859654790339 1
gene  1 37 36 0.8719338751667001 1 2381.0 0.8719338751667001 1
gene  1 63 36 0.7851487037810538 1 2407.0 0.7851487037810538 1
gene  1 66 36 -0.24434477186640444 1 2410.0 -0.24434477186640444 1
gene  1 67 36 -0.02054600642406709 1 2411.0 -0.02054600642406709 1
gene  1 2 37 -0.00829275989497359 0 2413.0 -0.00829275989497359 1
gene  1 8 37 9.687666318911464E-4 0 2419.0 9.687666318911464E-4 1
gene  1 10 37 0.09459959993255118 0 2421.0 0.09459959993255118 1
gene  1 11 37 0.052971502106421625 0 2422.0 0.052971502106421625 1
gene  1 12 37 -0.8120023664444374 0 2423.0 -0.8120023664444374 1
gene  1 13 37 -0.21935410666228197 0 2424.0 -0.21935410666228197 1
gene  1 14 37 -0.5286514844334478 0 2425.0 -0.5286514844334478 1
gene  1 16 37 -0.26953201125832 0 2427.0 -0.26953201125832 1
gene  1 18 37 0.310612780255222 0 2429.0 0.310612780255222 1
gene  1 20 37 -0.20085222119912607 0 2431.0 -0.20085222119912607 1
gene  1 22 37 -0.45170704906211356 0 2433.0 -0.45170704906211356 1
gene  1 24 37 -0.29197708856900545 0 2435.0 -0.29197708856900545 1
gene  1 28 37 -0.0911668558417008 0 2439.0 -0.0911668558417008 1
gene  1 29 37 0.06393805083169818 0 2440.0 0.06393805083169818 1
gene  1 30 37 0.8888103809761566 0 2441.0 0.8888103809761566 1
gene  1 31 37 0.6690079363811279 0 2442.0 0.6690079363811279 1
gene  1 32 37 -0.4616237900138299 0 2443.0 -0.4616237900138299 1
gene  1 33 37 -0.8026295325323 0 2444.0 -0.8026295325323 1
gene  1 36 37 -0.02905150332421487 0 2447.0 -0.02905150332421487 1
gene  1 38 37 0.5753293468441917 1 2449.0 0.5753293468441917 1
gene  1 39 37 -0.037515524117237395 1 2450.0 -0.037515524117237395 1
gene  1 63 37 0.46060566602939784 1 2474.0 0.46060566602939784 1
gene  1 4 38 0.18923745705853334 0 2482.0 0.18923745705853334 1
gene  1 5 38 -0.04310860442794501 0 2483.0 -0.04310860442794501 1
gene  1 8 38 0.17758873277587278 0 2486.0 0.17758873277587278 1
gene  1 17 38 0.6170548104498104 0 2495.0 0.6170548104498104 1
gene  1 18 38 -0.8950640922570109 0 2496.0 -0.8950640922570109 1
gene  1 22 38 -0.0745486959801519 0 2500.0 -0.0745486959801519 1
gene  1 23 38 0.04168696673963675 0 2501.0 0.04168696673963675 1
gene  1 26 38 -0.28887756196417447 0 2504.0 -0.28887756196417447 1
gene  1 28 38 0.0477865451497434 0 2506.0 0.0477865451497434 1
gene  1 30 38 0.11044748949513315 0 2508.0 0.11044748949513315 1
gene  1 31 38 0.4528027110639442 0 2509.0 0.4528027110639442 1
gene  1 32 38 0.6142264200148047 0 2510.0 0.6142264200148047 1
gene  1 34 38 -0.9547061730633241 0 2512.0 -0.9547061730633241 1
gene  1 38 38 0.6660049620722588 1 2516.0 0.6660049620722588 1
gene  1 39 38 0.018422800027432396 1 2517.0 0.018422800027432396 1
gene  1 63 38 -0.039660935717186464 1 2541.0 -0.039660935717186464 1
gene  1 65 38 -0.05189231434476707 1 2543.0 -0.05189231434476707 1
gene  1 67 38 0.7311137706472504 1 2545.0 0.7311137706472504 1
gene  1 1 39 0.46244604323592153 0 2546.0 0.46244604323592153 1
gene  1 2 39 0.7098291220365728 0 2547.0 0.7098291220365728 1
gene  1 3 39 0.14705260900446582 0 2548.0 0.14705260900446582 1
gene  1 4 39 -0.09409828505656825 0 2549.0 -0.09409828505656825 1
gene  1 9 39 0.002500422460811502 0 2554.0 0.002500422460811502 1
gene  1 11 39 0.3999045692571876 0 2556.0 0.3999045692571876 1
gene  1 12 39 0.7877040271097685 0 2557.0 0.7877040271097685 1
gene  1 20 39 -0.758180646038939 0 2565.0 -0.758180646038939 1
gene  1 21 39 -0.7333392810652366 0 2566.0 -0.7333392810652366 1
gene  1 28 39 -0.09131232615177962 0 2573.0 -0.09131232615177962 1
gene  1 29 39 -0.028917637729457702 0 2574.0 -0.028917637729457702 1
gene  1 31 39 0.7818926914738757 0 2576.0 0.7818926914738757 1
gene  1 33 39 0.028382440321330783 0 2578.0 0.028382440321330783 1
gene  1 34 39 -0.28616234121503076 0 2579.0 -0.28616234121503076 1
gene  1 63 39 0.0825831956635975 1 2608.0 0.0825831956635975 1
gene  1 64 39 -0.7042184569899529 1 2609.0 -0.7042184569899529 1
gene  1 65 39 0.4683454047394549 1 2610.0 0.4683454047394549 1
gene  1 4 63 0.2389233347963918 0 4157.0 0.2389233347963918 1
gene  1 5 63 0.5855161745401598 0 4158.0 0.5855161745401598 0
gene  1 7 63 -0.09850582230688484 0 4160.0 -0.09850582230688484 1
gene  1 10 63 0.7635143592083498 0 4163.0 0.7635143592083498 1
gene  1 11 63 0.11306119471469303 0 4164.0 0.11306119471469303 1
gene  1 13 63 0.4114016236259113 0 4166.0 0.4114016236259113 1
gene  1 14 63 0.743637041311339 0 4167.0 0.743637041311339 1
gene  1 15 63 0.8223607332281945 0 4168.0 0.8223607332281945 1
gene  1 16 63 -0.6348099431561383 0 4169.0 -0.6348099431561383 0
gene  1 18 63 -0.08124824182821162 0 4171.0 -0.08124824182821162 1
gene  1 22 63 0.08109388024122963 0 4175.0 0.08109388024122963 1
gene  1 23 63 -0.09521246447490621 0 4176.0 -0.09521246447490621 1
gene  1 27 63 1.0214565842016265 0 4180.0 1.0214565842016265 1
gene  1 30 63 -0.16546894554891844 0 4183.0 -0.16546894554891844 1
gene  1 37 63 -0.02714675524543301 0 4190.0 -0.02714675524543301 1
gene  1 38 63 0.05535549556739244 0 4191.0 0.05535549556739244 1
gene  1 63 63 0.36023953991270624 1 4216.0 0.36023953991270624 1
gene  1 65 63 0.08985729882885438 1 4218.0 0.08985729882885438 1
gene  1 66 63 0.18668325544174788 1 4219.0 0.18668325544174788 1
gene  1 2 64 0.6194727332730859 0 4222.0 0.6194727332730859 1
gene  1 4 64 -0.7965357306884162 0 4224.0 -0.7965357306884162 1
gene  1 5 64 -0.9531192980303842 0 4225.0 -0.9531192980303842 1
gene  1 6 64 0.8979874795338754 0 4226.0 0.8979874795338754 1
gene  1 8 64 -0.043538594540172906 0 4228.0 -0.043538594540172906 1
gene  1 9 64 0.569847797459081 0 4229.0 0.569847797459081 1
gene  1 10 64 -0.17610883006774747 0 4230.0 -0.17610883006774747 1
gene  1 14 64 -0.8925997748408145 0 4234.0 -0.8925997748408145 1
gene  1 18 64 0.054990326425786544 0 4238.0 0.054990326425786544 1
gene  1 20 64 0.16504548319267323 0 4240.0 0.16504548319267323 1
gene  1 22 64 0.8669931906471618 0 4242.0 0.8669931906471618 1
gene  1 23 64 -0.4662299762685157 0 4243.0 -0.4662299762685157 1
gene  1 31 64 -0.8784885848647171 0 4251.0 -0.8784885848647171 1
gene  1 32 64 -0.5772094101190258 0 4252.0 -0.5772094101190258 1
gene  1 34 64 0.861104560337438 0 4254.0 0.861104560337438 1
gene  1 36 64 -0.1755225704933879 0 4256.0 -0.1755225704933879 1
gene  1 37 64 -0.013428527721747664 0 4257.0 -0.013428527721747664 1
gene  1 38 64 -0.9277238761556095 0 4258.0 -0.9277238761556095 1
gene  1 64 64 -0.013439037074306645 1 4284.0 -0.013439037074306645 1
gene  1 66 64 0.991238587541942 1 4286.0 0.991238587541942 1
gene  1 2 65 0.10721575045659668 0 4289.0 0.10721575045659668 1
gene  1 3 65 0.7564703294093235 0 4290.0 0.7564703294093235 1
gene  1 7 65 -0.3419013586924223 0 4294.0 -0.3419013586924223 1
gene  1 13 65 0.1739844930092097 0 4300.0 0.1739844930092097 1
gene  1 16 65 -0.7266109948153465 0 4303.0 -0.7266109948153465 1
gene  1 20 65 -0.010058610761588515 0 4307.0 -0.010058610761588515 1
gene  1 22 65 -0.8592304961547537 0 4309.0 -0.8592304961547537 1
gene  1 26 65 0.5566774545898617 0 4313.0 0.5566774545898617 1
gene  1 27 65 0.2939382172636181 0 4314.0 0.2939382172636181 1
gene  1 31 65 -0.3626306226272575 0 4318.0 -0.3626306226272575 1
gene  1 32 65 -1.0460304642561613 0 4319.0 -1.0460304642561613 1
gene  1 34 65 -0.8015718464431525 0 4321.0 -0.8015718464431525 1
gene  1 36 65 0.08211551331823651 0 4323.0 0.08211551331823651 1
gene  1 38 65 0.9309305503997818 0 4325.0 0.9309305503997818 1
gene  1 39 65 0.6943929526148599 0 4326.0 0.6943929526148599 1
gene  1 65 65 -0.6928127137249586 1 4352.0 -0.6928127137249586 1
gene  1 66 65 0.3402369802250571 1 4353.0 0.3402369802250571 1
gene  1 67 65 -0.14988636496727137 1 4354.0 -0.14988636496727137 1
gene  1 1 66 0.8611048871065564 0 4355.0 0.8611048871065564 1
gene  1 4 66 -0.5470565387788157 0 4358.0 -0.5470565387788157 1
gene  1 5 66 -0.046912937368522756 0 4359.0 -0.046912937368522756 1
gene  1 7 66 0.05117248234120826 0 4361.0 0.05117248234120826 1
gene  1 8 66 0.6405399188943066 0 4362.0 0.6405399188943066 1
gene  1 9 66 -0.09833417687787287 0 4363.0 -0.09833417687787287 1
gene  1 10 66 -0.3606821853988968 0 4364.0 -0.3606821853988968 1
gene  1 16 66 0.5215195564358911 0 4370.0 0.5215195564358911 1
gene  1 17 66 -0.6975363061577075 0 4371.0 -0.6975363061577075 1
gene  1 18 66 0.5627585693505809 0 4372.0 0.5627585693505809 1
gene  1 20 66 -0.028832751347914 0 4374.0 -0.028832751347914 1
gene  1 22 66 -0.49455364220481757 0 4376.0 -0.49455364220481757 1
gene  1 23 66 -0.06848605256931893 0 4377.0 -0.06848605256931893 1
gene  1 24 66 -0.13646704022308517 0 4378.0 -0.13646704022308517 1
gene  1 27 66 -0.8762094879567615 0 4381.0 -0.8762094879567615 1
gene  1 30 66 0.03529681907457138 0 4384.0 0.03529681907457138 1
gene  1 32 66 -0.1485910896066338 0 4386.0 -0.1485910896066338 1
gene  1 33 66 0.07402644328141617 0 4387.0 0.07402644328141617 1
gene  1 34 66 0.03816901777771817 0 4388.0 0.03816901777771817 1
gene  1 35 66 -0.8860665921326388 0 4389.0 -0.8860665921326388 1
gene  1 36 66 0.853035045659575 0 4390.0 0.853035045659575 1
gene  1 38 66 -0.237956555936705 0 4392.0 -0.237956555936705 1
gene  1 39 66 -0.8621543565573848 0 4393.0 -0.8621543565573848 1
gene  1 63 66 -0.16746267107330157 0 4417.0 -0.16746267107330157 1
gene  1 65 66 -1.0017211831313046 0 4419.0 -1.0017211831313046 1
gene  1 67 66 0.19750984950728015 1 4421.0 0.19750984950728015 1
gene  1 5 67 -0.08682173724818716 0 4426.0 -0.08682173724818716 1
gene  1 11 67 -0.6146095707882903 0 4432.0 -0.6146095707882903 1
gene  1 12 67 -0.7073926432840874 0 4433.0 -0.7073926432840874 1
gene  1 13 67 -0.77229515657549 0 4434.0 -0.77229515657549 1
gene  1 15 67 0.07433893834976356 0 4436.0 0.07433893834976356 1
gene  1 16 67 0.05294609734242679 0 4437.0 0.05294609734242679 1
gene  1 17 67 0.6423748144645296 0 4438.0 0.6423748144645296 1
gene  1 19 67 -0.26939567596717595 0 4440.0 -0.26939567596717595 1
gene  1 20 67 -0.5166844832480392 0 4441.0 -0.5166844832480392 1
gene  1 21 67 -0.0738290662902041 0 4442.0 -0.0738290662902041 1
gene  1 22 67 0.2521806547013429 0 4443.0 0.2521806547013429 1
gene  1 25 67 0.9863765051013423 0 4446.0 0.9863765051013423 1
gene  1 28 67 -0.34316786539245875 0 4449.0 -0.34316786539245875 1
gene  1 31 67 -0.4329276155829804 0 4452.0 -0.4329276155829804 1
gene  1 32 67 0.07195746084950476 0 4453.0 0.07195746084950476 1
gene  1 35 67 -0.020796484302695817 0 4456.0 -0.020796484302695817 1
gene  1 65 67 -0.18815085561251105 0 4486.0 -0.18815085561251105 1
gene  1 66 67 0.29459354582376923 0 4487.0 0.29459354582376923 1
gene  1 4 22 -8.777986493228804 0 4495.0 -8.777986493228804 1
gene  1 5 96 1.0835147858344147 0 4559.0 1.0835147858344147 1
gene  1 96 63 0.633799334633833 0 4560.0 0.633799334633833 1
gene  1 16 101 1.0538028066543044 0 4573.0 1.0538028066543044 1
gene  1 101 63 -0.671433710170489 0 4574.0 -0.671433710170489 1
gene  1 7 34 3.7063747335363537 0 4598.0 3.7063747335363537 1
gene  1 66 112 1.0856928998312352 1 4600.0 1.0856928998312352 1
gene  1 112 29 0.7768807663484342 0 4601.0 0.7768807663484342 1
genomeend 0
/* Organism # 001 Fitness:  3,033 Error:  0,000                      */
genomestart  1
trait 1 0.0 0.0 0.0 0.0 0.0 0.0 0.0 0.0 
node 1 1 1 1
node 2 1 1 1
node 3 1 1 1
node 4 1 1 1
node 5 1 1 1
node 6 1 1 1
node 7 1 1 1
node 8 1 1 1
node 9 1 1 1
node 10 1 1 1
node 11 1 1 1
node 12 1 1 3
node 13 1 0 0
node 14 1 0 0
node 15 1 0 0
node 16 1 0 0
node 17 1 0 0
node 18 1 0 0
node 19 1 0 0
node 20 1 0 0
node 21 1 0 0
node 22 1 0 0
node 23 1 0 0
node 24 1 0 0
node 25 1 0 0
node 26 1 0 0
node 27 1 0 0
node 28 1 0 0
node 29 1 0 0
node 30 1 0 0
node 31 1 0 0
node 32 1 0 0
node 33 1 0 0
node 34 1 0 0
node 35 1 0 0
node 36 1 0 0
node 37 1 0 0
node 38 1 0 0
node 39 1 0 0
node 63 1 0 2
node 64 1 0 2
node 65 1 0 2
node 66 1 0 2
node 67 1 0 2
node 96 1 0 0
node 101 1 0 0
node 112 1 0 0
gene  1 3 13 -0.576206565094855 0 806.0 -0.576206565094855 1
gene  1 6 13 0.29017748708423935 0 809.0 0.29017748708423935 1
gene  1 7 13 -0.49544215021297583 0 810.0 -0.49544215021297583 1
gene  1 10 13 0.7896731998221542 0 813.0 0.7896731998221542 1
gene  1 11 13 0.565818979538838 0 814.0 0.565818979538838 1
gene  1 16 13 0.5202524006606707 1 819.0 0.5202524006606707 1
gene  1 17 13 0.24839843126843592 1 820.0 0.24839843126843592 1
gene  1 19 13 0.8056285363369833 1 822.0 0.8056285363369833 1
gene  1 20 13 0.8691820393352588 1 823.0 0.8691820393352588 1
gene  1 21 13 -0.5352891986380406 1 824.0 -0.5352891986380406 1
gene  1 23 13 0.11516318268197981 1 826.0 0.11516318268197981 1
gene  1 25 13 0.7836867927741572 1 828.0 0.7836867927741572 1
gene  1 29 13 -0.6273622463323577 1 832.0 -0.6273622463323577 1
gene  1 30 13 1.0152619213423837 1 833.0 1.0152619213423837 1
gene  1 31 13 -0.7229485950096936 1 834.0 -0.7229485950096936 1
gene  1 35 13 0.8902935826602285 1 838.0 0.8902935826602285 1
gene  1 36 13 -0.15099480018624933 1 839.0 -0.15099480018624933 1
gene  1 37 13 0.3599435713688279 1 840.0 0.3599435713688279 1
gene  1 38 13 0.8757534082187594 1 841.0 0.8757534082187594 1
gene  1 39 13 -0.7789642203427349 1 842.0 -0.7789642203427349 1
gene  1 63 13 0.8014354277510697 1 866.0 0.8014354277510697 1
gene  1 1 14 -0.8711308731559411 0 871.0 -0.8711308731559411 1
gene  1 2 14 -0.10434846471115146 0 872.0 -0.10434846471115146 1
gene  1 3 14 0.6557958750289696 0 873.0 0.6557958750289696 1
gene  1 5 14 0.6478755694303714 0 875.0 0.6478755694303714 1
gene  1 9 14 -0.9000965950701795 0 879.0 -0.9000965950701795 1
gene  1 11 14 0.7607028296162966 0 881.0 0.7607028296162966 1
gene  1 12 14 0.9700105323701751 0 882.0 0.9700105323701751 1
gene  1 16 14 -0.20291043008858167 1 886.0 -0.20291043008858167 1
gene  1 19 14 0.8878330578455503 1 889.0 0.8878330578455503 1
gene  1 20 14 -0.34478471531466426 1 890.0 -0.34478471531466426 1
gene  1 22 14 -0.7205065770903054 1 892.0 -0.7205065770903054 1
gene  1 23 14 0.7241219085356804 1 893.0 0.7241219085356804 1
gene  1 26 14 -0.6458763033947765 1 896.0 -0.6458763033947765 1
gene  1 29 14 0.38448602004004023 1 899.0 0.38448602004004023 1
gene  1 33 14 -0.47596713517206535 1 903.0 -0.47596713517206535 1
gene  1 36 14 -0.7127329378887686 1 906.0 -0.7127329378887686 1
gene  1 37 14 -0.7412939756412262 1 907.0 -0.7412939756412262 1
gene  1 39 14 0.9745670864862244 1 909.0 0.9745670864862244 1
gene  1 64 14 0.21914873091641107 1 934.0 0.21914873091641107 1
gene  1 65 14 0.8723228667778369 1 935.0 0.8723228667778369 1
gene  1 67 14 -0.9698297648735806 1 937.0 -0.9698297648735806 1
gene  1 3 15 0.011297390587076517 0 940.0 0.011297390587076517 1
gene  1 4 15 1.0102709145788658 0 941.0 1.0102709145788658 1
gene  1 8 15 0.5367437324440657 0 945.0 0.5367437324440657 1
gene  1 9 15 0.9616987953758974 0 946.0 0.9616987953758974 1
gene  1 11 15 -0.8732393149841671 0 948.0 -0.8732393149841671 1
gene  1 13 15 0.40824240276026147 0 950.0 0.40824240276026147 1
gene  1 17 15 0.1817345831385475 1 954.0 0.1817345831385475 1
gene  1 20 15 -0.874666029313319 1 957.0 -0.874666029313319 1
gene  1 21 15 0.26357771758501797 1 958.0 0.26357771758501797 1
gene  1 23 15 -0.4031626920606011 1 960.0 -0.4031626920606011 1
gene  1 24 15 -0.3164952554675301 1 961.0 -0.3164952554675301 1
gene  1 25 15 -0.43179223345016776 1 962.0 -0.43179223345016776 1
gene  1 27 15 -0.30265003819566194 1 964.0 -0.30265003819566194 1
gene  1 30 15 0.639782349728059 1 967.0 0.639782349728059 1
gene  1 31 15 0.07195138923995169 1 968.0 0.07195138923995169 1
gene  1 33 15 0.06704047935299597 1 970.0 0.06704047935299597 1
gene  1 66 15 0.22941200295680395 1 1003.0 0.22941200295680395 1
gene  1 1 16 -0.414790373379065 0 1005.0 -0.414790373379065 1
gene  1 2 16 0.07561608081818469 0 1006.0 0.07561608081818469 1
gene  1 3 16 -0.48029435772696866 0 1007.0 -0.48029435772696866 1
gene  1 4 16 0.2600518886867119 0 1008.0 0.2600518886867119 1
gene  1 6 16 -0.5233086576564092 0 1010.0 -0.5233086576564092 1
gene  1 7 16 -0.1755885820070694 0 1011.0 -0.1755885820070694 1
gene  1 8 16 0.20115611815915915 0 1012.0 0.20115611815915915 1
gene  1 9 16 -0.7516896581432226 0 1013.0 -0.7516896581432226 1
gene  1 10 16 0.25069146352933963 0 1014.0 0.25069146352933963 1
gene  1 12 16 -0.24125780562755958 0 1016.0 -0.24125780562755958 1
gene  1 13 16 -0.5595757465341831 0 1017.0 -0.5595757465341831 1
gene  1 15 16 0.8500116461699222 0 1019.0 0.8500116461699222 1
gene  1 16 16 -0.44323378824572635 1 1020.0 -0.44323378824572635 1
gene  1 18 16 -0.0432708780886366 1 1022.0 -0.0432708780886366 1
gene  1 19 16 0.15157267942287037 1 1023.0 0.15157267942287037 1
gene  1 23 16 0.4829171884455913 1 1027.0 0.4829171884455913 1
gene  1 24 16 -0.9026641195853549 1 1028.0 -0.9026641195853549 1
gene  1 25 16 0.44085532006598743 1 1029.0 0.44085532006598743 1
gene  1 28 16 -0.47417706710821733 1 1032.0 -0.47417706710821733 1
gene  1 29 16 0.18541252002349198 1 1033.0 0.18541252002349198 1
gene  1 34 16 -0.47172455048578993 1 1038.0 -0.47172455048578993 1
gene  1 35 16 -0.3705657475723294 1 1039.0 -0.3705657475723294 1
gene  1 38 16 -0.7994342439487037 1 1042.0 -0.7994342439487037 1
gene  1 39 16 0.9267414214182571 1 1043.0 0.9267414214182571 1
gene  1 65 16 0.05476572426468149 1 1069.0 0.05476572426468149 1
gene  1 67 16 0.008563399306377797 1 1071.0 0.008563399306377797 1
gene  1 1 17 -0.8550893543730193 0 1072.0 -0.8550893543730193 1
gene  1 2 17 0.3247605085700863 0 1073.0 0.3247605085700863 1
gene  1 3 17 -0.5307004066348538 0 1074.0 -0.5307004066348538 1
gene  1 4 17 0.30801173297246653 0 1075.0 0.30801173297246653 1
gene  1 6 17 -0.8152280532825191 0 1077.0 -0.8152280532825191 1
gene  1 9 17 0.903493987730311 0 1080.0 0.903493987730311 1
gene  1 11 17 0.09443140738701816 0 1082.0 0.09443140738701816 1
gene  1 14 17 0.12849972624284692 0 1085.0 0.12849972624284692 1
gene  1 15 17 -0.16306514624118862 0 1086.0 -0.16306514624118862 1
gene  1 17 17 0.7239164162329874 1 1088.0 0.7239164162329874 1
gene  1 18 17 -0.9258167497000438 1 1089.0 -0.9258167497000438 1
gene  1 20 17 0.1117672916595611 1 1091.0 0.1117672916595611 1
gene  1 21 17 -0.5186021746189104 1 1092.0 -0.5186021746189104 1
gene  1 23 17 -0.9404590788117592 1 1094.0 -0.9404590788117592 1
gene  1 25 17 0.021349231207190997 1 1096.0 0.021349231207190997 1
gene  1 26 17 -0.4506803077619778 1 1097.0 -0.4506803077619778 1
gene  1 31 17 -0.3452630855704214 1 1102.0 -0.3452630855704214 1
gene  1 32 17 0.8962491928308741 1 1103.0 0.8962491928308741 1
gene  1 33 17 0.24300540418049313 1 1104.0 0.24300540418049313 1
gene  1 35 17 -1.055029307264163 1 1106.0 -1.055029307264163 1
gene  1 38 17 -0.6834395982849781 1 1109.0 -0.6834395982849781 1
gene  1 39 17 -0.20002115211895644 1 1110.0 -0.20002115211895644 1
gene  1 1 18 0.31688263147774887 0 1139.0 0.31688263147774887 1
gene  1 3 18 0.33205699334003264 0 1141.0 0.33205699334003264 1
gene  1 5 18 0.9654036572705802 0 1143.0 0.9654036572705802 1
gene  1 6 18 -0.022467324016031992 0 1144.0 -0.022467324016031992 1
gene  1 7 18 -0.059494550307816196 0 1145.0 -0.059494550307816196 1
gene  1 8 18 -0.4161669169176065 0 1146.0 -0.4161669169176065 1
gene  1 9 18 -0.04198193120002121 0 1147.0 -0.04198193120002121 1
gene  1 14 18 0.04471631060008835 0 1152.0 0.04471631060008835 1
gene  1 16 18 0.3225883994798505 0 1154.0 0.3225883994798505 1
gene  1 17 18 0.6620445513141879 0 1155.0 0.6620445513141879 1
gene  1 21 18 -0.3712267088155586 1 1159.0 -0.3712267088155586 1
gene  1 22 18 -0.2607313182649378 1 1160.0 -0.2607313182649378 1
gene  1 23 18 0.3006769052744191 1 1161.0 0.3006769052744191 1
gene  1 25 18 -0.20095418585596284 1 1163.0 -0.20095418585596284 1
gene  1 27 18 0.07244179523866254 1 1165.0 0.07244179523866254 1
gene  1 30 18 0.18600451253163505 1 1168.0 0.18600451253163505 1
gene  1 31 18 0.04554306462979031 1 1169.0 0.04554306462979031 1
gene  1 32 18 0.9109679501991821 1 1170.0 0.9109679501991821 1
gene  1 34 18 -0.4736819174536511 1 1172.0 -0.4736819174536511 1
gene  1 37 18 -0.4179068998081936 1 1175.0 -0.4179068998081936 1
gene  1 38 18 -0.1593938355330672 1 1176.0 -0.1593938355330672 1
gene  1 63 18 0.9473493320622652 1 1201.0 0.9473493320622652 1
gene  1 67 18 0.6642111974764278 1 1205.0 0.6642111974764278 1
gene  1 2 19 0.5063332076895714 0 1207.0 0.5063332076895714 1
gene  1 6 19 -0.14750856544766427 0 1211.0 -0.14750856544766427 1
gene  1 7 19 -0.5857830792423848 0 1212.0 -0.5857830792423848 1
gene  1 15 19 -0.48640147470986717 0 1220.0 -0.48640147470986717 1
gene  1 16 19 -0.6562438503639576 0 1221.0 -0.6562438503639576 1
gene  1 17 19 0.22241296146780348 0 1222.0 0.22241296146780348 1
gene  1 18 19 -0.43726202293901706 0 1223.0 -0.43726202293901706 1
gene  1 21 19 0.9800655389257543 1 1226.0 0.9800655389257543 1
gene  1 22 19 -0.5881306043263644 1 1227.0 -0.5881306043263644 1
gene  1 24 19 -0.5351951395412438 1 1229.0 -0.5351951395412438 1
gene  1 25 19 -0.269193215024926 1 1230.0 -0.269193215024926 1
gene  1 26 19 -0.7752631538611872 1 1231.0 -0.7752631538611872 1
gene  1 27 19 -0.0790368846415616 1 1232.0 -0.0790368846415616 1
gene  1 29 19 -0.07162227929350029 1 1234.0 -0.07162227929350029 1
gene  1 33 19 -0.9591199036895186 1 1238.0 -0.9591199036895186 1
gene  1 38 19 -0.9756815290795285 1 1243.0 -0.9756815290795285 1
gene  1 39 19 0.7886732777219237 1 1244.0 0.7886732777219237 1
gene  1 65 19 -0.6453036253578501 1 1270.0 -0.6453036253578501 1
gene  1 66 19 -0.5875700587388132 1 1271.0 -0.5875700587388132 1
gene  1 67 19 -0.9254707569497219 1 1272.0 -0.9254707569497219 1
gene  1 1 20 0.4278103797147701 0 1273.0 0.4278103797147701 1
gene  1 3 20 -0.46346156977029984 0 1275.0 -0.46346156977029984 1
gene  1 5 20 0.7149607993215679 0 1277.0 0.7149607993215679 1
gene  1 6 20 0.4933299191705031 0 1278.0 0.4933299191705031 1
gene  1 7 20 0.6514855768922173 0 1279.0 0.6514855768922173 1
gene  1 10 20 -0.8661251142521535 0 1282.0 -0.8661251142521535 1
gene  1 13 20 -0.7518083922221604 0 1285.0 -0.7518083922221604 1
gene  1 16 20 -0.3520150293093482 0 1288.0 -0.3520150293093482 1
gene  1 18 20 -0.24796301497390344 0 1290.0 -0.24796301497390344 1
gene  1 19 20 -0.5033463185873991 0 1291.0 -0.5033463185873991 1
gene  1 20 20 -0.6728121309507684 1 1292.0 -0.6728121309507684 1
gene  1 22 20 0.775713912637711 1 1294.0 0.775713912637711 1
gene  1 23 20 0.7254933540806076 1 1295.0 0.7254933540806076 1
gene  1 24 20 0.24119465827983982 1 1296.0 0.24119465827983982 1
gene  1 26 20 -0.18783904560722992 1 1298.0 -0.18783904560722992 1
gene  1 32 20 -0.657593333926367 1 1304.0 -0.657593333926367 1
gene  1 35 20 -0.7566479549884891 1 1307.0 -0.7566479549884891 1
gene  1 36 20 -0.5004411964359808 1 1308.0 -0.5004411964359808 1
gene  1 37 20 -0.9279377987458123 1 1309.0 -0.9279377987458123 1
gene  1 39 20 -0.17818106346666218 1 1311.0 -0.17818106346666218 1
gene  1 63 20 0.9393561884575633 1 1335.0 0.9393561884575633 1
gene  1 65 20 -0.9086812395410362 1 1337.0 -0.9086812395410362 1
gene  1 66 20 0.11622603019186124 1 1338.0 0.11622603019186124 1
gene  1 1 21 0.11926729437087685 0 1340.0 0.11926729437087685 1
gene  1 2 21 -0.8911732320544397 0 1341.0 -0.8911732320544397 1
gene  1 3 21 1.0250208690727947 0 1342.0 1.0250208690727947 1
gene  1 4 21 0.15744778882161667 0 1343.0 0.15744778882161667 1
gene  1 6 21 -0.1553311203232164 0 1345.0 -0.1553311203232164 1
gene  1 10 21 0.41539530285362314 0 1349.0 0.41539530285362314 1
gene  1 12 21 0.6506606672571129 0 1351.0 0.6506606672571129 1
gene  1 14 21 -0.49345773147781724 0 1353.0 -0.49345773147781724 1
gene  1 17 21 -0.42351124807421076 0 1356.0 -0.42351124807421076 1
gene  1 19 21 -0.6744906608481108 0 1358.0 -0.6744906608481108 1
gene  1 21 21 0.022931870219165942 1 1360.0 0.022931870219165942 1
gene  1 22 21 0.7107152169801901 1 1361.0 0.7107152169801901 1
gene  1 24 21 -0.22833151467078824 1 1363.0 -0.22833151467078824 1
gene  1 25 21 0.5909199504640287 1 1364.0 0.5909199504640287 1
gene  1 26 21 0.54769236053078 1 1365.0 0.54769236053078 1
gene  1 27 21 -0.6149287818547631 1 1366.0 -0.6149287818547631 1
gene  1 30 21 -0.1646640274083539 1 1369.0 -0.1646640274083539 1
gene  1 31 21 0.14904827588669395 1 1370.0 0.14904827588669395 1
gene  1 32 21 -0.28415786872275783 1 1371.0 -0.28415786872275783 1
gene  1 33 21 0.617644351987664 1 1372.0 0.617644351987664 1
gene  1 34 21 0.6598624986423347 1 1373.0 0.6598624986423347 1
gene  1 35 21 0.8732227568345312 1 1374.0 0.8732227568345312 1
gene  1 37 21 -0.059527598081352814 1 1376.0 -0.059527598081352814 1
gene  1 38 21 0.7891398637203783 1 1377.0 0.7891398637203783 1
gene  1 63 21 0.20449972430826235 1 1402.0 0.20449972430826235 1
gene  1 65 21 -0.5746907836583246 1 1404.0 -0.5746907836583246 1
gene  1 67 21 0.5506634811265376 1 1406.0 0.5506634811265376 1
gene  1 1 22 0.15236164007717556 0 1407.0 0.15236164007717556 1
gene  1 2 22 -0.9251529314421884 0 1408.0 -0.9251529314421884 1
gene  1 5 22 -0.6705647088024604 0 1411.0 -0.6705647088024604 1
gene  1 6 22 -0.013205079891706842 0 1412.0 -0.013205079891706842 1
gene  1 8 22 0.3186331113867068 0 1414.0 0.3186331113867068 1
gene  1 9 22 -0.13364526145625003 0 1415.0 -0.13364526145625003 1
gene  1 11 22 -0.5432371234231919 0 1417.0 -0.5432371234231919 1
gene  1 12 22 0.9261434278586154 0 1418.0 0.9261434278586154 1
gene  1 13 22 -0.4677525978893721 0 1419.0 -0.4677525978893721 1
gene  1 15 22 0.23544722335209975 0 1421.0 0.23544722335209975 1
gene  1 16 22 0.14714819537635626 0 1422.0 0.14714819537635626 1
gene  1 17 22 -0.7935066446667978 0 1423.0 -0.7935066446667978 1
gene  1 18 22 -0.9674415416964681 0 1424.0 -0.9674415416964681 1
gene  1 19 22 0.6028321260104315 0 1425.0 0.6028321260104315 1
gene  1 20 22 0.5009041150488145 0 1426.0 0.5009041150488145 1
gene  1 25 22 0.16189246539298655 1 1431.0 0.16189246539298655 1
gene  1 26 22 0.18945030968006138 1 1432.0 0.18945030968006138 1
gene  1 33 22 0.3131811588235994 1 1439.0 0.3131811588235994 1
gene  1 35 22 0.09667102876068291 1 1441.0 0.09667102876068291 1
gene  1 64 22 -0.18159951716448425 1 1470.0 -0.18159951716448425 1
gene  1 65 22 -0.6948706381958308 1 1471.0 -0.6948706381958308 1
gene  1 66 22 -0.9821022887351696 1 1472.0 -0.9821022887351696 1
gene  1 1 23 0.6880545398422516 0 1474.0 0.6880545398422516 1
gene  1 2 23 -0.5125002860893989 0 1475.0 -0.5125002860893989 1
gene  1 3 23 -0.48108659742091386 0 1476.0 -0.48108659742091386 1
gene  1 5 23 0.014265788130137888 0 1478.0 0.014265788130137888 1
gene  1 7 23 0.8169670207955537 0 1480.0 0.8169670207955537 1
gene  1 8 23 -0.35188815990507993 0 1481.0 -0.35188815990507993 1
gene  1 14 23 0.7012660404255245 0 1487.0 0.7012660404255245 1
gene  1 15 23 -0.6375349045518414 0 1488.0 -0.6375349045518414 1
gene  1 16 23 -0.4445789677374355 0 1489.0 -0.4445789677374355 1
gene  1 19 23 0.8642264364808122 0 1492.0 0.8642264364808122 1
gene  1 20 23 -0.5159543537920979 0 1493.0 -0.5159543537920979 1
gene  1 21 23 0.44994668692324674 0 1494.0 0.44994668692324674 1
gene  1 22 23 0.10694513134415924 0 1495.0 0.10694513134415924 1
gene  1 23 23 0.5628703457654682 1 1496.0 0.5628703457654682 1
gene  1 26 23 0.767472928888809 1 1499.0 0.767472928888809 1
gene  1 27 23 -0.7840299449340478 1 1500.0 -0.7840299449340478 1
gene  1 32 23 0.8166525868503063 1 1505.0 0.8166525868503063 1
gene  1 34 23 0.7218176025956439 1 1507.0 0.7218176025956439 1
gene  1 36 23 -1.0237171338008881 1 1509.0 -1.0237171338008881 1
gene  1 38 23 0.48797371573927595 1 1511.0 0.48797371573927595 1
gene  1 39 23 0.9576836099451763 1 1512.0 0.9576836099451763 1
gene  1 63 23 -0.4901910104871309 1 1536.0 -0.4901910104871309 1
gene  1 64 23 0.5137501966503378 1 1537.0 0.5137501966503378 1
gene  1 65 23 -0.4632714185518276 1 1538.0 -0.4632714185518276 1
gene  1 4 24 -0.7268923530720806 0 1544.0 -0.7268923530720806 1
gene  1 5 24 -0.425928506536133 0 1545.0 -0.425928506536133 1
gene  1 6 24 0.8229702533039368 0 1546.0 0.8229702533039368 1
gene  1 7 24 -0.736803713244157 0 1547.0 -0.736803713244157 1
gene  1 8 24 0.782792422263197 0 1548.0 0.782792422263197 1
gene  1 9 24 -0.07965914712959149 0 1549.0 -0.07965914712959149 1
gene  1 10 24 0.4042308713931934 0 1550.0 0.4042308713931934 1
gene  1 11 24 0.23435650339579409 0 1551.0 0.23435650339579409 1
gene  1 16 24 0.6283864088290397 0 1556.0 0.6283864088290397 1
gene  1 19 24 0.08901575153757824 0 1559.0 0.08901575153757824 1
gene  1 23 24 -0.3168242503634531 0 1563.0 -0.3168242503634531 1
gene  1 24 24 0.38359772775621076 1 1564.0 0.38359772775621076 1
gene  1 26 24 -0.22362365024397884 1 1566.0 -0.22362365024397884 1
gene  1 28 24 0.952447322143223 1 1568.0 0.952447322143223 1
gene  1 29 24 0.615473428220759 1 1569.0 0.615473428220759 1
gene  1 33 24 0.6918714600227491 1 1573.0 0.6918714600227491 1
gene  1 36 24 -0.4258081785637342 1 1576.0 -0.4258081785637342 1
gene  1 39 24 0.04962394260042734 1 1579.0 0.04962394260042734 1
gene  1 67 24 0.9561596340308344 1 1607.0 0.9561596340308344 1
gene  1 1 25 0.7665109363725904 0 1608.0 0.7665109363725904 1
gene  1 2 25 0.8078964418651542 0 1609.0 0.8078964418651542 1
gene  1 3 25 0.9178800510625746 0 1610.0 0.9178800510625746 1
gene  1 4 25 -0.6498715229970853 0 1611.0 -0.6498715229970853 1
gene  1 6 25 0.09659923113671724 0 1613.0 0.09659923113671724 1
gene  1 9 25 0.28975702331862274 0 1616.0 0.28975702331862274 1
gene  1 11 25 0.10876857252021364 0 1618.0 0.10876857252021364 1
gene  1 14 25 -0.16779845131792348 0 1621.0 -0.16779845131792348 1
gene  1 19 25 -0.5133571315649809 0 1626.0 -0.5133571315649809 1
gene  1 20 25 -0.5694095863449002 0 1627.0 -0.5694095863449002 1
gene  1 24 25 -0.09734526055708434 0 1631.0 -0.09734526055708434 1
gene  1 26 25 -0.017311664206369745 1 1633.0 -0.017311664206369745 1
gene  1 27 25 0.8650756904791215 1 1634.0 0.8650756904791215 1
gene  1 37 25 0.5071815347818892 1 1644.0 0.5071815347818892 1
gene  1 2 26 -0.5757877856719349 0 1676.0 -0.5757877856719349 1
gene  1 4 26 -0.753800111408237 0 1678.0 -0.753800111408237 1
gene  1 5 26 0.1069962047635296 0 1679.0 0.1069962047635296 1
gene  1 7 26 -0.6722839069880489 0 1681.0 -0.6722839069880489 1
gene  1 8 26 0.3209415707752108 0 1682.0 0.3209415707752108 1
gene  1 10 26 -0.15584876172514567 0 1684.0 -0.15584876172514567 1
gene  1 16 26 -0.17216088205622415 0 1690.0 -0.17216088205622415 1
gene  1 17 26 0.9262383033036117 0 1691.0 0.9262383033036117 1
gene  1 18 26 -0.9057709334975177 0 1692.0 -0.9057709334975177 1
gene  1 19 26 -1.0274216580753697 0 1693.0 -1.0274216580753697 1
gene  1 21 26 -0.10970518423205167 0 1695.0 -0.10970518423205167 1
gene  1 24 26 -0.14482241359610842 0 1698.0 -0.14482241359610842 1
gene  1 26 26 0.04278499015493964 1 1700.0 0.04278499015493964 1
gene  1 29 26 -0.003848360495744319 1 1703.0 -0.003848360495744319 1
gene  1 30 26 -0.3847780956866289 1 1704.0 -0.3847780956866289 1
gene  1 31 26 0.7630916420753497 1 1705.0 0.7630916420753497 1
gene  1 32 26 0.569812645290399 1 1706.0 0.569812645290399 1
gene  1 33 26 0.10333603979159872 1 1707.0 0.10333603979159872 1
gene  1 37 26 -0.8823647927261427 1 1711.0 -0.8823647927261427 1
gene  1 38 26 0.36594727251352005 1 1712.0 0.36594727251352005 1
gene  1 39 26 -0.9240866256259385 1 1713.0 -0.9240866256259385 1
gene  1 63 26 -0.5884914958389244 1 1737.0 -0.5884914958389244 1
gene  1 64 26 0.840843320323708 1 1738.0 0.840843320323708 1
gene  1 65 26 0.5986386975777742 1 1739.0 0.5986386975777742 1
gene  1 67 26 -0.1197726924323473 1 1741.0 -0.1197726924323473 1
gene  1 1 27 -0.130589274413647 0 1742.0 -0.130589274413647 1
gene  1 4 27 0.44630889401208484 0 1745.0 0.44630889401208484 1
gene  1 6 27 -0.3113839763146551 0 1747.0 -0.3113839763146551 1
gene  1 9 27 -0.30965475471115084 0 1750.0 -0.30965475471115084 1
gene  1 10 27 -0.9008929064661034 0 1751.0 -0.9008929064661034 1
gene  1 12 27 -0.5540944958557672 0 1753.0 -0.5540944958557672 1
gene  1 14 27 -0.2643032099885921 0 1755.0 -0.2643032099885921 1
gene  1 15 27 0.4286535609855554 0 1756.0 0.4286535609855554 1
gene  1 16 27 0.42931962603321294 0 1757.0 0.42931962603321294 1
gene  1 17 27 0.40907166283893603 0 1758.0 0.40907166283893603 1
gene  1 21 27 -0.5860107762813568 0 1762.0 -0.5860107762813568 1
gene  1 23 27 -0.45738349154636865 0 1764.0 -0.45738349154636865 1
gene  1 27 27 -0.8284751540542049 1 1768.0 -0.8284751540542049 1
gene  1 28 27 -0.03599317881215519 1 1769.0 -0.03599317881215519 1
gene  1 29 27 0.5616413625730658 1 1770.0 0.5616413625730658 1
gene  1 31 27 -0.3004089522091396 1 1772.0 -0.3004089522091396 1
gene  1 36 27 0.8498764149314694 1 1777.0 0.8498764149314694 1
gene  1 38 27 -0.2940348738977856 1 1779.0 -0.2940348738977856 1
gene  1 39 27 -0.618510324847057 1 1780.0 -0.618510324847057 1
gene  1 63 27 -0.6700127319541589 1 1804.0 -0.6700127319541589 1
gene  1 64 27 0.1193037674479284 1 1805.0 0.1193037674479284 1
gene  1 2 28 0.3944117654766189 0 1810.0 0.3944117654766189 1
gene  1 3 28 0.09505237524710324 0 1811.0 0.09505237524710324 1
gene  1 4 28 0.1608210024483641 0 1812.0 0.1608210024483641 1
gene  1 9 28 -0.8006329277310678 0 1817.0 -0.8006329277310678 1
gene  1 13 28 0.6199974154969706 0 1821.0 0.6199974154969706 1
gene  1 14 28 0.5300910744466795 0 1822.0 0.5300910744466795 1
gene  1 15 28 -0.29856817764920457 0 1823.0 -0.29856817764920457 1
gene  1 16 28 -0.7107406857083003 0 1824.0 -0.7107406857083003 1
gene  1 19 28 0.6997373765023138 0 1827.0 0.6997373765023138 1
gene  1 20 28 0.2465777273398194 0 1828.0 0.2465777273398194 1
gene  1 26 28 0.8674282539843341 0 1834.0 0.8674282539843341 1
gene  1 29 28 0.5903716791803273 1 1837.0 0.5903716791803273 1
gene  1 30 28 -0.4199074809668054 1 1838.0 -0.4199074809668054 1
gene  1 32 28 0.5018873801836906 1 1840.0 0.5018873801836906 1
gene  1 37 28 0.4816403785962012 1 1845.0 0.4816403785962012 1
gene  1 39 28 0.8140905132100344 1 1847.0 0.8140905132100344 1
gene  1 65 28 0.6731436570453553 1 1873.0 0.6731436570453553 1
gene  1 67 28 0.7204253770080933 1 1875.0 0.7204253770080933 1
gene  1 5 29 -0.31776354684923336 0 1880.0 -0.31776354684923336 1
gene  1 10 29 0.4298847124615965 0 1885.0 0.4298847124615965 1
gene  1 11 29 -0.4582182090714897 0 1886.0 -0.4582182090714897 1
gene  1 12 29 0.6599812233725625 0 1887.0 0.6599812233725625 1
gene  1 13 29 -0.3721366155378125 0 1888.0 -0.3721366155378125 1
gene  1 14 29 0.3484061776321743 0 1889.0 0.3484061776321743 1
gene  1 15 29 -0.6750392677584433 0 1890.0 -0.6750392677584433 1
gene  1 16 29 0.7191779612375413 0 1891.0 0.7191779612375413 1
gene  1 17 29 0.8858323920565757 0 1892.0 0.8858323920565757 1
gene  1 18 29 -0.4562311293890522 0 1893.0 -0.4562311293890522 1
gene  1 19 29 0.0521980977956873 0 1894.0 0.0521980977956873 1
gene  1 21 29 -0.9301203213208621 0 1896.0 -0.9301203213208621 1
gene  1 24 29 0.25706806255613684 0 1899.0 0.25706806255613684 1
gene  1 25 29 0.519435218934096 0 1900.0 0.519435218934096 1
gene  1 27 29 -0.799120610331474 0 1902.0 -0.799120610331474 1
gene  1 29 29 0.9109232499734695 1 1904.0 0.9109232499734695 1
gene  1 31 29 -0.7251518056399445 1 1906.0 -0.7251518056399445 1
gene  1 33 29 0.8270907662875637 1 1908.0 0.8270907662875637 1
gene  1 37 29 0.8219414449675739 1 1912.0 0.8219414449675739 1
gene  1 38 29 -0.0378581753062143 1 1913.0 -0.0378581753062143 1
gene  1 64 29 0.5415534370671069 1 1939.0 0.5415534370671069 1
gene  1 65 29 0.871503744146662 1 1940.0 0.871503744146662 1
gene  1 66 29 0.7276297676963277 1 1941.0 0.7276297676963277 0
gene  1 67 29 0.6644396948192627 1 1942.0 0.6644396948192627 1
gene  1 2 30 -0.3204336740794388 0 1944.0 -0.3204336740794388 1
gene  1 3 30 -0.9890831835666356 0 1945.0 -0.9890831835666356 1
gene  1 8 30 0.35865288015363533 0 1950.0 0.35865288015363533 1
gene  1 9 30 0.6488474068310967 0 1951.0 0.6488474068310967 1
gene  1 11 30 -0.45896741841631356 0 1953.0 -0.45896741841631356 1
gene  1 12 30 -0.22144370469058255 0 1954.0 -0.22144370469058255 1
gene  1 14 30 0.7679014425159345 0 1956.0 0.7679014425159345 1
gene  1 16 30 0.3579141608038111 0 1958.0 0.3579141608038111 1
gene  1 17 30 -0.041858841116627646 0 1959.0 -0.041858841116627646 1
gene  1 19 30 0.7547826854376176 0 1961.0 0.7547826854376176 1
gene  1 20 30 0.5980143990906632 0 1962.0 0.5980143990906632 1
gene  1 21 30 0.811545451166384 0 1963.0 0.811545451166384 1
gene  1 22 30 0.7463421509615289 0 1964.0 0.7463421509615289 1
gene  1 26 30 -0.27858896285170526 0 1968.0 -0.27858896285170526 1
gene  1 29 30 0.9429073665391869 0 1971.0 0.9429073665391869 1
gene  1 30 30 0.8219210678187231 1 1972.0 0.8219210678187231 1
gene  1 34 30 0.8362779087876314 1 1976.0 0.8362779087876314 1
gene  1 38 30 0.39775654966119667 1 1980.0 0.39775654966119667 1
gene  1 39 30 -0.6307341788086539 1 1981.0 -0.6307341788086539 1
gene  1 64 30 -0.5211213173157805 1 2006.0 -0.5211213173157805 1
gene  1 65 30 -0.022998014719669058 1 2007.0 -0.022998014719669058 1
gene  1 1 31 0.3518495444232378 0 2010.0 0.3518495444232378 1
gene  1 2 31 -0.7802819350943001 0 2011.0 -0.7802819350943001 1
gene  1 3 31 0.2573281240547976 0 2012.0 0.2573281240547976 1
gene  1 4 31 0.1724256425083378 0 2013.0 0.1724256425083378 1
gene  1 5 31 -0.3142869864873221 0 2014.0 -0.3142869864873221 1
gene  1 6 31 -0.7105877191605741 0 2015.0 -0.7105877191605741 1
gene  1 9 31 0.5343521135875418 0 2018.0 0.5343521135875418 1
gene  1 13 31 0.9440068070147462 0 2022.0 0.9440068070147462 1
gene  1 14 31 -0.16589626825976073 0 2023.0 -0.16589626825976073 1
gene  1 17 31 -0.5341981953322117 0 2026.0 -0.5341981953322117 1
gene  1 18 31 0.2620592305184951 0 2027.0 0.2620592305184951 1
gene  1 22 31 -0.3875442586720691 0 2031.0 -0.3875442586720691 1
gene  1 24 31 -0.38267326726458484 0 2033.0 -0.38267326726458484 1
gene  1 26 31 0.3176202543241809 0 2035.0 0.3176202543241809 1
gene  1 28 31 -0.7326717690601584 0 2037.0 -0.7326717690601584 1
gene  1 30 31 0.22459966831631392 0 2039.0 0.22459966831631392 1
gene  1 31 31 0.3173845219320411 1 2040.0 0.3173845219320411 1
gene  1 32 31 0.8795714765020423 1 2041.0 0.8795714765020423 1
gene  1 33 31 -0.25354613721600816 1 2042.0 -0.25354613721600816 1
gene  1 38 31 0.9647737616905198 1 2047.0 0.9647737616905198 1
gene  1 39 31 -0.21439058964845312 1 2048.0 -0.21439058964845312 1
gene  1 63 31 -0.8715555564334624 1 2072.0 -0.8715555564334624 1
gene  1 64 31 -0.5822903372441894 1 2073.0 -0.5822903372441894 1
gene  1 65 31 0.0976371433242643 1 2074.0 0.0976371433242643 1
gene  1 2 32 0.5886744599451897 0 2078.0 0.5886744599451897 1
gene  1 4 32 0.8482420255555344 0 2080.0 0.8482420255555344 1
gene  1 5 32 0.012177512334066831 0 2081.0 0.012177512334066831 1
gene  1 6 32 0.08186121681436988 0 2082.0 0.08186121681436988 1
gene  1 9 32 0.7019016327444385 0 2085.0 0.7019016327444385 1
gene  1 14 32 0.9034743404283281 0 2090.0 0.9034743404283281 1
gene  1 15 32 -0.6607667615654916 0 2091.0 -0.6607667615654916 1
gene  1 17 32 -0.2942845029993654 0 2093.0 -0.2942845029993654 1
gene  1 18 32 -0.7029401369803062 0 2094.0 -0.7029401369803062 1
gene  1 22 32 -0.7190424386081119 0 2098.0 -0.7190424386081119 1
gene  1 23 32 -0.14156288294537756 0 2099.0 -0.14156288294537756 1
gene  1 24 32 0.5535922421305278 0 2100.0 0.5535922421305278 1
gene  1 26 32 -0.8469151532760812 0 2102.0 -0.8469151532760812 1
gene  1 27 32 -0.29793979369011825 0 2103.0 -0.29793979369011825 1
gene  1 28 32 0.9766420916506542 0 2104.0 0.9766420916506542 1
gene  1 29 32 0.08641840106624193 0 2105.0 0.08641840106624193 1
gene  1 31 32 -0.6857139444810837 0 2107.0 -0.6857139444810837 1
gene  1 33 32 0.5719246922385947 1 2109.0 0.5719246922385947 1
gene  1 34 32 0.3668589960926835 1 2110.0 0.3668589960926835 1
gene  1 39 32 -0.15015831816148334 1 2115.0 -0.15015831816148334 1
gene  1 64 32 -0.6831648522008595 1 2140.0 -0.6831648522008595 1
gene  1 65 32 -0.18196043669258544 1 2141.0 -0.18196043669258544 1
gene  1 1 33 -0.2830951756341865 0 2144.0 -0.2830951756341865 1
gene  1 7 33 -0.5421554758941058 0 2150.0 -0.5421554758941058 1
gene  1 10 33 -0.43136859940589717 0 2153.0 -0.43136859940589717 1
gene  1 15 33 0.5314804351917556 0 2158.0 0.5314804351917556 1
gene  1 16 33 -1.0617611340577937 0 2159.0 -1.0617611340577937 1
gene  1 18 33 0.0643096299251222 0 2161.0 0.0643096299251222 1
gene  1 21 33 0.592049981178872 0 2164.0 0.592049981178872 1
gene  1 24 33 0.27228058018946866 0 2167.0 0.27228058018946866 1
gene  1 25 33 -0.8734783909740964 0 2168.0 -0.8734783909740964 1
gene  1 27 33 -0.19326429067894346 0 2170.0 -0.19326429067894346 1
gene  1 29 33 0.47362816394316803 0 2172.0 0.47362816394316803 1
gene  1 30 33 -0.26180837707819116 0 2173.0 -0.26180837707819116 1
gene  1 31 33 0.2989657080555959 0 2174.0 0.2989657080555959 1
gene  1 32 33 -0.4424744126803065 0 2175.0 -0.4424744126803065 1
gene  1 33 33 0.08033030492593482 1 2176.0 0.08033030492593482 1
gene  1 34 33 -0.18173767611610475 1 2177.0 -0.18173767611610475 1
gene  1 35 33 -0.47136087542060146 1 2178.0 -0.47136087542060146 1
gene  1 37 33 0.816859519019562 1 2180.0 0.816859519019562 1
gene  1 38 33 0.2679235336794934 1 2181.0 0.2679235336794934 1
gene  1 39 33 -0.4581038556512925 1 2182.0 -0.4581038556512925 1
gene  1 64 33 -0.4232387350683696 1 2207.0 -0.4232387350683696 1
gene  1 2 34 -0.8860516394544955 0 2212.0 -0.8860516394544955 1
gene  1 5 34 0.003573201707488906 0 2215.0 0.003573201707488906 1
gene  1 6 34 0.9138509652419547 0 2216.0 0.9138509652419547 1
gene  1 11 34 0.44870962159424327 0 2221.0 0.44870962159424327 1
gene  1 14 34 -0.40188292274502785 0 2224.0 -0.40188292274502785 1
gene  1 15 34 -0.4563450557497863 0 2225.0 -0.4563450557497863 1
gene  1 17 34 -0.022870015765683177 0 2227.0 -0.022870015765683177 1
gene  1 18 34 -0.9703649644059934 0 2228.0 -0.9703649644059934 1
gene  1 23 34 -0.7485260968934565 0 2233.0 -0.7485260968934565 1
gene  1 25 34 0.10966259893403434 0 2235.0 0.10966259893403434 1
gene  1 26 34 0.27222215030609087 0 2236.0 0.27222215030609087 1
gene  1 28 34 0.6548593984856897 0 2238.0 0.6548593984856897 1
gene  1 29 34 -0.46553878314339725 0 2239.0 -0.46553878314339725 1
gene  1 31 34 -0.7125032066850742 0 2241.0 -0.7125032066850742 1
gene  1 35 34 0.9751087268393783 1 2245.0 0.9751087268393783 1
gene  1 37 34 0.03919016105803086 1 2247.0 0.03919016105803086 1
gene  1 39 34 0.8425071487254767 1 2249.0 0.8425071487254767 1
gene  1 67 34 -0.07002125666197453 1 2277.0 -0.07002125666197453 1
gene  1 4 35 -0.009356308966752686 0 2281.0 -0.009356308966752686 1
gene  1 8 35 0.7533700562237665 0 2285.0 0.7533700562237665 1
gene  1 12 35 0.6966432693797088 0 2289.0 0.6966432693797088 1
gene  1 13 35 -0.3177350364373095 0 2290.0 -0.3177350364373095 1
gene  1 14 35 -0.05619230438145659 0 2291.0 -0.05619230438145659 1
gene  1 15 35 -0.7500180458198574 0 2292.0 -0.7500180458198574 1
gene  1 16 35 0.9889493832836237 0 2293.0 0.9889493832836237 1
gene  1 18 35 -0.2858399191815956 0 2295.0 -0.2858399191815956 1
gene  1 24 35 -0.7859038692933864 0 2301.0 -0.7859038692933864 1
gene  1 27 35 0.502301813000929 0 2304.0 0.502301813000929 1
gene  1 28 35 -0.8187329082878407 0 2305.0 -0.8187329082878407 1
gene  1 29 35 0.17597835288832486 0 2306.0 0.17597835288832486 1
gene  1 30 35 -0.5698500084036784 0 2307.0 -0.5698500084036784 1
gene  1 31 35 0.299176326505774 0 2308.0 0.299176326505774 1
gene  1 32 35 -0.7995897015023178 0 2309.0 -0.7995897015023178 1
gene  1 33 35 0.3339155378916022 0 2310.0 0.3339155378916022 1
gene  1 34 35 -0.39158420799823435 0 2311.0 -0.39158420799823435 1
gene  1 36 35 0.4370902752788379 1 2313.0 0.4370902752788379 1
gene  1 37 35 0.5791033735427807 1 2314.0 0.5791033735427807 1
gene  1 38 35 0.009392892276742625 1 2315.0 0.009392892276742625 1
gene  1 39 35 -0.6737120033958305 1 2316.0 -0.6737120033958305 1
gene  1 65 35 -0.14044715707117078 1 2342.0 -0.14044715707117078 1
gene  1 66 35 0.5817880325203896 1 2343.0 0.5817880325203896 1
gene  1 2 36 -0.22059595689288117 0 2346.0 -0.22059595689288117 1
gene  1 3 36 -0.5929549395766159 0 2347.0 -0.5929549395766159 1
gene  1 4 36 0.4896513294583477 0 2348.0 0.4896513294583477 1
gene  1 5 36 -0.28829915443417836 0 2349.0 -0.28829915443417836 1
gene  1 6 36 -0.022584133549545485 0 2350.0 -0.022584133549545485 1
gene  1 7 36 0.9489885924870696 0 2351.0 0.9489885924870696 1
gene  1 10 36 0.19013000137920533 0 2354.0 0.19013000137920533 1
gene  1 12 36 -0.3481835304946862 0 2356.0 -0.3481835304946862 1
gene  1 13 36 -0.6728277639181551 0 2357.0 -0.6728277639181551 1
gene  1 19 36 -0.11193159024462972 0 2363.0 -0.11193159024462972 1
gene  1 22 36 0.718871040442198 0 2366.0 0.718871040442198 1
gene  1 25 36 -0.03230203836313276 0 2369.0 -0.03230203836313276 1
gene  1 30 36 0.4335794068439038 0 2374.0 0.4335794068439038 1
gene  1 31 36 -0.779992649292035 0 2375.0 -0.779992649292035 1
gene  1 35 36 -0.4233922646874319 0 2379.0 -0.4233922646874319 1
gene  1 36 36 0.9804725454527999 1 2380.0 0.9804725454527999 1
gene  1 37 36 0.7693778699448898 1 2381.0 0.7693778699448898 1
gene  1 63 36 0.6602010713310985 1 2407.0 0.6602010713310985 1
gene  1 66 36 -0.31940522135517874 1 2410.0 -0.31940522135517874 1
gene  1 67 36 0.6031405974790022 1 2411.0 0.6031405974790022 1
gene  1 2 37 -0.08582963668963696 0 2413.0 -0.08582963668963696 1
gene  1 8 37 0.028874764112163998 0 2419.0 0.028874764112163998 1
gene  1 10 37 0.14462215023402478 0 2421.0 0.14462215023402478 1
gene  1 11 37 -0.6972723634034977 0 2422.0 -0.6972723634034977 1
gene  1 12 37 -0.6842052580871736 0 2423.0 -0.6842052580871736 1
gene  1 13 37 -0.23741662042416445 0 2424.0 -0.23741662042416445 1
gene  1 14 37 -0.3697943263230327 0 2425.0 -0.3697943263230327 1
gene  1 16 37 -0.2946817399329145 0 2427.0 -0.2946817399329145 1
gene  1 18 37 0.2609704756818926 0 2429.0 0.2609704756818926 1
gene  1 20 37 -0.14078482082962324 0 2431.0 -0.14078482082962324 1
gene  1 22 37 -0.34117921808074375 0 2433.0 -0.34117921808074375 1
gene  1 24 37 -0.20420715465241854 0 2435.0 -0.20420715465241854 1
gene  1 28 37 0.07747701617482314 0 2439.0 0.07747701617482314 1
gene  1 29 37 0.5689531657247855 0 2440.0 0.5689531657247855 1
gene  1 30 37 0.8706308446347959 0 2441.0 0.8706308446347959 1
gene  1 31 37 0.67805097379399 0 2442.0 0.67805097379399 1
gene  1 32 37 -0.43268419750195186 0 2443.0 -0.43268419750195186 1
gene  1 33 37 -0.7993248543073699 0 2444.0 -0.7993248543073699 1
gene  1 36 37 -1.071904088275993 0 2447.0 -1.071904088275993 1
gene  1 38 37 0.7414387800738204 1 2449.0 0.7414387800738204 1
gene  1 39 37 0.05932191206212763 1 2450.0 0.05932191206212763 1
gene  1 63 37 0.4645099964508891 1 2474.0 0.4645099964508891 1
gene  1 4 38 0.28158037693881394 0 2482.0 0.28158037693881394 1
gene  1 5 38 -0.03311926827336185 0 2483.0 -0.03311926827336185 1
gene  1 8 38 0.19929360658722678 0 2486.0 0.19929360658722678 1
gene  1 17 38 0.7955258109874475 0 2495.0 0.7955258109874475 1
gene  1 18 38 -0.9041491188924998 0 2496.0 -0.9041491188924998 1
gene  1 22 38 -0.8535567504917521 0 2500.0 -0.8535567504917521 1
gene  1 23 38 0.020408651617809803 0 2501.0 0.020408651617809803 1
gene  1 26 38 -0.23144056770685506 0 2504.0 -0.23144056770685506 1
gene  1 28 38 0.6971919149734496 0 2506.0 0.6971919149734496 1
gene  1 30 38 0.03652134694064446 0 2508.0 0.03652134694064446 1
gene  1 31 38 0.3113143053124694 0 2509.0 0.3113143053124694 1
gene  1 32 38 0.6050250041297359 0 2510.0 0.6050250041297359 1
gene  1 34 38 -0.9158806188458305 0 2512.0 -0.9158806188458305 1
gene  1 38 38 0.6528646284130616 1 2516.0 0.6528646284130616 1
gene  1 39 38 -0.7938493555392592 1 2517.0 -0.7938493555392592 1
gene  1 63 38 -0.9777956944765923 1 2541.0 -0.9777956944765923 1
gene  1 65 38 -0.28223957572023706 1 2543.0 -0.28223957572023706 1
gene  1 67 38 -0.08557804411940625 1 2545.0 -0.08557804411940625 1
gene  1 1 39 0.4443719676000888 0 2546.0 0.4443719676000888 1
gene  1 2 39 0.7320757710903941 0 2547.0 0.7320757710903941 1
gene  1 3 39 0.16707724170737387 0 2548.0 0.16707724170737387 1
gene  1 4 39 0.9095732369708843 0 2549.0 0.9095732369708843 1
gene  1 9 39 0.08148188898337139 0 2554.0 0.08148188898337139 1
gene  1 11 39 0.4816404461332051 0 2556.0 0.4816404461332051 1
gene  1 12 39 0.7785586820036979 0 2557.0 0.7785586820036979 1
gene  1 20 39 -0.7972988170047539 0 2565.0 -0.7972988170047539 1
gene  1 21 39 -0.5589775635347219 0 2566.0 -0.5589775635347219 1
gene  1 28 39 -0.012223320111508063 0 2573.0 -0.012223320111508063 1
gene  1 29 39 0.001362024766594451 0 2574.0 0.001362024766594451 1
gene  1 31 39 0.8014947038223276 0 2576.0 0.8014947038223276 1
gene  1 33 39 0.832077846938775 0 2578.0 0.832077846938775 1
gene  1 34 39 -0.25444602729057275 0 2579.0 -0.25444602729057275 1
gene  1 63 39 1.0530154580771505 1 2608.0 1.0530154580771505 1
gene  1 64 39 -0.7942055988884116 1 2609.0 -0.7942055988884116 1
gene  1 65 39 0.44255848968571887 1 2610.0 0.44255848968571887 1
gene  1 4 63 -0.014564188327584117 0 4157.0 -0.014564188327584117 1
gene  1 5 63 0.565950828951266 0 4158.0 0.565950828951266 0
gene  1 7 63 0.06736744203446157 0 4160.0 0.06736744203446157 1
gene  1 10 63 0.7915162235691815 0 4163.0 0.7915162235691815 1
gene  1 11 63 -0.020555173592440926 0 4164.0 -0.020555173592440926 1
gene  1 13 63 0.3438447836659561 0 4166.0 0.3438447836659561 1
gene  1 14 63 0.7798636436231015 0 4167.0 0.7798636436231015 1
gene  1 15 63 0.7993998369051847 0 4168.0 0.7993998369051847 1
gene  1 16 63 0.06541167125153874 0 4169.0 0.06541167125153874 0
gene  1 18 63 0.014701931403797386 0 4171.0 0.014701931403797386 1
gene  1 22 63 -0.08605397572512334 0 4175.0 -0.08605397572512334 1
gene  1 23 63 -0.1689732502937184 0 4176.0 -0.1689732502937184 1
gene  1 27 63 0.006657708969392828 0 4180.0 0.006657708969392828 1
gene  1 30 63 -0.07032140489482798 0 4183.0 -0.07032140489482798 1
gene  1 37 63 0.8044153598654911 0 4190.0 0.8044153598654911 1
gene  1 38 63 0.8965671909919328 0 4191.0 0.8965671909919328 1
gene  1 63 63 0.2609558251899308 1 4216.0 0.2609558251899308 1
gene  1 65 63 0.059035477142223125 1 4218.0 0.059035477142223125 1
gene  1 66 63 0.2108025222154074 1 4219.0 0.2108025222154074 1
gene  1 2 64 0.6194727332730859 0 4222.0 0.6194727332730859 1
gene  1 4 64 -0.7358785976076916 0 4224.0 -0.7358785976076916 1
gene  1 5 64 -0.9984968540084731 0 4225.0 -0.9984968540084731 1
gene  1 6 64 1.0191933683376817 0 4226.0 1.0191933683376817 1
gene  1 8 64 0.0073542253359074605 0 4228.0 0.0073542253359074605 1
gene  1 9 64 0.5810389043420727 0 4229.0 0.5810389043420727 1
gene  1 10 64 -0.10201333531835732 0 4230.0 -0.10201333531835732 1
gene  1 14 64 -0.969053643660589 0 4234.0 -0.969053643660589 1
gene  1 18 64 -0.760867764646679 0 4238.0 -0.760867764646679 1
gene  1 20 64 0.17444522850886132 0 4240.0 0.17444522850886132 1
gene  1 22 64 0.8895223375692115 0 4242.0 0.8895223375692115 1
gene  1 23 64 -0.5261021289277179 0 4243.0 -0.5261021289277179 1
gene  1 31 64 -1.0028739525290356 0 4251.0 -1.0028739525290356 1
gene  1 32 64 -0.5818455839508304 0 4252.0 -0.5818455839508304 1
gene  1 34 64 0.7980598024483816 0 4254.0 0.7980598024483816 1
gene  1 36 64 -0.27404544139445264 0 4256.0 -0.27404544139445264 1
gene  1 37 64 -0.07193395049298662 0 4257.0 -0.07193395049298662 1
gene  1 38 64 -0.947562196740984 0 4258.0 -0.947562196740984 1
gene  1 64 64 -0.0716782253757422 1 4284.0 -0.0716782253757422 1
gene  1 66 64 0.9057511561651955 1 4286.0 0.9057511561651955 1
gene  1 2 65 0.057848349381736996 0 4289.0 0.057848349381736996 1
gene  1 3 65 -0.05567311216242357 0 4290.0 -0.05567311216242357 1
gene  1 7 65 -0.0010582812445613543 0 4294.0 -0.0010582812445613543 1
gene  1 13 65 0.12022722329148601 0 4300.0 0.12022722329148601 1
gene  1 16 65 -0.018083111654121877 0 4303.0 -0.018083111654121877 1
gene  1 20 65 -0.022336787137746228 0 4307.0 -0.022336787137746228 1
gene  1 22 65 0.027943919925528783 0 4309.0 0.027943919925528783 1
gene  1 26 65 0.09957641558116517 0 4313.0 0.09957641558116517 1
gene  1 27 65 0.149617364048296 0 4314.0 0.149617364048296 1
gene  1 31 65 -0.4092007324090113 0 4318.0 -0.4092007324090113 1
gene  1 32 65 -0.9854555811946253 0 4319.0 -0.9854555811946253 1
gene  1 34 65 -0.06259948773812025 0 4321.0 -0.06259948773812025 1
gene  1 36 65 -0.439798453784211 0 4323.0 -0.439798453784211 1
gene  1 38 65 0.80511336562567 0 4325.0 0.80511336562567 1
gene  1 39 65 0.7052209027900117 0 4326.0 0.7052209027900117 1
gene  1 65 65 -0.7884409523197982 1 4352.0 -0.7884409523197982 1
gene  1 66 65 0.2844679217282404 1 4353.0 0.2844679217282404 1
gene  1 67 65 -0.029752537502834322 1 4354.0 -0.029752537502834322 1
gene  1 1 66 -0.08535527583622145 0 4355.0 -0.08535527583622145 1
gene  1 4 66 -0.6233676968536566 0 4358.0 -0.6233676968536566 1
gene  1 5 66 -0.06047019027845224 0 4359.0 -0.06047019027845224 1
gene  1 7 66 0.055726474043755914 0 4361.0 0.055726474043755914 1
gene  1 8 66 0.6842498759840446 0 4362.0 0.6842498759840446 1
gene  1 9 66 -0.060071275862687235 0 4363.0 -0.060071275862687235 1
gene  1 10 66 -0.26052270721163195 0 4364.0 -0.26052270721163195 1
gene  1 16 66 0.4858666083453237 0 4370.0 0.4858666083453237 1
gene  1 17 66 -0.8390232843136216 0 4371.0 -0.8390232843136216 1
gene  1 18 66 0.4994154770531558 0 4372.0 0.4994154770531558 1
gene  1 20 66 0.5809896017381929 0 4374.0 0.5809896017381929 1
gene  1 22 66 -0.49455364220481757 0 4376.0 -0.49455364220481757 1
gene  1 23 66 -0.8027216278921614 0 4377.0 -0.8027216278921614 1
gene  1 24 66 -0.30091477849993536 0 4378.0 -0.30091477849993536 1
gene  1 27 66 -0.9216774483900605 0 4381.0 -0.9216774483900605 1
gene  1 30 66 -0.6741388663799042 0 4384.0 -0.6741388663799042 1
gene  1 32 66 -0.1071157965682366 0 4386.0 -0.1071157965682366 1
gene  1 33 66 0.03331689619165162 0 4387.0 0.03331689619165162 1
gene  1 34 66 0.6037820095252288 0 4388.0 0.6037820095252288 1
gene  1 35 66 -0.8870464292315752 0 4389.0 -0.8870464292315752 1
gene  1 36 66 0.9189020991667856 0 4390.0 0.9189020991667856 1
gene  1 38 66 -0.2953931680571673 0 4392.0 -0.2953931680571673 1
gene  1 39 66 -0.8707445375472094 0 4393.0 -0.8707445375472094 1
gene  1 63 66 0.01963333143406858 0 4417.0 0.01963333143406858 1
gene  1 65 66 -0.8738430813769814 0 4419.0 -0.8738430813769814 1
gene  1 67 66 0.038068108418037316 1 4421.0 0.038068108418037316 1
gene  1 5 67 0.08014283483903163 0 4426.0 0.08014283483903163 1
gene  1 11 67 -0.6146095707882903 0 4432.0 -0.6146095707882903 1
gene  1 12 67 -0.6005632830803488 0 4433.0 -0.6005632830803488 1
gene  1 13 67 0.017677141184050626 0 4434.0 0.017677141184050626 1
gene  1 15 67 -0.07808086753855845 0 4436.0 -0.07808086753855845 1
gene  1 16 67 0.9135889549614168 0 4437.0 0.9135889549614168 1
gene  1 17 67 -0.09753759208046714 0 4438.0 -0.09753759208046714 1
gene  1 19 67 -0.23146596166521982 0 4440.0 -0.23146596166521982 1
gene  1 20 67 -0.5101200599516346 0 4441.0 -0.5101200599516346 1
gene  1 21 67 -0.7413714040639081 0 4442.0 -0.7413714040639081 1
gene  1 22 67 0.40156873055140974 0 4443.0 0.40156873055140974 1
gene  1 25 67 0.9702478690453518 0 4446.0 0.9702478690453518 1
gene  1 28 67 -0.3517858250409839 0 4449.0 -0.3517858250409839 1
gene  1 31 67 -0.027480446916464465 0 4452.0 -0.027480446916464465 1
gene  1 32 67 -0.3309352194178796 0 4453.0 -0.3309352194178796 1
gene  1 35 67 0.7412210168979978 0 4456.0 0.7412210168979978 1
gene  1 65 67 -0.14173688591569514 0 4486.0 -0.14173688591569514 1
gene  1 66 67 0.3490104386825524 0 4487.0 0.3490104386825524 1
gene  1 4 22 -8.777986493228804 0 4495.0 -8.777986493228804 1
gene  1 5 96 1.0 0 4559.0 1.0 1
gene  1 96 63 0.55727574555173 0 4560.0 0.55727574555173 1
gene  1 16 101 1.0 0 4573.0 1.0 1
gene  1 101 63 -0.6452120758615434 0 4574.0 -0.6452120758615434 1
gene  1 7 34 3.7063747335363537 0 4598.0 3.7063747335363537 1
gene  1 66 112 0.9142786275576191 1 4600.0 0.9142786275576191 1
gene  1 112 29 0.7867534320084413 0 4601.0 0.7867534320084413 1
genomeend 1
/* Organism # 002 Fitness:  0,033 Error:  0,000                      */
genomestart  2
trait 1 0.0 0.0 0.0 0.0 0.0 0.0 0.0 0.0 
node 1 1 1 1
node 2 1 1 1
node 3 1 1 1
node 4 1 1 1
node 5 1 1 1
node 6 1 1 1
node 7 1 1 1
node 8 1 1 1
node 9 1 1 1
node 10 1 1 1
node 11 1 1 1
node 12 1 1 3
node 13 1 0 0
node 14 1 0 0
node 15 1 0 0
node 16 1 0 0
node 17 1 0 0
node 18 1 0 0
node 19 1 0 0
node 20 1 0 0
node 21 1 0 0
node 22 1 0 0
node 23 1 0 0
node 24 1 0 0
node 25 1 0 0
node 26 1 0 0
node 27 1 0 0
node 28 1 0 0
node 29 1 0 0
node 30 1 0 0
node 31 1 0 0
node 32 1 0 0
node 33 1 0 0
node 34 1 0 0
node 35 1 0 0
node 36 1 0 0
node 37 1 0 0
node 38 1 0 0
node 39 1 0 0
node 63 1 0 2
node 64 1 0 2
node 65 1 0 2
node 66 1 0 2
node 67 1 0 2
node 96 1 0 0
node 101 1 0 0
node 112 1 0 0
gene  1 3 13 -0.0821326598210694 0 806.0 -0.0821326598210694 1
gene  1 6 13 0.2759291401654408 0 809.0 0.2759291401654408 1
gene  1 7 13 -0.3609398859446207 0 810.0 -0.3609398859446207 1
gene  1 10 13 0.8976401236483829 0 813.0 0.8976401236483829 1
gene  1 11 13 0.5312339292959917 0 814.0 0.5312339292959917 1
gene  1 16 13 0.4091805806979452 1 819.0 0.4091805806979452 1
gene  1 17 13 0.18372804280692248 1 820.0 0.18372804280692248 1
gene  1 19 13 0.8362201010497511 1 822.0 0.8362201010497511 1
gene  1 20 13 -0.05571813167859107 1 823.0 -0.05571813167859107 1
gene  1 21 13 -0.6748521585124825 1 824.0 -0.6748521585124825 1
gene  1 23 13 0.1247596440065415 1 826.0 0.1247596440065415 1
gene  1 25 13 0.832139049645793 1 828.0 0.832139049645793 1
gene  1 29 13 -0.5403956788436258 1 832.0 -0.5403956788436258 1
gene  1 30 13 0.9119985604487315 1 833.0 0.9119985604487315 1
gene  1 31 13 -0.6270992862800393 1 834.0 -0.6270992862800393 1
gene  1 35 13 0.7683844323798077 1 838.0 0.7683844323798077 1
gene  1 36 13 -9.431727708471283E-5 1 839.0 -9.431727708471283E-5 1
gene  1 37 13 0.32118856435295384 1 840.0 0.32118856435295384 1
gene  1 38 13 0.8103602636555323 1 841.0 0.8103602636555323 1
gene  1 39 13 -0.7325326750014254 1 842.0 -0.7325326750014254 1
gene  1 63 13 0.07645155638918115 1 866.0 0.07645155638918115 1
gene  1 1 14 0.09388582949835017 0 871.0 0.09388582949835017 1
gene  1 2 14 0.017074298821086156 0 872.0 0.017074298821086156 1
gene  1 3 14 0.7611311624394388 0 873.0 0.7611311624394388 1
gene  1 5 14 0.07611413684196972 0 875.0 0.07611413684196972 1
gene  1 9 14 -0.9455493783568284 0 879.0 -0.9455493783568284 1
gene  1 11 14 0.7473283075452356 0 881.0 0.7473283075452356 1
gene  1 12 14 0.9687667063057919 0 882.0 0.9687667063057919 1
gene  1 16 14 -0.3097064035024994 1 886.0 -0.3097064035024994 1
gene  1 19 14 0.9612061400439988 1 889.0 0.9612061400439988 1
gene  1 20 14 -0.4305686704573123 1 890.0 -0.4305686704573123 1
gene  1 22 14 -0.863406091025896 1 892.0 -0.863406091025896 1
gene  1 23 14 0.5915617051461762 1 893.0 0.5915617051461762 1
gene  1 26 14 -0.6278518615693085 1 896.0 -0.6278518615693085 1
gene  1 29 14 0.29178002936776803 1 899.0 0.29178002936776803 1
gene  1 33 14 -0.6169021316084851 1 903.0 -0.6169021316084851 1
gene  1 36 14 -0.6928598289148519 1 906.0 -0.6928598289148519 1
gene  1 37 14 -0.8123279753082291 1 907.0 -0.8123279753082291 1
gene  1 39 14 -0.007209906763103702 1 909.0 -0.007209906763103702 1
gene  1 64 14 -0.08100620833701676 1 934.0 -0.08100620833701676 1
gene  1 65 14 0.9484461288263705 1 935.0 0.9484461288263705 1
gene  1 67 14 -0.04091695200159832 1 937.0 -0.04091695200159832 1
gene  1 3 15 0.03149902660837467 0 940.0 0.03149902660837467 1
gene  1 4 15 -0.005534050385856926 0 941.0 -0.005534050385856926 1
gene  1 8 15 0.4347957341291875 0 945.0 0.4347957341291875 1
gene  1 9 15 0.08617298737854862 0 946.0 0.08617298737854862 1
gene  1 11 15 -0.7941739340243263 0 948.0 -0.7941739340243263 1
gene  1 13 15 0.5175633159745467 0 950.0 0.5175633159745467 1
gene  1 17 15 0.31151066787562465 1 954.0 0.31151066787562465 1
gene  1 20 15 -0.8862322278457057 1 957.0 -0.8862322278457057 1
gene  1 21 15 0.1527313810816016 1 958.0 0.1527313810816016 1
gene  1 23 15 -0.4144291474443122 1 960.0 -0.4144291474443122 1
gene  1 24 15 -0.18098913234821157 1 961.0 -0.18098913234821157 1
gene  1 25 15 -0.3912455764082886 1 962.0 -0.3912455764082886 1
gene  1 27 15 -0.2899544778690582 1 964.0 -0.2899544778690582 1
gene  1 30 15 0.7585567334262889 1 967.0 0.7585567334262889 1
gene  1 31 15 0.1674886542986788 1 968.0 0.1674886542986788 1
gene  1 33 15 -0.016073746693164283 1 970.0 -0.016073746693164283 1
gene  1 66 15 0.2324219939143531 1 1003.0 0.2324219939143531 1
gene  1 1 16 -0.39376006079368736 0 1005.0 -0.39376006079368736 1
gene  1 2 16 0.07448757027787167 0 1006.0 0.07448757027787167 1
gene  1 3 16 -0.5774316054644034 0 1007.0 -0.5774316054644034 1
gene  1 4 16 0.3506902788455449 0 1008.0 0.3506902788455449 1
gene  1 6 16 -0.5133212816657029 0 1010.0 -0.5133212816657029 1
gene  1 7 16 -0.18531631089851952 0 1011.0 -0.18531631089851952 1
gene  1 8 16 0.18096193054137413 0 1012.0 0.18096193054137413 1
gene  1 9 16 -0.6695578008547012 0 1013.0 -0.6695578008547012 1
gene  1 10 16 0.20207410368771314 0 1014.0 0.20207410368771314 1
gene  1 12 16 -0.22536920227126422 0 1016.0 -0.22536920227126422 1
gene  1 13 16 -0.5299536745142848 0 1017.0 -0.5299536745142848 1
gene  1 15 16 0.03641140659947502 0 1019.0 0.03641140659947502 1
gene  1 16 16 -0.5621252838209725 1 1020.0 -0.5621252838209725 1
gene  1 18 16 -0.0253078701826729 1 1022.0 -0.0253078701826729 1
gene  1 19 16 0.11970296340185638 1 1023.0 0.11970296340185638 1
gene  1 23 16 0.578056954962413 1 1027.0 0.578056954962413 1
gene  1 24 16 -0.9096044472915652 1 1028.0 -0.9096044472915652 1
gene  1 25 16 0.4376448580390321 1 1029.0 0.4376448580390321 1
gene  1 28 16 -0.4577246297903919 1 1032.0 -0.4577246297903919 1
gene  1 29 16 7.088856969744485E-4 1 1033.0 7.088856969744485E-4 1
gene  1 34 16 -0.5646237188503389 1 1038.0 -0.5646237188503389 1
gene  1 35 16 -0.4485572510930705 1 1039.0 -0.4485572510930705 1
gene  1 38 16 -0.774042542328577 1 1042.0 -0.774042542328577 1
gene  1 39 16 0.9006970231671608 1 1043.0 0.9006970231671608 1
gene  1 65 16 -0.12570783775666175 1 1069.0 -0.12570783775666175 1
gene  1 67 16 -0.10879088952656812 1 1071.0 -0.10879088952656812 1
gene  1 1 17 -0.8259119321788472 0 1072.0 -0.8259119321788472 1
gene  1 2 17 0.2789576611641267 0 1073.0 0.2789576611641267 1
gene  1 3 17 -0.4325454571898173 0 1074.0 -0.4325454571898173 1
gene  1 4 17 0.4108574136451677 0 1075.0 0.4108574136451677 1
gene  1 6 17 -0.08907308689409203 0 1077.0 -0.08907308689409203 1
gene  1 9 17 0.9032865704638348 0 1080.0 0.9032865704638348 1
gene  1 11 17 0.06412596418832903 0 1082.0 0.06412596418832903 1
gene  1 14 17 -0.08834437963068502 0 1085.0 -0.08834437963068502 1
gene  1 15 17 -4.077081093213031E-4 0 1086.0 -4.077081093213031E-4 1
gene  1 17 17 0.5730538872480173 1 1088.0 0.5730538872480173 1
gene  1 18 17 -1.0041004889050351 1 1089.0 -1.0041004889050351 1
gene  1 20 17 0.07792862063046335 1 1091.0 0.07792862063046335 1
gene  1 21 17 -0.3934953269728052 1 1092.0 -0.3934953269728052 1
gene  1 23 17 -0.08664829196749449 1 1094.0 -0.08664829196749449 1
gene  1 25 17 0.0790570825148117 1 1096.0 0.0790570825148117 1
gene  1 26 17 -0.4689388187476732 1 1097.0 -0.4689388187476732 1
gene  1 31 17 -0.43874321134528155 1 1102.0 -0.43874321134528155 1
gene  1 32 17 -0.0318777773444275 1 1103.0 -0.0318777773444275 1
gene  1 33 17 0.2644012337459292 1 1104.0 0.2644012337459292 1
gene  1 35 17 0.06273988428786878 1 1106.0 0.06273988428786878 1
gene  1 38 17 -0.6707671277789276 1 1109.0 -0.6707671277789276 1
gene  1 39 17 -0.17382808820310963 1 1110.0 -0.17382808820310963 1
gene  1 1 18 0.4404639588021495 0 1139.0 0.4404639588021495 1
gene  1 3 18 0.47426630657834007 0 1141.0 0.47426630657834007 1
gene  1 5 18 0.9767063295527483 0 1143.0 0.9767063295527483 1
gene  1 6 18 0.03446619188819755 0 1144.0 0.03446619188819755 1
gene  1 7 18 -0.03448640246773836 0 1145.0 -0.03448640246773836 1
gene  1 8 18 -0.48874872840416367 0 1146.0 -0.48874872840416367 1
gene  1 9 18 -0.060241913905653324 0 1147.0 -0.060241913905653324 1
gene  1 14 18 0.14521210844901689 0 1152.0 0.14521210844901689 1
gene  1 16 18 -0.0842044509546586 0 1154.0 -0.0842044509546586 1
gene  1 17 18 0.5587351298254153 0 1155.0 0.5587351298254153 1
gene  1 21 18 0.023319723502702717 1 1159.0 0.023319723502702717 1
gene  1 22 18 -0.30375038207491467 1 1160.0 -0.30375038207491467 1
gene  1 23 18 0.2923826073979713 1 1161.0 0.2923826073979713 1
gene  1 25 18 0.008736111330250197 1 1163.0 0.008736111330250197 1
gene  1 27 18 0.006185356254112706 1 1165.0 0.006185356254112706 1
gene  1 30 18 0.14357859342693569 1 1168.0 0.14357859342693569 1
gene  1 31 18 0.025261695272825305 1 1169.0 0.025261695272825305 1
gene  1 32 18 0.8315474196363891 1 1170.0 0.8315474196363891 1
gene  1 34 18 -0.38174289438314146 1 1172.0 -0.38174289438314146 1
gene  1 37 18 0.07375033296368752 1 1175.0 0.07375033296368752 1
gene  1 38 18 -0.07126844243782827 1 1176.0 -0.07126844243782827 1
gene  1 63 18 0.8547906370251256 1 1201.0 0.8547906370251256 1
gene  1 67 18 0.647166512390719 1 1205.0 0.647166512390719 1
gene  1 2 19 0.4209392638700019 0 1207.0 0.4209392638700019 1
gene  1 6 19 -0.09782378165514816 0 1211.0 -0.09782378165514816 1
gene  1 7 19 -0.5072162709950045 0 1212.0 -0.5072162709950045 1
gene  1 15 19 -0.6242632061387517 0 1220.0 -0.6242632061387517 1
gene  1 16 19 -0.6935246521636109 0 1221.0 -0.6935246521636109 1
gene  1 17 19 0.2025151895463611 0 1222.0 0.2025151895463611 1
gene  1 18 19 -0.45828163874109895 0 1223.0 -0.45828163874109895 1
gene  1 21 19 1.0240432988812764 1 1226.0 1.0240432988812764 1
gene  1 22 19 -0.4855129694453435 1 1227.0 -0.4855129694453435 1
gene  1 24 19 -0.052628838642919964 1 1229.0 -0.052628838642919964 1
gene  1 25 19 -0.3661049264746253 1 1230.0 -0.3661049264746253 1
gene  1 26 19 -0.7980306453464137 1 1231.0 -0.7980306453464137 1
gene  1 27 19 -0.07419919907938848 1 1232.0 -0.07419919907938848 1
gene  1 29 19 -0.1350709172786047 1 1234.0 -0.1350709172786047 1
gene  1 33 19 -0.8341537141558768 1 1238.0 -0.8341537141558768 1
gene  1 38 19 -0.08200197078487727 1 1243.0 -0.08200197078487727 1
gene  1 39 19 0.8757381363964212 1 1244.0 0.8757381363964212 1
gene  1 65 19 -0.8069404145928128 1 1270.0 -0.8069404145928128 1
gene  1 66 19 -0.5240681713326178 1 1271.0 -0.5240681713326178 1
