/* Species # 1377         : (size= 007) (AvfFit= 0,000) (Age= 4,000)  */
/*-------------------------------------------------------------------*/
/* Organism # 000 Fitness: - 61,596 Error:  0,000                      */
genomestart  0
trait 1 0.1129910277354011 0.07897538377171971 0.0 0.05868115055720893 0.16925284617928543 0.2903162892380907 0.17307087464378162 0.19869529366607783 
node 1 1 1 1
node 2 1 1 1
node 3 1 1 1
node 4 1 1 1
node 5 1 1 1
node 6 1 1 1
node 7 1 1 1
node 8 1 1 1
node 9 1 1 1
node 10 1 1 1
node 11 1 1 1
node 12 1 1 1
node 13 1 1 1
node 14 1 1 1
node 15 1 1 1
node 16 1 1 1
node 17 1 1 1
node 18 1 1 1
node 19 1 1 1
node 20 1 1 1
node 21 1 1 1
node 22 1 1 1
node 23 1 1 1
node 24 1 1 1
node 25 1 1 1
node 26 1 1 1
node 27 1 1 1
node 28 1 1 1
node 29 1 1 1
node 30 1 1 1
node 31 1 1 1
node 32 1 1 1
node 33 1 1 1
node 34 1 1 1
node 35 1 1 1
node 36 1 1 1
node 37 1 1 1
node 38 1 1 1
node 39 1 1 1
node 40 1 1 1
node 41 1 1 1
node 42 1 1 1
node 43 1 1 1
node 44 1 1 1
node 45 1 1 1
node 46 1 1 1
node 47 1 1 1
node 48 1 1 1
node 49 1 1 1
node 50 1 1 1
node 51 1 1 1
node 52 1 1 1
node 53 1 1 1
node 54 1 1 1
node 55 1 1 1
node 56 1 1 1
node 57 1 1 1
node 58 1 1 1
node 59 1 1 1
node 60 1 1 1
node 61 1 1 1
node 62 1 1 1
node 63 1 1 1
node 64 1 1 1
node 65 1 1 1
node 66 1 1 1
node 67 1 1 1
node 68 1 1 1
node 69 1 1 1
node 70 1 1 1
node 71 1 1 1
node 72 1 1 1
node 73 1 1 1
node 74 1 1 1
node 75 1 1 1
node 76 1 1 1
node 77 1 1 1
node 78 1 1 1
node 79 1 1 1
node 80 1 1 1
node 81 1 1 1
node 82 1 1 1
node 83 1 1 1
node 84 1 1 1
node 85 1 1 1
node 86 1 1 1
node 87 1 1 1
node 88 1 1 1
node 89 1 1 1
node 90 1 1 1
node 91 1 1 1
node 92 1 1 1
node 93 1 1 1
node 94 1 1 1
node 95 1 1 1
node 96 1 1 1
node 97 1 1 1
node 98 1 1 1
node 99 1 1 1
node 100 1 1 1
node 101 1 1 1
node 102 1 1 1
node 103 1 1 1
node 104 1 1 1
node 105 1 1 1
node 106 1 1 1
node 107 1 1 1
node 108 1 1 1
node 109 1 1 1
node 110 1 1 1
node 111 1 1 1
node 112 1 1 1
node 113 1 1 1
node 114 1 1 1
node 115 1 1 1
node 116 1 1 1
node 117 1 1 1
node 118 1 1 1
node 119 1 1 1
node 120 1 1 1
node 121 1 1 1
node 122 1 1 1
node 123 1 1 1
node 124 1 1 3
node 125 1 0 0
node 126 1 0 0
node 127 1 0 0
node 128 1 0 0
node 129 1 0 0
node 130 1 0 0
node 131 1 0 0
node 132 1 0 0
node 133 1 0 0
node 134 1 0 0
node 135 1 0 0
node 136 1 0 0
node 137 1 0 0
node 138 1 0 0
node 139 1 0 0
node 140 1 0 0
node 141 1 0 0
node 142 1 0 0
node 143 1 0 0
node 144 1 0 0
node 145 1 0 0
node 146 1 0 0
node 147 1 0 0
node 148 1 0 0
node 149 1 0 0
node 150 1 0 0
node 151 1 0 0
node 152 1 0 0
node 153 1 0 0
node 154 1 0 0
node 155 1 0 0
node 165 1 0 2
node 166 1 0 2
node 167 1 0 2
node 168 1 0 2
node 169 1 0 2
node 174 1 0 0
node 178 1 0 0
node 184 1 0 0
node 196 1 0 0
node 227 1 0 0
node 230 1 0 0
node 269 1 0 0
node 278 1 0 0
node 281 1 0 0
node 287 1 0 0
node 296 1 0 0
node 308 1 0 0
node 335 1 0 0
node 352 1 0 0
node 376 1 0 0
node 382 1 0 0
node 390 1 0 0
node 404 1 0 0
node 411 1 0 0
node 418 1 0 0
node 434 1 0 0
node 460 1 0 0
node 465 1 0 0
node 474 1 0 0
gene  1 4 125 0.07236748471591338 0 20959.0 0.07236748471591338 1
gene  1 7 125 0.6500963706186881 0 20962.0 0.6500963706186881 1
gene  1 11 125 -0.019418912973162034 0 20966.0 -0.019418912973162034 1
gene  1 13 125 0.11324788589947116 0 20968.0 0.11324788589947116 1
gene  1 14 125 0.03245143161497806 0 20969.0 0.03245143161497806 1
gene  1 18 125 -0.2283602935204549 0 20973.0 -0.2283602935204549 1
gene  1 19 125 0.11143588437290566 0 20974.0 0.11143588437290566 1
gene  1 26 125 -0.10912218978329094 0 20981.0 -0.10912218978329094 1
gene  1 38 125 0.08531057338105658 0 20993.0 0.08531057338105658 1
gene  1 39 125 0.5727679848193733 0 20994.0 0.5727679848193733 1
gene  1 41 125 -0.07866577948805384 0 20996.0 -0.07866577948805384 1
gene  1 42 125 0.05968888976298388 0 20997.0 0.05968888976298388 1
gene  1 44 125 -0.034378229502569885 0 20999.0 -0.034378229502569885 1
gene  1 50 125 0.07539094031069289 0 21005.0 0.07539094031069289 1
gene  1 51 125 -0.33300710242425957 0 21006.0 -0.33300710242425957 1
gene  1 53 125 1.5380218615960572 0 21008.0 1.5380218615960572 1
gene  1 55 125 0.06251046970931654 0 21010.0 0.06251046970931654 1
gene  1 68 125 0.5085348322553228 0 21023.0 0.5085348322553228 1
gene  1 82 125 0.06419872821272923 0 21037.0 0.06419872821272923 1
gene  1 88 125 -0.03094935035896281 0 21043.0 -0.03094935035896281 1
gene  1 92 125 -0.15826927415246628 0 21047.0 -0.15826927415246628 1
gene  1 94 125 0.30194474941378163 0 21049.0 0.30194474941378163 1
gene  1 100 125 -0.024214913570467997 0 21055.0 -0.024214913570467997 1
gene  1 111 125 -0.23137866863132953 0 21066.0 -0.23137866863132953 1
gene  1 112 125 -0.2451876906812091 0 21067.0 -0.2451876906812091 1
gene  1 117 125 -0.3275096969968157 0 21072.0 -0.3275096969968157 1
gene  1 121 125 -0.024105883948130274 0 21076.0 -0.024105883948130274 1
gene  1 125 125 0.07980693011237402 1 21080.0 0.07980693011237402 1
gene  1 129 125 -0.08613847681673231 1 21084.0 -0.08613847681673231 1
gene  1 134 125 0.3747893964719021 1 21089.0 0.3747893964719021 1
gene  1 135 125 -0.2965219706947533 1 21090.0 -0.2965219706947533 1
gene  1 142 125 -0.1948795436460315 1 21097.0 -0.1948795436460315 1
gene  1 146 125 0.43246651077621384 1 21101.0 0.43246651077621384 1
gene  1 150 125 -0.5729106563648312 1 21105.0 -0.5729106563648312 1
gene  1 151 125 -0.24024927094849197 1 21106.0 -0.24024927094849197 1
gene  1 152 125 0.2869881429309544 1 21107.0 0.2869881429309544 1
gene  1 153 125 -0.12902416277355938 1 21108.0 -0.12902416277355938 1
gene  1 154 125 0.15823265448455642 1 21109.0 0.15823265448455642 1
gene  1 5 126 -0.07019251864037865 0 21129.0 -0.07019251864037865 1
gene  1 6 126 0.02595690985459448 0 21130.0 0.02595690985459448 1
gene  1 13 126 0.8158624316790328 0 21137.0 0.8158624316790328 1
gene  1 27 126 0.12587293346613684 0 21151.0 0.12587293346613684 1
gene  1 28 126 -0.0454130225684032 0 21152.0 -0.0454130225684032 1
gene  1 29 126 0.04873309119973306 0 21153.0 0.04873309119973306 1
gene  1 33 126 -0.23313901706525245 0 21157.0 -0.23313901706525245 1
gene  1 43 126 0.413420013906592 0 21167.0 0.413420013906592 1
gene  1 46 126 0.3971906789399633 0 21170.0 0.3971906789399633 1
gene  1 49 126 -0.09047350708417656 0 21173.0 -0.09047350708417656 1
gene  1 61 126 0.3380432538226502 0 21185.0 0.3380432538226502 1
gene  1 64 126 0.10767196976230788 0 21188.0 0.10767196976230788 1
gene  1 65 126 0.2592158502713197 0 21189.0 0.2592158502713197 1
gene  1 69 126 -0.035415530733388406 0 21193.0 -0.035415530733388406 1
gene  1 70 126 -0.18798407969365102 0 21194.0 -0.18798407969365102 1
gene  1 71 126 -0.09049980574694945 0 21195.0 -0.09049980574694945 1
gene  1 73 126 0.11602053180606758 0 21197.0 0.11602053180606758 1
gene  1 76 126 -0.7599695899960717 0 21200.0 -0.7599695899960717 1
gene  1 83 126 0.11790934838987582 0 21207.0 0.11790934838987582 1
gene  1 88 126 0.6859842245980368 0 21212.0 0.6859842245980368 1
gene  1 94 126 0.9249169820673515 0 21218.0 0.9249169820673515 1
gene  1 96 126 0.12441872464126692 0 21220.0 0.12441872464126692 1
gene  1 97 126 0.20159029745236723 0 21221.0 0.20159029745236723 1
gene  1 98 126 0.06479404863802785 0 21222.0 0.06479404863802785 1
gene  1 103 126 0.0946227199194049 0 21227.0 0.0946227199194049 1
gene  1 111 126 -0.016371827492692514 0 21235.0 -0.016371827492692514 1
gene  1 115 126 0.019727577359026957 0 21239.0 0.019727577359026957 1
gene  1 118 126 0.30274937393854867 0 21242.0 0.30274937393854867 1
gene  1 142 126 0.03318782619989997 1 21266.0 0.03318782619989997 1
gene  1 143 126 -0.1414369045387504 1 21267.0 -0.1414369045387504 1
gene  1 148 126 -0.39269282299926594 1 21272.0 -0.39269282299926594 1
gene  1 149 126 0.7619521888681249 1 21273.0 0.7619521888681249 1
gene  1 155 126 0.3673577669058697 1 21279.0 0.3673577669058697 1
gene  1 169 126 -0.9493347089180955 1 21293.0 -0.9493347089180955 1
gene  1 1 127 -0.3054334265821381 0 21294.0 -0.3054334265821381 1
gene  1 4 127 -0.2720253248004748 0 21297.0 -0.2720253248004748 1
gene  1 6 127 0.5715625102353739 0 21299.0 0.5715625102353739 1
gene  1 7 127 0.04932247452961698 0 21300.0 0.04932247452961698 1
gene  1 8 127 0.27030024517394646 0 21301.0 0.27030024517394646 1
gene  1 13 127 -0.24386987267178042 0 21306.0 -0.24386987267178042 1
gene  1 16 127 0.1821850381338009 0 21309.0 0.1821850381338009 1
gene  1 25 127 0.46824177476113094 0 21318.0 0.46824177476113094 1
gene  1 26 127 0.5834809233241973 0 21319.0 0.5834809233241973 1
gene  1 30 127 0.3303673404783998 0 21323.0 0.3303673404783998 1
gene  1 36 127 0.018070056710233783 0 21329.0 0.018070056710233783 1
gene  1 37 127 -0.14261142565975848 0 21330.0 -0.14261142565975848 1
gene  1 39 127 0.029845999890996077 0 21332.0 0.029845999890996077 1
gene  1 46 127 0.12675664901731576 0 21339.0 0.12675664901731576 1
gene  1 48 127 0.24066702675307827 0 21341.0 0.24066702675307827 1
gene  1 50 127 0.1832655003651431 0 21343.0 0.1832655003651431 1
gene  1 53 127 0.13218481836019774 0 21346.0 0.13218481836019774 1
gene  1 56 127 -0.2956717962340224 0 21349.0 -0.2956717962340224 1
gene  1 60 127 -0.1611087625336585 0 21353.0 -0.1611087625336585 1
gene  1 61 127 0.7531395493145455 0 21354.0 0.7531395493145455 1
gene  1 63 127 0.40739995681469093 0 21356.0 0.40739995681469093 1
gene  1 67 127 0.07970887041336462 0 21360.0 0.07970887041336462 1
gene  1 69 127 0.011163856673609134 0 21362.0 0.011163856673609134 1
gene  1 73 127 -0.1907736608033368 0 21366.0 -0.1907736608033368 1
gene  1 76 127 1.0355731552443423 0 21369.0 1.0355731552443423 1
gene  1 82 127 -1.063917619620175 0 21375.0 -1.063917619620175 1
gene  1 88 127 0.04898209611379957 0 21381.0 0.04898209611379957 1
gene  1 91 127 -0.05914288581674572 0 21384.0 -0.05914288581674572 1
gene  1 97 127 -0.09935130909610881 0 21390.0 -0.09935130909610881 1
gene  1 109 127 0.8343204006767065 0 21402.0 0.8343204006767065 1
gene  1 111 127 -0.3182570226961655 0 21404.0 -0.3182570226961655 1
gene  1 112 127 0.2090842001774239 0 21405.0 0.2090842001774239 1
gene  1 113 127 0.3642097265653208 0 21406.0 0.3642097265653208 1
gene  1 122 127 -0.0300082278103909 0 21415.0 -0.0300082278103909 1
gene  1 123 127 -0.001579726562803585 0 21416.0 -0.001579726562803585 1
gene  1 124 127 -0.12904249657538083 0 21417.0 -0.12904249657538083 1
gene  1 131 127 0.8657784970324428 1 21424.0 0.8657784970324428 1
gene  1 132 127 -0.11943715147859035 1 21425.0 -0.11943715147859035 1
gene  1 134 127 -0.2499056087412078 1 21427.0 -0.2499056087412078 1
gene  1 136 127 -0.05701816581480387 1 21429.0 -0.05701816581480387 1
gene  1 139 127 -0.8666855399645621 1 21432.0 -0.8666855399645621 1
gene  1 141 127 0.2561485807186661 1 21434.0 0.2561485807186661 1
gene  1 142 127 0.06271532201231197 1 21435.0 0.06271532201231197 1
gene  1 147 127 -0.9735546080866733 1 21440.0 -0.9735546080866733 1
gene  1 151 127 -0.04277607473717591 1 21444.0 -0.04277607473717591 1
gene  1 153 127 -0.2308166063565984 1 21446.0 -0.2308166063565984 1
gene  1 166 127 0.1308435563680552 1 21459.0 0.1308435563680552 1
gene  1 6 128 0.41404750024479164 0 21468.0 0.41404750024479164 1
gene  1 9 128 0.11241928287457094 0 21471.0 0.11241928287457094 1
gene  1 20 128 0.047832880512930706 0 21482.0 0.047832880512930706 1
gene  1 22 128 -0.0027636636344543428 0 21484.0 -0.0027636636344543428 1
gene  1 31 128 -0.25067554150118226 0 21493.0 -0.25067554150118226 1
gene  1 56 128 0.9623952556446088 0 21518.0 0.9623952556446088 1
gene  1 59 128 -0.726839075647214 0 21521.0 -0.726839075647214 1
gene  1 62 128 0.2301406649577425 0 21524.0 0.2301406649577425 1
gene  1 65 128 -0.18547153885644435 0 21527.0 -0.18547153885644435 1
gene  1 67 128 -0.08464724539181324 0 21529.0 -0.08464724539181324 1
gene  1 71 128 0.31964139695056537 0 21533.0 0.31964139695056537 1
gene  1 72 128 0.266851515917393 0 21534.0 0.266851515917393 1
gene  1 75 128 0.00935660624540216 0 21537.0 0.00935660624540216 1
gene  1 80 128 0.01865385405897521 0 21542.0 0.01865385405897521 1
gene  1 82 128 0.38313353158609886 0 21544.0 0.38313353158609886 1
gene  1 83 128 0.08141687235924083 0 21545.0 0.08141687235924083 1
gene  1 87 128 -0.04306466974776092 0 21549.0 -0.04306466974776092 1
gene  1 94 128 -0.09479061408494388 0 21556.0 -0.09479061408494388 1
gene  1 97 128 -0.23372652271034053 0 21559.0 -0.23372652271034053 1
gene  1 104 128 0.05305578892571978 0 21566.0 0.05305578892571978 1
gene  1 108 128 -0.13862694101203796 0 21570.0 -0.13862694101203796 1
gene  1 110 128 -0.16278116839283074 0 21572.0 -0.16278116839283074 1
gene  1 132 128 0.12708773741060997 1 21594.0 0.12708773741060997 1
gene  1 142 128 -0.0449005776591197 1 21604.0 -0.0449005776591197 1
gene  1 144 128 0.13942732986407885 1 21606.0 0.13942732986407885 1
gene  1 145 128 0.36241338014652164 1 21607.0 0.36241338014652164 1
gene  1 146 128 -0.7505719444766812 1 21608.0 -0.7505719444766812 1
gene  1 150 128 0.2250869548880339 1 21612.0 0.2250869548880339 1
gene  1 151 128 -0.14859557334833043 1 21613.0 -0.14859557334833043 1
gene  1 153 128 -0.35446209457002237 1 21615.0 -0.35446209457002237 1
gene  1 155 128 0.11971172408904367 1 21617.0 0.11971172408904367 1
gene  1 168 128 0.012306976614086744 1 21630.0 0.012306976614086744 1
gene  1 1 129 0.008655276270724235 0 21632.0 0.008655276270724235 1
gene  1 2 129 -0.8203739849391352 0 21633.0 -0.8203739849391352 1
gene  1 3 129 0.09912981429517688 0 21634.0 0.09912981429517688 1
gene  1 4 129 -0.19316183671178347 0 21635.0 -0.19316183671178347 1
gene  1 10 129 -0.2384305167305931 0 21641.0 -0.2384305167305931 1
gene  1 12 129 -0.22879626420812013 0 21643.0 -0.22879626420812013 1
gene  1 14 129 -0.04825147718341703 0 21645.0 -0.04825147718341703 1
gene  1 22 129 0.06676351963110812 0 21653.0 0.06676351963110812 1
gene  1 24 129 0.400494528647484 0 21655.0 0.400494528647484 1
gene  1 26 129 0.26973502940439026 0 21657.0 0.26973502940439026 1
gene  1 27 129 -0.8045132743110138 0 21658.0 -0.8045132743110138 1
gene  1 29 129 0.0941412283204457 0 21660.0 0.0941412283204457 1
gene  1 31 129 0.1746132544706157 0 21662.0 0.1746132544706157 1
gene  1 32 129 -0.31582679266588387 0 21663.0 -0.31582679266588387 1
gene  1 40 129 -0.003911566664635921 0 21671.0 -0.003911566664635921 1
gene  1 42 129 -0.20437725434384763 0 21673.0 -0.20437725434384763 1
gene  1 43 129 0.7233212091514318 0 21674.0 0.7233212091514318 1
gene  1 46 129 0.1662523566495258 0 21677.0 0.1662523566495258 1
gene  1 48 129 -0.323717398293025 0 21679.0 -0.323717398293025 1
gene  1 49 129 1.1729968962371438 0 21680.0 1.1729968962371438 1
gene  1 51 129 -0.14784408184519787 0 21682.0 -0.14784408184519787 1
gene  1 52 129 -0.20413463900254802 0 21683.0 -0.20413463900254802 1
gene  1 53 129 -1.1164135162483897 0 21684.0 -1.1164135162483897 1
gene  1 55 129 0.8178294220674014 0 21686.0 0.8178294220674014 1
gene  1 62 129 0.27229767600834104 0 21693.0 0.27229767600834104 1
gene  1 65 129 0.05026981512183911 0 21696.0 0.05026981512183911 1
gene  1 68 129 -0.120574766014821 0 21699.0 -0.120574766014821 1
gene  1 72 129 0.5852586863898036 0 21703.0 0.5852586863898036 1
gene  1 84 129 0.5046403499042881 0 21715.0 0.5046403499042881 1
gene  1 85 129 -0.5355787119869814 0 21716.0 -0.5355787119869814 1
gene  1 87 129 0.022041417652792952 0 21718.0 0.022041417652792952 1
gene  1 89 129 -0.42639477360656675 0 21720.0 -0.42639477360656675 1
gene  1 92 129 0.12104170925802968 0 21723.0 0.12104170925802968 1
gene  1 97 129 -0.11510545993659642 0 21728.0 -0.11510545993659642 1
gene  1 101 129 0.05795864191347323 0 21732.0 0.05795864191347323 1
gene  1 102 129 -0.19964922479799516 0 21733.0 -0.19964922479799516 1
gene  1 110 129 -0.05749499264043529 0 21741.0 -0.05749499264043529 1
gene  1 114 129 0.40102125137040584 0 21745.0 0.40102125137040584 1
gene  1 118 129 -0.3092954044650053 0 21749.0 -0.3092954044650053 1
gene  1 120 129 -0.9522747627891139 0 21751.0 -0.9522747627891139 1
gene  1 128 129 0.11379648623991961 0 21759.0 0.11379648623991961 1
gene  1 132 129 -0.015294166673983228 1 21763.0 -0.015294166673983228 1
gene  1 134 129 -0.06532765351812349 1 21765.0 -0.06532765351812349 1
gene  1 136 129 -0.027223631681994695 1 21767.0 -0.027223631681994695 1
gene  1 139 129 0.2626106333285042 1 21770.0 0.2626106333285042 1
gene  1 140 129 -0.2515047341087376 1 21771.0 -0.2515047341087376 1
gene  1 149 129 -0.15768329384244859 1 21780.0 -0.15768329384244859 1
gene  1 150 129 -0.016712988933694148 1 21781.0 -0.016712988933694148 1
gene  1 167 129 -0.16578249850201823 1 21798.0 -0.16578249850201823 1
gene  1 4 130 -0.2612752417237092 0 21804.0 -0.2612752417237092 1
gene  1 5 130 0.14543257007025118 0 21805.0 0.14543257007025118 1
gene  1 12 130 -0.15549583953590174 0 21812.0 -0.15549583953590174 1
gene  1 14 130 0.05319746408168011 0 21814.0 0.05319746408168011 1
gene  1 16 130 -0.18240735090600108 0 21816.0 -0.18240735090600108 1
gene  1 17 130 0.07302534506100293 0 21817.0 0.07302534506100293 1
gene  1 21 130 0.17268016220870655 0 21821.0 0.17268016220870655 1
gene  1 24 130 0.11696901604015525 0 21824.0 0.11696901604015525 1
gene  1 29 130 0.0034523121840220466 0 21829.0 0.0034523121840220466 1
gene  1 31 130 0.3421440484335564 0 21831.0 0.3421440484335564 1
gene  1 38 130 0.1328294296714984 0 21838.0 0.1328294296714984 1
gene  1 45 130 0.40319941211862864 0 21845.0 0.40319941211862864 1
gene  1 46 130 0.21591245593626585 0 21846.0 0.21591245593626585 1
gene  1 48 130 0.1719255028893041 0 21848.0 0.1719255028893041 1
gene  1 54 130 -0.11103665393120093 0 21854.0 -0.11103665393120093 1
gene  1 80 130 0.1952298538598985 0 21880.0 0.1952298538598985 1
gene  1 82 130 0.34081855050650806 0 21882.0 0.34081855050650806 1
gene  1 83 130 0.1765872972777893 0 21883.0 0.1765872972777893 1
gene  1 86 130 0.9069358841131007 0 21886.0 0.9069358841131007 1
gene  1 94 130 0.17045132448325478 0 21894.0 0.17045132448325478 1
gene  1 98 130 -0.5587411099066415 0 21898.0 -0.5587411099066415 1
gene  1 100 130 0.29557155134992635 0 21900.0 0.29557155134992635 1
gene  1 101 130 0.05978973868763756 0 21901.0 0.05978973868763756 1
gene  1 102 130 -0.5490551505301285 0 21902.0 -0.5490551505301285 1
gene  1 109 130 -0.32846132575408066 0 21909.0 -0.32846132575408066 1
gene  1 111 130 0.13081948944347108 0 21911.0 0.13081948944347108 1
gene  1 115 130 -0.11177610631261903 0 21915.0 -0.11177610631261903 1
gene  1 124 130 -0.01101706637368885 0 21924.0 -0.01101706637368885 1
gene  1 125 130 -0.21614946879690317 0 21925.0 -0.21614946879690317 1
gene  1 134 130 0.43185670244845364 1 21934.0 0.43185670244845364 1
gene  1 137 130 0.45509118876771004 1 21937.0 0.45509118876771004 1
gene  1 142 130 0.17632923411280255 1 21942.0 0.17632923411280255 1
gene  1 146 130 -0.3321262497798281 1 21946.0 -0.3321262497798281 1
gene  1 152 130 -0.4094500120114225 1 21952.0 -0.4094500120114225 1
gene  1 5 131 -0.21001166178872913 0 21974.0 -0.21001166178872913 1
gene  1 6 131 -0.15260116976887134 0 21975.0 -0.15260116976887134 1
gene  1 7 131 -0.007246985166481493 0 21976.0 -0.007246985166481493 1
gene  1 9 131 0.04665705726537603 0 21978.0 0.04665705726537603 1
gene  1 11 131 0.0748491295586803 0 21980.0 0.0748491295586803 1
gene  1 19 131 0.09693652163278248 0 21988.0 0.09693652163278248 1
gene  1 23 131 -0.16175333209702525 0 21992.0 -0.16175333209702525 1
gene  1 25 131 0.05423401871425691 0 21994.0 0.05423401871425691 1
gene  1 26 131 -0.28774873416621066 0 21995.0 -0.28774873416621066 1
gene  1 37 131 -0.05345671906533474 0 22006.0 -0.05345671906533474 1
gene  1 38 131 0.5474078667520569 0 22007.0 0.5474078667520569 1
gene  1 40 131 -0.06554398944367727 0 22009.0 -0.06554398944367727 1
gene  1 45 131 -0.4722144729403428 0 22014.0 -0.4722144729403428 1
gene  1 46 131 0.021930954295201227 0 22015.0 0.021930954295201227 1
gene  1 50 131 0.0824007502245591 0 22019.0 0.0824007502245591 1
gene  1 55 131 -0.03545921797239987 0 22024.0 -0.03545921797239987 1
gene  1 58 131 -0.13139249905867456 0 22027.0 -0.13139249905867456 1
gene  1 60 131 -0.13441699584216438 0 22029.0 -0.13441699584216438 1
gene  1 63 131 -0.11786397233117002 0 22032.0 -0.11786397233117002 1
gene  1 69 131 -1.0101010752064048 0 22038.0 -1.0101010752064048 1
gene  1 71 131 -0.10962888175464713 0 22040.0 -0.10962888175464713 1
gene  1 72 131 0.4565317739138436 0 22041.0 0.4565317739138436 1
gene  1 89 131 -0.5225564649572354 0 22058.0 -0.5225564649572354 1
gene  1 91 131 0.19240339352512686 0 22060.0 0.19240339352512686 1
gene  1 95 131 0.1592067613880105 0 22064.0 0.1592067613880105 1
gene  1 97 131 0.187263007197207 0 22066.0 0.187263007197207 1
gene  1 100 131 -0.9134211249373305 0 22069.0 -0.9134211249373305 1
gene  1 107 131 0.1589892865397634 0 22076.0 0.1589892865397634 1
gene  1 115 131 -0.1093266600872175 0 22084.0 -0.1093266600872175 1
gene  1 122 131 -0.03180368814399023 0 22091.0 -0.03180368814399023 1
gene  1 128 131 -0.37019134578658996 0 22097.0 -0.37019134578658996 1
gene  1 136 131 -0.05115330184066939 1 22105.0 -0.05115330184066939 1
gene  1 137 131 -0.07832084025784805 1 22106.0 -0.07832084025784805 1
gene  1 138 131 0.44614096558298155 1 22107.0 0.44614096558298155 1
gene  1 139 131 0.4093042670872684 1 22108.0 0.4093042670872684 1
gene  1 140 131 -0.11756543087795507 1 22109.0 -0.11756543087795507 1
gene  1 146 131 0.33599672971961436 1 22115.0 0.33599672971961436 1
gene  1 148 131 -0.4667486869051511 1 22117.0 -0.4667486869051511 1
gene  1 150 131 0.10903363891880301 1 22119.0 0.10903363891880301 1
gene  1 168 131 -0.035512347802828075 1 22137.0 -0.035512347802828075 1
gene  1 2 132 -0.029866029536093963 0 22140.0 -0.029866029536093963 1
gene  1 3 132 0.01584692462565776 0 22141.0 0.01584692462565776 1
gene  1 6 132 0.09189145942128094 0 22144.0 0.09189145942128094 1
gene  1 9 132 0.3855033425556459 0 22147.0 0.3855033425556459 1
gene  1 12 132 0.16591595328011197 0 22150.0 0.16591595328011197 1
gene  1 24 132 -0.16803328883195193 0 22162.0 -0.16803328883195193 1
gene  1 29 132 0.11035951031075068 0 22167.0 0.11035951031075068 1
gene  1 30 132 -0.19757938416556547 0 22168.0 -0.19757938416556547 1
gene  1 32 132 0.8396178196042833 0 22170.0 0.8396178196042833 1
gene  1 39 132 -0.08275231965633241 0 22177.0 -0.08275231965633241 1
gene  1 49 132 -0.022041108676145393 0 22187.0 -0.022041108676145393 1
gene  1 57 132 0.10711588164179958 0 22195.0 0.10711588164179958 1
gene  1 58 132 -1.155174067071872 0 22196.0 -1.155174067071872 1
gene  1 65 132 0.09520494835579395 0 22203.0 0.09520494835579395 1
gene  1 72 132 -0.14639054690870226 0 22210.0 -0.14639054690870226 1
gene  1 77 132 -0.28501418700157655 0 22215.0 -0.28501418700157655 1
gene  1 88 132 0.01100967331210656 0 22226.0 0.01100967331210656 1
gene  1 92 132 0.0990169204959109 0 22230.0 0.0990169204959109 1
gene  1 94 132 -0.014704961619945084 0 22232.0 -0.014704961619945084 1
gene  1 97 132 -0.037544194615722434 0 22235.0 -0.037544194615722434 1
gene  1 98 132 -0.5125591225637147 0 22236.0 -0.5125591225637147 1
gene  1 99 132 -0.19514116170938722 0 22237.0 -0.19514116170938722 1
gene  1 103 132 0.058507070716722495 0 22241.0 0.058507070716722495 1
gene  1 105 132 -0.15345038145825984 0 22243.0 -0.15345038145825984 1
gene  1 108 132 0.18439804968374862 0 22246.0 0.18439804968374862 1
gene  1 110 132 0.04346507757108405 0 22248.0 0.04346507757108405 1
gene  1 113 132 0.08974841311759606 0 22251.0 0.08974841311759606 1
gene  1 114 132 0.3690775806923235 0 22252.0 0.3690775806923235 1
gene  1 116 132 -1.2154723207850127 0 22254.0 -1.2154723207850127 1
gene  1 128 132 0.13903576822619806 0 22266.0 0.13903576822619806 1
gene  1 129 132 -0.35973082098760795 0 22267.0 -0.35973082098760795 1
gene  1 139 132 0.423318487321212 1 22277.0 0.423318487321212 1
gene  1 142 132 -0.2598590070703435 1 22280.0 -0.2598590070703435 1
gene  1 144 132 0.09681049150206486 1 22282.0 0.09681049150206486 1
gene  1 147 132 0.05779171878687184 1 22285.0 0.05779171878687184 1
gene  1 152 132 0.05294508861343371 1 22290.0 0.05294508861343371 1
gene  1 153 132 0.2936814718937933 1 22291.0 0.2936814718937933 1
gene  1 166 132 -0.5251945810603116 1 22304.0 -0.5251945810603116 1
gene  1 169 132 -0.38410174012393583 1 22307.0 -0.38410174012393583 1
gene  1 2 133 0.16081256597972962 0 22309.0 0.16081256597972962 1
gene  1 4 133 0.7479302009387884 0 22311.0 0.7479302009387884 1
gene  1 9 133 -0.8205550782875777 0 22316.0 -0.8205550782875777 1
gene  1 10 133 -0.16546795134367204 0 22317.0 -0.16546795134367204 1
gene  1 12 133 0.40793306420141945 0 22319.0 0.40793306420141945 1
gene  1 18 133 -0.17416844770593742 0 22325.0 -0.17416844770593742 1
gene  1 24 133 -0.2746152891259494 0 22331.0 -0.2746152891259494 1
gene  1 25 133 0.20824497462921113 0 22332.0 0.20824497462921113 1
gene  1 26 133 0.8117663276207744 0 22333.0 0.8117663276207744 1
gene  1 29 133 0.10382866594797344 0 22336.0 0.10382866594797344 1
gene  1 32 133 0.1316931863524131 0 22339.0 0.1316931863524131 1
gene  1 37 133 -0.12067696426953707 0 22344.0 -0.12067696426953707 1
gene  1 39 133 -0.3956565641358485 0 22346.0 -0.3956565641358485 1
gene  1 43 133 -0.2622121862232466 0 22350.0 -0.2622121862232466 1
gene  1 47 133 -0.010246190185470724 0 22354.0 -0.010246190185470724 1
gene  1 49 133 0.23861568963575752 0 22356.0 0.23861568963575752 1
gene  1 58 133 -0.24529458577128566 0 22365.0 -0.24529458577128566 1
gene  1 59 133 -0.14657285638298684 0 22366.0 -0.14657285638298684 1
gene  1 60 133 0.604170035416893 0 22367.0 0.604170035416893 1
gene  1 67 133 0.35277645261656243 0 22374.0 0.35277645261656243 1
gene  1 72 133 0.08813396599975527 0 22379.0 0.08813396599975527 1
gene  1 74 133 0.14865773042585362 0 22381.0 0.14865773042585362 1
gene  1 81 133 -0.1794803165601423 0 22388.0 -0.1794803165601423 1
gene  1 84 133 0.06690562874900663 0 22391.0 0.06690562874900663 1
gene  1 93 133 -0.25171568242690184 0 22400.0 -0.25171568242690184 1
gene  1 100 133 -0.4681486534504969 0 22407.0 -0.4681486534504969 1
gene  1 105 133 -0.21848580424837438 0 22412.0 -0.21848580424837438 1
gene  1 106 133 -0.09703597728771088 0 22413.0 -0.09703597728771088 1
gene  1 107 133 -0.2943550897940343 0 22414.0 -0.2943550897940343 1
gene  1 113 133 0.4997118770701531 0 22420.0 0.4997118770701531 1
gene  1 119 133 0.07888580537859621 0 22426.0 0.07888580537859621 1
gene  1 120 133 0.20307170880907222 0 22427.0 0.20307170880907222 1
gene  1 128 133 0.24518340935636795 0 22435.0 0.24518340935636795 1
gene  1 129 133 0.050677390376529595 0 22436.0 0.050677390376529595 1
gene  1 133 133 0.052785157010172404 1 22440.0 0.052785157010172404 1
gene  1 137 133 -0.038537601072366715 1 22444.0 -0.038537601072366715 1
gene  1 143 133 -0.48094890374148536 1 22450.0 -0.48094890374148536 1
gene  1 147 133 0.23115680182202586 1 22454.0 0.23115680182202586 1
gene  1 166 133 0.2789840598561802 1 22473.0 0.2789840598561802 1
gene  1 167 133 0.6478924425240151 1 22474.0 0.6478924425240151 1
gene  1 3 134 0.04546180747864692 0 22479.0 0.04546180747864692 1
gene  1 20 134 1.307535059781258 0 22496.0 1.307535059781258 1
gene  1 21 134 -0.3086741746362056 0 22497.0 -0.3086741746362056 1
gene  1 26 134 0.37002297972733406 0 22502.0 0.37002297972733406 1
gene  1 30 134 0.1632966332187798 0 22506.0 0.1632966332187798 1
gene  1 43 134 -0.14872651616511334 0 22519.0 -0.14872651616511334 1
gene  1 44 134 0.4698190166658446 0 22520.0 0.4698190166658446 1
gene  1 46 134 -0.32699790585927385 0 22522.0 -0.32699790585927385 1
gene  1 47 134 0.07573574925529108 0 22523.0 0.07573574925529108 1
gene  1 54 134 0.0967124095711176 0 22530.0 0.0967124095711176 1
gene  1 55 134 -0.11367235484036556 0 22531.0 -0.11367235484036556 1
gene  1 57 134 0.24474245361848695 0 22533.0 0.24474245361848695 1
gene  1 62 134 0.22346642018872354 0 22538.0 0.22346642018872354 1
gene  1 68 134 -0.1246314020497923 0 22544.0 -0.1246314020497923 1
gene  1 70 134 0.49498270554370477 0 22546.0 0.49498270554370477 1
gene  1 74 134 0.34555662541928633 0 22550.0 0.34555662541928633 1
gene  1 77 134 0.17918055014606715 0 22553.0 0.17918055014606715 1
gene  1 89 134 -0.08246925204004775 0 22565.0 -0.08246925204004775 1
gene  1 94 134 -0.2610514401025371 0 22570.0 -0.2610514401025371 1
gene  1 95 134 0.029336586053804535 0 22571.0 0.029336586053804535 1
gene  1 100 134 -1.0725652263680614 0 22576.0 -1.0725652263680614 1
gene  1 102 134 -0.13260138659928838 0 22578.0 -0.13260138659928838 1
gene  1 114 134 -0.5694770890917513 0 22590.0 -0.5694770890917513 1
gene  1 118 134 0.03551820649109569 0 22594.0 0.03551820649109569 1
gene  1 120 134 0.10599187798402213 0 22596.0 0.10599187798402213 1
gene  1 122 134 -0.25545101285540095 0 22598.0 -0.25545101285540095 1
gene  1 130 134 1.1252889995410829 0 22606.0 1.1252889995410829 1
gene  1 132 134 -0.12159195490423508 0 22608.0 -0.12159195490423508 1
gene  1 135 134 -0.1452744419692264 1 22611.0 -0.1452744419692264 1
gene  1 136 134 0.2812034255143005 1 22612.0 0.2812034255143005 1
gene  1 138 134 0.0678759645300459 1 22614.0 0.0678759645300459 1
gene  1 144 134 0.7257918043116875 1 22620.0 0.7257918043116875 1
gene  1 149 134 -0.24028219297315398 1 22625.0 -0.24028219297315398 1
gene  1 150 134 0.07151055438086694 1 22626.0 0.07151055438086694 1
gene  1 154 134 -0.16926172900842623 1 22630.0 -0.16926172900842623 1
gene  1 6 135 0.5932072744072457 0 22651.0 0.5932072744072457 1
gene  1 8 135 -0.019455178040227714 0 22653.0 -0.019455178040227714 1
gene  1 16 135 -0.6307597736737661 0 22661.0 -0.6307597736737661 1
gene  1 18 135 -0.039936148670236093 0 22663.0 -0.039936148670236093 1
gene  1 25 135 0.0028358603032679897 0 22670.0 0.0028358603032679897 1
gene  1 27 135 -0.6922095371578024 0 22672.0 -0.6922095371578024 1
gene  1 30 135 -0.13773192912071802 0 22675.0 -0.13773192912071802 1
gene  1 31 135 0.05891654674055178 0 22676.0 0.05891654674055178 1
gene  1 33 135 -0.259284927681238 0 22678.0 -0.259284927681238 1
gene  1 41 135 0.9381851539439295 0 22686.0 0.9381851539439295 1
gene  1 44 135 0.250086157707813 0 22689.0 0.250086157707813 1
gene  1 47 135 -0.050610600552664434 0 22692.0 -0.050610600552664434 1
gene  1 51 135 0.04214642891137918 0 22696.0 0.04214642891137918 1
gene  1 59 135 -0.5903948881509222 0 22704.0 -0.5903948881509222 1
gene  1 61 135 -0.14844593262981998 0 22706.0 -0.14844593262981998 1
gene  1 68 135 0.16577346706066298 0 22713.0 0.16577346706066298 1
gene  1 81 135 -0.015424832786549568 0 22726.0 -0.015424832786549568 1
gene  1 83 135 0.16615373702481667 0 22728.0 0.16615373702481667 1
gene  1 84 135 0.1248242825480832 0 22729.0 0.1248242825480832 1
gene  1 96 135 0.010151551451233046 0 22741.0 0.010151551451233046 1
gene  1 97 135 -0.10344163545222752 0 22742.0 -0.10344163545222752 1
gene  1 98 135 0.13954076801069343 0 22743.0 0.13954076801069343 1
gene  1 104 135 -0.5050598832849773 0 22749.0 -0.5050598832849773 1
gene  1 107 135 -0.2608065390842897 0 22752.0 -0.2608065390842897 1
gene  1 108 135 0.06773955079924956 0 22753.0 0.06773955079924956 1
gene  1 119 135 -0.1250355255417878 0 22764.0 -0.1250355255417878 1
gene  1 122 135 -0.3385020486330178 0 22767.0 -0.3385020486330178 1
gene  1 128 135 -0.0919549801681883 0 22773.0 -0.0919549801681883 1
gene  1 130 135 -0.30225449366565316 0 22775.0 -0.30225449366565316 1
gene  1 135 135 0.15038641849615822 1 22780.0 0.15038641849615822 1
gene  1 142 135 0.11437996861000728 1 22787.0 0.11437996861000728 1
gene  1 143 135 -0.1912324677925244 1 22788.0 -0.1912324677925244 1
gene  1 145 135 0.12071478844545822 1 22790.0 0.12071478844545822 1
gene  1 147 135 0.23100116993200925 1 22792.0 0.23100116993200925 1
gene  1 150 135 -0.7190963758359312 1 22795.0 -0.7190963758359312 1
gene  1 166 135 0.30305503588793975 1 22811.0 0.30305503588793975 1
gene  1 168 135 0.09107075166128215 1 22813.0 0.09107075166128215 1
gene  1 9 136 0.08553546860285638 0 22823.0 0.08553546860285638 1
gene  1 13 136 -0.06943848615906535 0 22827.0 -0.06943848615906535 1
gene  1 15 136 -0.08435426506215901 0 22829.0 -0.08435426506215901 1
gene  1 18 136 -0.050628110908474896 0 22832.0 -0.050628110908474896 1
gene  1 26 136 -0.06651703478679949 0 22840.0 -0.06651703478679949 1
gene  1 29 136 -0.009289374364627942 0 22843.0 -0.009289374364627942 1
gene  1 34 136 -0.38963198428646995 0 22848.0 -0.38963198428646995 1
gene  1 41 136 0.9758946605805834 0 22855.0 0.9758946605805834 1
gene  1 50 136 0.187254839216004 0 22864.0 0.187254839216004 1
gene  1 55 136 -0.5484446971563198 0 22869.0 -0.5484446971563198 1
gene  1 58 136 0.4589068741627751 0 22872.0 0.4589068741627751 1
gene  1 59 136 0.17493178286605168 0 22873.0 0.17493178286605168 1
gene  1 60 136 0.6092709883434515 0 22874.0 0.6092709883434515 1
gene  1 61 136 -0.41306949300811985 0 22875.0 -0.41306949300811985 1
gene  1 63 136 0.20029500211968676 0 22877.0 0.20029500211968676 1
gene  1 65 136 -0.010195828572378302 0 22879.0 -0.010195828572378302 1
gene  1 69 136 -0.12336549605238821 0 22883.0 -0.12336549605238821 1
gene  1 74 136 0.15926899518073623 0 22888.0 0.15926899518073623 1
gene  1 76 136 0.16716612482433574 0 22890.0 0.16716612482433574 1
gene  1 78 136 0.22112919008242599 0 22892.0 0.22112919008242599 1
gene  1 80 136 -0.42576881723955284 0 22894.0 -0.42576881723955284 1
gene  1 81 136 -0.6960946257925994 0 22895.0 -0.6960946257925994 1
gene  1 90 136 0.15553422309445702 0 22904.0 0.15553422309445702 1
gene  1 92 136 0.10518945324504375 0 22906.0 0.10518945324504375 1
gene  1 95 136 0.27907770490018213 0 22909.0 0.27907770490018213 1
gene  1 97 136 0.11621959055003211 0 22911.0 0.11621959055003211 1
gene  1 100 136 -0.11398072763919714 0 22914.0 -0.11398072763919714 1
gene  1 103 136 0.2565580359490911 0 22917.0 0.2565580359490911 1
gene  1 107 136 -0.4591670540867131 0 22921.0 -0.4591670540867131 1
gene  1 112 136 0.14446163297787232 0 22926.0 0.14446163297787232 1
gene  1 114 136 -1.4366015762463813 0 22928.0 -1.4366015762463813 1
gene  1 121 136 0.049416057847037245 0 22935.0 0.049416057847037245 1
gene  1 126 136 -0.02559771016213902 0 22940.0 -0.02559771016213902 1
gene  1 132 136 0.20886180400551568 0 22946.0 0.20886180400551568 1
gene  1 136 136 -0.03957642529190478 1 22950.0 -0.03957642529190478 1
gene  1 147 136 0.06848781082816705 1 22961.0 0.06848781082816705 1
gene  1 149 136 -0.4312641032687426 1 22963.0 -0.4312641032687426 1
gene  1 150 136 0.16196396670126348 1 22964.0 0.16196396670126348 1
gene  1 151 136 -0.08574894721495631 1 22965.0 -0.08574894721495631 1
gene  1 166 136 -0.0386259291383078 1 22980.0 -0.0386259291383078 1
gene  1 3 137 -0.07008421639622481 0 22986.0 -0.07008421639622481 1
gene  1 9 137 0.15400955493101914 0 22992.0 0.15400955493101914 1
gene  1 11 137 0.2718241102373765 0 22994.0 0.2718241102373765 1
gene  1 13 137 0.0836749198212552 0 22996.0 0.0836749198212552 1
gene  1 14 137 0.1599353760146411 0 22997.0 0.1599353760146411 1
gene  1 22 137 -1.0186095667328743 0 23005.0 -1.0186095667328743 1
gene  1 23 137 0.07315437761922107 0 23006.0 0.07315437761922107 1
gene  1 24 137 -0.08411133666041616 0 23007.0 -0.08411133666041616 1
gene  1 28 137 0.038777401880547145 0 23011.0 0.038777401880547145 1
gene  1 37 137 -0.43295790025279995 0 23020.0 -0.43295790025279995 1
gene  1 38 137 0.17806966066526783 0 23021.0 0.17806966066526783 1
gene  1 42 137 0.02858252936032417 0 23025.0 0.02858252936032417 1
gene  1 44 137 0.43970059553240703 0 23027.0 0.43970059553240703 1
gene  1 45 137 -1.450384739785002 0 23028.0 -1.450384739785002 1
gene  1 50 137 0.01477204057849258 0 23033.0 0.01477204057849258 1
gene  1 55 137 0.21064179730523633 0 23038.0 0.21064179730523633 1
gene  1 61 137 -0.17869007799200037 0 23044.0 -0.17869007799200037 1
gene  1 62 137 -0.689442407222197 0 23045.0 -0.689442407222197 1
gene  1 64 137 0.43880584362994435 0 23047.0 0.43880584362994435 1
gene  1 71 137 0.08412788750032366 0 23054.0 0.08412788750032366 1
gene  1 72 137 0.15355631366263875 0 23055.0 0.15355631366263875 1
gene  1 77 137 -0.1865167363070661 0 23060.0 -0.1865167363070661 1
gene  1 79 137 0.06294292415529867 0 23062.0 0.06294292415529867 1
gene  1 82 137 0.010473495374612896 0 23065.0 0.010473495374612896 1
gene  1 83 137 0.9394367551476669 0 23066.0 0.9394367551476669 1
gene  1 87 137 -0.0658062745871251 0 23070.0 -0.0658062745871251 1
gene  1 93 137 0.9858900068874267 0 23076.0 0.9858900068874267 1
gene  1 96 137 0.19831913583259053 0 23079.0 0.19831913583259053 1
gene  1 99 137 0.3645598995587498 0 23082.0 0.3645598995587498 1
gene  1 114 137 -0.07578649347753535 0 23097.0 -0.07578649347753535 1
gene  1 120 137 -0.19788338566707225 0 23103.0 -0.19788338566707225 1
gene  1 122 137 0.11365187079031047 0 23105.0 0.11365187079031047 1
gene  1 133 137 -0.12201801976870044 0 23116.0 -0.12201801976870044 1
gene  1 140 137 -0.014460387928425807 1 23123.0 -0.014460387928425807 1
gene  1 143 137 -0.14849558429917825 1 23126.0 -0.14849558429917825 1
gene  1 147 137 0.15953861789560703 1 23130.0 0.15953861789560703 1
gene  1 149 137 0.06832960908399414 1 23132.0 0.06832960908399414 0
gene  1 155 137 -0.0038465609036922588 1 23138.0 -0.0038465609036922588 1
gene  1 166 137 -0.16361157254282363 1 23149.0 -0.16361157254282363 1
gene  1 169 137 -0.69444546888589 1 23152.0 -0.69444546888589 1
gene  1 5 138 -0.003333827051269417 0 23157.0 -0.003333827051269417 1
gene  1 6 138 0.2558546545818042 0 23158.0 0.2558546545818042 1
gene  1 7 138 -0.16301005477330033 0 23159.0 -0.16301005477330033 1
gene  1 8 138 -0.10634178808431824 0 23160.0 -0.10634178808431824 1
gene  1 10 138 -0.5415497025652085 0 23162.0 -0.5415497025652085 1
gene  1 13 138 -0.029594831076050536 0 23165.0 -0.029594831076050536 1
gene  1 15 138 -0.016752790364342768 0 23167.0 -0.016752790364342768 1
gene  1 16 138 0.7568425236563385 0 23168.0 0.7568425236563385 1
gene  1 18 138 -0.017186300471083958 0 23170.0 -0.017186300471083958 1
gene  1 23 138 0.05740428677984467 0 23175.0 0.05740428677984467 1
gene  1 24 138 -0.0660114504738057 0 23176.0 -0.0660114504738057 1
gene  1 25 138 0.44146738054953666 0 23177.0 0.44146738054953666 1
gene  1 30 138 0.0069241851017223695 0 23182.0 0.0069241851017223695 1
gene  1 34 138 0.056600849979620504 0 23186.0 0.056600849979620504 1
gene  1 35 138 0.08389746055832 0 23187.0 0.08389746055832 1
gene  1 41 138 0.24602045917660068 0 23193.0 0.24602045917660068 1
gene  1 45 138 -0.0865646032796148 0 23197.0 -0.0865646032796148 1
gene  1 48 138 0.059759019003221614 0 23200.0 0.059759019003221614 1
gene  1 54 138 -0.14153850860986195 0 23206.0 -0.14153850860986195 1
gene  1 55 138 0.5656449202903129 0 23207.0 0.5656449202903129 1
gene  1 57 138 0.11990221741484672 0 23209.0 0.11990221741484672 1
gene  1 59 138 0.14298616510557327 0 23211.0 0.14298616510557327 1
gene  1 61 138 0.15181832838373793 0 23213.0 0.15181832838373793 1
gene  1 63 138 0.04803010205286845 0 23215.0 0.04803010205286845 1
gene  1 73 138 0.09951804888701099 0 23225.0 0.09951804888701099 1
gene  1 80 138 0.24107885397301665 0 23232.0 0.24107885397301665 1
gene  1 86 138 0.1534007654129811 0 23238.0 0.1534007654129811 1
gene  1 92 138 0.45511608155453287 0 23244.0 0.45511608155453287 1
gene  1 103 138 -0.009408341309558768 0 23255.0 -0.009408341309558768 1
gene  1 105 138 0.12169350297556666 0 23257.0 0.12169350297556666 1
gene  1 108 138 0.3207230092411775 0 23260.0 0.3207230092411775 1
gene  1 127 138 0.08679089629960476 0 23279.0 0.08679089629960476 1
gene  1 134 138 0.17220839565089358 0 23286.0 0.17220839565089358 1
gene  1 138 138 1.2076871045903625 1 23290.0 1.2076871045903625 1
gene  1 139 138 0.07739221011796962 1 23291.0 0.07739221011796962 1
gene  1 142 138 0.01835735502150946 1 23294.0 0.01835735502150946 1
gene  1 144 138 0.22442514137343417 1 23296.0 0.22442514137343417 1
gene  1 152 138 0.49572476029675694 1 23304.0 0.49572476029675694 1
gene  1 155 138 0.5518871294455862 1 23307.0 0.5518871294455862 1
gene  1 169 138 0.012526828819044017 1 23321.0 0.012526828819044017 1
gene  1 1 139 0.24464657624706898 0 23322.0 0.24464657624706898 1
gene  1 4 139 0.11618081365223919 0 23325.0 0.11618081365223919 1
gene  1 8 139 -0.23360613326472254 0 23329.0 -0.23360613326472254 1
gene  1 10 139 0.21368201734080008 0 23331.0 0.21368201734080008 1
gene  1 11 139 -0.7631607257347907 0 23332.0 -0.7631607257347907 1
gene  1 14 139 -0.09324900227515451 0 23335.0 -0.09324900227515451 1
gene  1 17 139 -0.01350178681916371 0 23338.0 -0.01350178681916371 1
gene  1 26 139 0.6854621237845729 0 23347.0 0.6854621237845729 1
gene  1 39 139 -0.030069175739473968 0 23360.0 -0.030069175739473968 1
gene  1 40 139 0.13469812401571157 0 23361.0 0.13469812401571157 1
gene  1 44 139 0.015137455553373244 0 23365.0 0.015137455553373244 1
gene  1 45 139 0.5715165346882533 0 23366.0 0.5715165346882533 1
gene  1 46 139 0.5293561669729401 0 23367.0 0.5293561669729401 1
gene  1 50 139 -0.02178017459066763 0 23371.0 -0.02178017459066763 1
gene  1 54 139 0.7524346458414879 0 23375.0 0.7524346458414879 1
gene  1 56 139 -0.0706485428603655 0 23377.0 -0.0706485428603655 1
gene  1 61 139 0.3209119167252215 0 23382.0 0.3209119167252215 1
gene  1 75 139 -0.275674894158164 0 23396.0 -0.275674894158164 1
gene  1 77 139 0.5550690558139446 0 23398.0 0.5550690558139446 1
gene  1 81 139 0.766115775316817 0 23402.0 0.766115775316817 1
gene  1 89 139 -0.01300845541369848 0 23410.0 -0.01300845541369848 1
gene  1 90 139 0.12400683156282892 0 23411.0 0.12400683156282892 1
gene  1 95 139 0.32384888047521426 0 23416.0 0.32384888047521426 1
gene  1 109 139 0.07971183188332367 0 23430.0 0.07971183188332367 1
gene  1 110 139 -0.16085723705535773 0 23431.0 -0.16085723705535773 1
gene  1 119 139 0.050885824823542425 0 23440.0 0.050885824823542425 1
gene  1 132 139 0.29720122171999547 0 23453.0 0.29720122171999547 1
gene  1 133 139 0.08074221497431197 0 23454.0 0.08074221497431197 1
gene  1 136 139 -0.48124358014459084 0 23457.0 -0.48124358014459084 1
gene  1 139 139 0.5411052104027579 1 23460.0 0.5411052104027579 1
gene  1 140 139 -0.005169392754759493 1 23461.0 -0.005169392754759493 1
gene  1 143 139 0.07550340225497279 1 23464.0 0.07550340225497279 1
gene  1 151 139 -0.4256568257029187 1 23472.0 -0.4256568257029187 1
gene  1 152 139 0.1317816144113259 1 23473.0 0.1317816144113259 1
gene  1 153 139 0.45109089407240344 1 23474.0 0.45109089407240344 1
gene  1 167 139 0.04260661233515521 1 23488.0 0.04260661233515521 1
gene  1 169 139 0.3841928925467691 1 23490.0 0.3841928925467691 1
gene  1 4 140 -0.14737956737129315 0 23494.0 -0.14737956737129315 1
gene  1 9 140 -0.10790116939059578 0 23499.0 -0.10790116939059578 1
gene  1 12 140 0.9853560730009727 0 23502.0 0.9853560730009727 1
gene  1 14 140 0.15568524595824845 0 23504.0 0.15568524595824845 1
gene  1 17 140 -0.14208091812011722 0 23507.0 -0.14208091812011722 1
gene  1 18 140 -0.47186320742537946 0 23508.0 -0.47186320742537946 1
gene  1 22 140 -0.12194278196065911 0 23512.0 -0.12194278196065911 1
gene  1 32 140 0.052525671962745595 0 23522.0 0.052525671962745595 1
gene  1 33 140 0.26021973234743534 0 23523.0 0.26021973234743534 1
gene  1 34 140 -0.15644056748343774 0 23524.0 -0.15644056748343774 1
gene  1 43 140 -0.4269674912546655 0 23533.0 -0.4269674912546655 1
gene  1 47 140 -0.00511718579006365 0 23537.0 -0.00511718579006365 1
gene  1 49 140 -0.7159691428628672 0 23539.0 -0.7159691428628672 1
gene  1 51 140 -0.2643270206615148 0 23541.0 -0.2643270206615148 1
gene  1 53 140 -0.08039368538461747 0 23543.0 -0.08039368538461747 1
gene  1 61 140 -0.18496070287024655 0 23551.0 -0.18496070287024655 1
gene  1 62 140 0.3214887529016486 0 23552.0 0.3214887529016486 1
gene  1 69 140 -0.023255937293498723 0 23559.0 -0.023255937293498723 1
gene  1 71 140 -0.4432937735029542 0 23561.0 -0.4432937735029542 1
gene  1 72 140 0.10416151553835337 0 23562.0 0.10416151553835337 1
gene  1 78 140 0.26119295495483386 0 23568.0 0.26119295495483386 1
gene  1 81 140 0.35123788635565595 0 23571.0 0.35123788635565595 1
gene  1 83 140 0.9656560169331388 0 23573.0 0.9656560169331388 1
gene  1 86 140 -0.10799928795935933 0 23576.0 -0.10799928795935933 1
gene  1 87 140 0.36866293273318673 0 23577.0 0.36866293273318673 1
gene  1 88 140 -0.6238987023550473 0 23578.0 -0.6238987023550473 1
gene  1 90 140 -0.22643691486448744 0 23580.0 -0.22643691486448744 1
gene  1 94 140 0.22289159737527087 0 23584.0 0.22289159737527087 1
gene  1 95 140 0.06782742737641007 0 23585.0 0.06782742737641007 1
gene  1 103 140 0.4331134252022519 0 23593.0 0.4331134252022519 1
gene  1 104 140 0.22393287866153974 0 23594.0 0.22393287866153974 1
gene  1 111 140 0.18484610816374297 0 23601.0 0.18484610816374297 1
gene  1 115 140 0.02693530910884482 0 23605.0 0.02693530910884482 1
gene  1 117 140 -0.2904520208249554 0 23607.0 -0.2904520208249554 1
gene  1 118 140 -0.09010875305739789 0 23608.0 -0.09010875305739789 1
gene  1 123 140 -0.8059298685060152 0 23613.0 -0.8059298685060152 1
gene  1 125 140 -0.054887096120620704 0 23615.0 -0.054887096120620704 1
gene  1 139 140 -1.0870103620045617 0 23629.0 -1.0870103620045617 1
gene  1 141 140 0.6808953949401664 1 23631.0 0.6808953949401664 1
gene  1 142 140 0.8495814166300611 1 23632.0 0.8495814166300611 1
gene  1 143 140 -0.21455298558497776 1 23633.0 -0.21455298558497776 1
gene  1 144 140 0.21736370275660422 1 23634.0 0.21736370275660422 1
gene  1 148 140 -0.3838683883636517 1 23638.0 -0.3838683883636517 1
gene  1 152 140 -0.18618137369491566 1 23642.0 -0.18618137369491566 1
gene  1 154 140 0.20803124670113093 1 23644.0 0.20803124670113093 1
gene  1 168 140 -0.7153118414681999 1 23658.0 -0.7153118414681999 1
gene  1 3 141 -0.1459629274461934 0 23662.0 -0.1459629274461934 1
gene  1 6 141 -0.7465454491803356 0 23665.0 -0.7465454491803356 1
gene  1 8 141 -0.10048279779287766 0 23667.0 -0.10048279779287766 1
gene  1 9 141 -0.0891084493801053 0 23668.0 -0.0891084493801053 1
gene  1 10 141 -0.17205625510338754 0 23669.0 -0.17205625510338754 1
gene  1 11 141 0.09618839612590441 0 23670.0 0.09618839612590441 1
gene  1 17 141 -0.09119092333796913 0 23676.0 -0.09119092333796913 1
gene  1 20 141 0.46112388247491165 0 23679.0 0.46112388247491165 1
gene  1 22 141 0.8558787859681645 0 23681.0 0.8558787859681645 1
gene  1 39 141 -0.10644431670751697 0 23698.0 -0.10644431670751697 1
gene  1 46 141 6.623502712199344E-4 0 23705.0 6.623502712199344E-4 1
gene  1 47 141 -0.4446667052292081 0 23706.0 -0.4446667052292081 1
gene  1 52 141 0.7205172135701731 0 23711.0 0.7205172135701731 1
gene  1 55 141 -0.2595559845463024 0 23714.0 -0.2595559845463024 1
gene  1 60 141 -0.2180126852588525 0 23719.0 -0.2180126852588525 1
gene  1 61 141 -0.38800929984252785 0 23720.0 -0.38800929984252785 1
gene  1 62 141 0.0931155266665048 0 23721.0 0.0931155266665048 1
gene  1 65 141 0.12545930231400731 0 23724.0 0.12545930231400731 1
gene  1 67 141 -0.6773141515236264 0 23726.0 -0.6773141515236264 1
gene  1 69 141 -0.14042617547734537 0 23728.0 -0.14042617547734537 1
gene  1 73 141 0.21020554385016382 0 23732.0 0.21020554385016382 1
gene  1 74 141 -0.3954075724227134 0 23733.0 -0.3954075724227134 1
gene  1 77 141 0.21667124654559877 0 23736.0 0.21667124654559877 1
gene  1 80 141 -0.09501848684873947 0 23739.0 -0.09501848684873947 1
gene  1 81 141 -0.39812097009474956 0 23740.0 -0.39812097009474956 1
gene  1 90 141 -0.13117472314814305 0 23749.0 -0.13117472314814305 1
gene  1 98 141 -0.02225942622563934 0 23757.0 -0.02225942622563934 1
gene  1 101 141 -0.04908380979700025 0 23760.0 -0.04908380979700025 1
gene  1 105 141 -0.23708749576051869 0 23764.0 -0.23708749576051869 1
gene  1 118 141 -0.39031303868186484 0 23777.0 -0.39031303868186484 1
gene  1 120 141 0.8919645092051148 0 23779.0 0.8919645092051148 1
gene  1 121 141 1.0588025715139684 0 23780.0 1.0588025715139684 1
gene  1 127 141 0.0616443209617431 0 23786.0 0.0616443209617431 1
gene  1 138 141 -0.41269965299924155 0 23797.0 -0.41269965299924155 1
gene  1 139 141 0.08720207931713228 0 23798.0 0.08720207931713228 1
gene  1 147 141 0.30628628596793944 1 23806.0 0.30628628596793944 1
gene  1 3 142 -0.5239915559070424 0 23831.0 -0.5239915559070424 1
gene  1 8 142 -0.003103002355502378 0 23836.0 -0.003103002355502378 1
gene  1 10 142 -0.03230048305985926 0 23838.0 -0.03230048305985926 1
gene  1 13 142 -0.0796562032822447 0 23841.0 -0.0796562032822447 1
gene  1 16 142 0.013148185392186804 0 23844.0 0.013148185392186804 1
gene  1 17 142 0.7231898015954731 0 23845.0 0.7231898015954731 1
gene  1 18 142 0.09172004847177101 0 23846.0 0.09172004847177101 1
gene  1 23 142 0.14707225927681639 0 23851.0 0.14707225927681639 1
gene  1 29 142 0.1555853086758629 0 23857.0 0.1555853086758629 1
gene  1 33 142 -0.04142117988433493 0 23861.0 -0.04142117988433493 1
gene  1 39 142 -0.06981289528390598 0 23867.0 -0.06981289528390598 1
gene  1 40 142 -0.1984668731832545 0 23868.0 -0.1984668731832545 1
gene  1 45 142 -0.1187648125202556 0 23873.0 -0.1187648125202556 1
gene  1 54 142 -0.019468192732833095 0 23882.0 -0.019468192732833095 1
gene  1 60 142 0.2538975973170271 0 23888.0 0.2538975973170271 1
gene  1 63 142 0.8581892087383538 0 23891.0 0.8581892087383538 1
gene  1 67 142 -0.18894885397991762 0 23895.0 -0.18894885397991762 1
gene  1 70 142 -0.09243610918146386 0 23898.0 -0.09243610918146386 1
gene  1 75 142 -0.025338249919460584 0 23903.0 -0.025338249919460584 1
gene  1 79 142 0.002781008956650056 0 23907.0 0.002781008956650056 1
gene  1 81 142 -0.224938412705592 0 23909.0 -0.224938412705592 0
gene  1 88 142 -0.3420388888590328 0 23916.0 -0.3420388888590328 1
gene  1 92 142 -0.07783559057851461 0 23920.0 -0.07783559057851461 1
gene  1 93 142 0.12440278928855987 0 23921.0 0.12440278928855987 1
gene  1 95 142 0.06566665784491449 0 23923.0 0.06566665784491449 0
gene  1 96 142 0.2891975854831258 0 23924.0 0.2891975854831258 1
gene  1 98 142 -0.36013029116246587 0 23926.0 -0.36013029116246587 1
gene  1 102 142 0.09111883123566225 0 23930.0 0.09111883123566225 1
gene  1 106 142 0.2729913075581197 0 23934.0 0.2729913075581197 1
gene  1 110 142 0.190748102890206 0 23938.0 0.190748102890206 1
gene  1 113 142 0.4556025569250145 0 23941.0 0.4556025569250145 1
gene  1 114 142 -0.29031066568509345 0 23942.0 -0.29031066568509345 1
gene  1 118 142 0.13813815327180246 0 23946.0 0.13813815327180246 1
gene  1 119 142 -0.22825748628154072 0 23947.0 -0.22825748628154072 1
gene  1 121 142 0.4526538437985347 0 23949.0 0.4526538437985347 1
gene  1 124 142 0.8553113483774433 0 23952.0 0.8553113483774433 1
gene  1 126 142 -0.003133752291799616 0 23954.0 -0.003133752291799616 1
gene  1 127 142 0.21411071720864142 0 23955.0 0.21411071720864142 1
gene  1 130 142 -0.7421269349472666 0 23958.0 -0.7421269349472666 1
gene  1 131 142 -0.9410362243471989 0 23959.0 -0.9410362243471989 1
gene  1 133 142 -0.037172083725580674 0 23961.0 -0.037172083725580674 1
gene  1 136 142 0.8521921650224117 0 23964.0 0.8521921650224117 1
gene  1 139 142 0.008625608725549516 0 23967.0 0.008625608725549516 1
gene  1 147 142 -0.7156125937965959 1 23975.0 -0.7156125937965959 1
gene  1 150 142 0.15583097186784448 1 23978.0 0.15583097186784448 1
gene  1 152 142 -0.07808881782775245 1 23980.0 -0.07808881782775245 1
gene  1 165 142 -0.26104109882759274 1 23993.0 -0.26104109882759274 1
gene  1 166 142 -0.1710461102551467 1 23994.0 -0.1710461102551467 1
gene  1 168 142 -0.8475501799429546 1 23996.0 -0.8475501799429546 1
gene  1 1 143 -0.25821496893618534 0 23998.0 -0.25821496893618534 1
gene  1 2 143 -0.040333052463973645 0 23999.0 -0.040333052463973645 1
gene  1 10 143 0.07521624811032751 0 24007.0 0.07521624811032751 1
gene  1 16 143 0.6350702087427446 0 24013.0 0.6350702087427446 1
gene  1 19 143 -0.09015536317354608 0 24016.0 -0.09015536317354608 1
gene  1 24 143 -0.26392123416288377 0 24021.0 -0.26392123416288377 1
gene  1 37 143 1.0734044185458844 0 24034.0 1.0734044185458844 1
gene  1 39 143 0.015795836947785104 0 24036.0 0.015795836947785104 1
gene  1 41 143 -0.09979697656837365 0 24038.0 -0.09979697656837365 1
gene  1 42 143 0.24604302799049788 0 24039.0 0.24604302799049788 1
gene  1 43 143 -0.5519498272285301 0 24040.0 -0.5519498272285301 1
gene  1 48 143 -0.17250160770187656 0 24045.0 -0.17250160770187656 1
gene  1 50 143 0.2329945843675803 0 24047.0 0.2329945843675803 1
gene  1 51 143 -0.3092733414732847 0 24048.0 -0.3092733414732847 1
gene  1 56 143 0.09697061989082359 0 24053.0 0.09697061989082359 1
gene  1 63 143 0.30747566815891897 0 24060.0 0.30747566815891897 1
gene  1 68 143 0.02717819345500136 0 24065.0 0.02717819345500136 1
gene  1 80 143 -0.21767406114431548 0 24077.0 -0.21767406114431548 1
gene  1 81 143 7.687539753169353E-4 0 24078.0 7.687539753169353E-4 1
gene  1 84 143 -0.22576487721778607 0 24081.0 -0.22576487721778607 1
gene  1 86 143 -0.7425536358140837 0 24083.0 -0.7425536358140837 1
gene  1 93 143 0.13862703373298907 0 24090.0 0.13862703373298907 1
gene  1 94 143 -0.047383169704688255 0 24091.0 -0.047383169704688255 1
gene  1 96 143 0.6543840160454764 0 24093.0 0.6543840160454764 1
gene  1 99 143 -0.4908133679557164 0 24096.0 -0.4908133679557164 1
gene  1 103 143 0.584816454763459 0 24100.0 0.584816454763459 1
gene  1 105 143 -0.17703325582164495 0 24102.0 -0.17703325582164495 1
gene  1 116 143 0.03780003798986213 0 24113.0 0.03780003798986213 1
gene  1 119 143 -0.02740835205944512 0 24116.0 -0.02740835205944512 1
gene  1 123 143 0.42822943451979967 0 24120.0 0.42822943451979967 1
gene  1 128 143 0.12110967979482676 0 24125.0 0.12110967979482676 1
gene  1 137 143 0.177216499141024 0 24134.0 0.177216499141024 1
gene  1 138 143 -0.006572658701451496 0 24135.0 -0.006572658701451496 1
gene  1 139 143 0.01354741874792808 0 24136.0 0.01354741874792808 1
gene  1 140 143 0.03933062212904838 0 24137.0 0.03933062212904838 1
gene  1 141 143 0.1434760160327157 0 24138.0 0.1434760160327157 1
gene  1 143 143 -0.6041188831046259 1 24140.0 -0.6041188831046259 1
gene  1 148 143 -0.07968918063057816 1 24145.0 -0.07968918063057816 1
gene  1 150 143 0.1541406416443713 1 24147.0 0.1541406416443713 1
gene  1 152 143 0.32570118775226087 1 24149.0 0.32570118775226087 1
gene  1 166 143 -1.2784640982224424 1 24163.0 -1.2784640982224424 1
gene  1 1 144 -0.09226690194751608 0 24167.0 -0.09226690194751608 1
gene  1 3 144 0.10473479749473068 0 24169.0 0.10473479749473068 1
gene  1 10 144 -0.059041251142773726 0 24176.0 -0.059041251142773726 1
gene  1 15 144 -0.2374649100388065 0 24181.0 -0.2374649100388065 1
gene  1 16 144 0.2840019238311883 0 24182.0 0.2840019238311883 1
gene  1 18 144 0.009491537843443115 0 24184.0 0.009491537843443115 1
gene  1 20 144 -0.14924516023501533 0 24186.0 -0.14924516023501533 1
gene  1 21 144 0.02534817932687282 0 24187.0 0.02534817932687282 1
gene  1 27 144 0.09090154984579346 0 24193.0 0.09090154984579346 1
gene  1 28 144 -0.1900245095826179 0 24194.0 -0.1900245095826179 1
gene  1 29 144 -0.3061860705529517 0 24195.0 -0.3061860705529517 1
gene  1 37 144 -0.44149632237404896 0 24203.0 -0.44149632237404896 1
gene  1 50 144 0.5524373587547654 0 24216.0 0.5524373587547654 1
gene  1 51 144 -0.15258016995240106 0 24217.0 -0.15258016995240106 1
gene  1 54 144 0.11672573010314091 0 24220.0 0.11672573010314091 1
gene  1 61 144 0.05914893710298433 0 24227.0 0.05914893710298433 1
gene  1 64 144 0.0031681880004412353 0 24230.0 0.0031681880004412353 1
gene  1 66 144 0.06311105895766822 0 24232.0 0.06311105895766822 1
gene  1 68 144 -0.12212304244228323 0 24234.0 -0.12212304244228323 1
gene  1 71 144 0.8572357943666964 0 24237.0 0.8572357943666964 1
gene  1 74 144 0.5220124422822527 0 24240.0 0.5220124422822527 1
gene  1 75 144 -0.05576174929484185 0 24241.0 -0.05576174929484185 1
gene  1 77 144 0.16592671777507104 0 24243.0 0.16592671777507104 1
gene  1 79 144 0.11894110407980876 0 24245.0 0.11894110407980876 1
gene  1 80 144 -0.1337349854720581 0 24246.0 -0.1337349854720581 1
gene  1 81 144 0.4500558427649822 0 24247.0 0.4500558427649822 1
gene  1 82 144 0.13190875234114502 0 24248.0 0.13190875234114502 1
gene  1 84 144 -0.07182925122281172 0 24250.0 -0.07182925122281172 1
gene  1 87 144 0.19478287570592398 0 24253.0 0.19478287570592398 1
gene  1 90 144 -0.015774006154766387 0 24256.0 -0.015774006154766387 1
gene  1 92 144 -0.17092044070534873 0 24258.0 -0.17092044070534873 1
gene  1 94 144 -0.01796728951578188 0 24260.0 -0.01796728951578188 1
gene  1 99 144 -1.268229468554403 0 24265.0 -1.268229468554403 1
gene  1 101 144 -0.037217810152545355 0 24267.0 -0.037217810152545355 1
gene  1 102 144 0.48768710526444176 0 24268.0 0.48768710526444176 1
gene  1 104 144 0.2977180014809297 0 24270.0 0.2977180014809297 1
gene  1 106 144 -0.28864198850278144 0 24272.0 -0.28864198850278144 1
gene  1 114 144 0.011345394922465751 0 24280.0 0.011345394922465751 1
gene  1 117 144 -0.017912335439611626 0 24283.0 -0.017912335439611626 1
gene  1 122 144 -0.04983845156068606 0 24288.0 -0.04983845156068606 1
gene  1 131 144 -0.09929821522525396 0 24297.0 -0.09929821522525396 1
gene  1 132 144 0.3408441126113159 0 24298.0 0.3408441126113159 1
gene  1 141 144 0.017721169458085863 0 24307.0 0.017721169458085863 1
gene  1 145 144 -0.24530832456297938 1 24311.0 -0.24530832456297938 1
gene  1 147 144 -0.21438353545452912 1 24313.0 -0.21438353545452912 1
gene  1 165 144 0.04288150794487786 1 24331.0 0.04288150794487786 1
gene  1 168 144 -0.10167420194839587 1 24334.0 -0.10167420194839587 1
gene  1 169 144 0.14884883437482727 1 24335.0 0.14884883437482727 1
gene  1 2 145 0.40894549205990127 0 24337.0 0.40894549205990127 1
gene  1 8 145 0.01882647298527388 0 24343.0 0.01882647298527388 1
gene  1 12 145 0.09199637352774251 0 24347.0 0.09199637352774251 1
gene  1 15 145 0.21455820411725024 0 24350.0 0.21455820411725024 1
gene  1 17 145 -0.5821035440111497 0 24352.0 -0.5821035440111497 1
gene  1 19 145 -0.15768291515740307 0 24354.0 -0.15768291515740307 1
gene  1 21 145 0.07180083573372176 0 24356.0 0.07180083573372176 1
gene  1 23 145 -0.026898554474889078 0 24358.0 -0.026898554474889078 1
gene  1 24 145 0.19782528851990455 0 24359.0 0.19782528851990455 1
gene  1 28 145 0.21790361453462492 0 24363.0 0.21790361453462492 1
gene  1 29 145 -0.33779092773053354 0 24364.0 -0.33779092773053354 1
gene  1 38 145 0.004984942338382085 0 24373.0 0.004984942338382085 1
gene  1 40 145 0.4456007936060469 0 24375.0 0.4456007936060469 1
gene  1 45 145 -0.10491882492075713 0 24380.0 -0.10491882492075713 1
gene  1 47 145 -0.10582562479380703 0 24382.0 -0.10582562479380703 1
gene  1 50 145 0.9351280157077184 0 24385.0 0.9351280157077184 1
gene  1 53 145 0.009483410831578387 0 24388.0 0.009483410831578387 1
gene  1 55 145 -0.650446001647499 0 24390.0 -0.650446001647499 1
gene  1 57 145 0.14006963155260813 0 24392.0 0.14006963155260813 1
gene  1 60 145 -0.1285424375900696 0 24395.0 -0.1285424375900696 1
gene  1 62 145 0.11483135647640111 0 24397.0 0.11483135647640111 1
gene  1 63 145 -0.12171579068750389 0 24398.0 -0.12171579068750389 1
gene  1 67 145 0.04150004906269697 0 24402.0 0.04150004906269697 1
gene  1 69 145 -0.21096178846721667 0 24404.0 -0.21096178846721667 1
gene  1 79 145 -0.11297098254408944 0 24414.0 -0.11297098254408944 1
gene  1 81 145 0.1327776957488399 0 24416.0 0.1327776957488399 0
gene  1 86 145 0.22796602242393568 0 24421.0 0.22796602242393568 1
gene  1 87 145 -0.3965262200869916 0 24422.0 -0.3965262200869916 1
gene  1 90 145 0.31776476950044724 0 24425.0 0.31776476950044724 1
gene  1 92 145 -0.08634400902591216 0 24427.0 -0.08634400902591216 1
gene  1 93 145 -0.11603944570932188 0 24428.0 -0.11603944570932188 1
gene  1 97 145 -0.24968412607792173 0 24432.0 -0.24968412607792173 1
gene  1 106 145 -0.0024472218320387984 0 24441.0 -0.0024472218320387984 1
gene  1 107 145 0.254241068454728 0 24442.0 0.254241068454728 1
gene  1 109 145 0.14110072277302899 0 24444.0 0.14110072277302899 1
gene  1 113 145 -0.37172316977114905 0 24448.0 -0.37172316977114905 1
gene  1 119 145 0.13465141729929428 0 24454.0 0.13465141729929428 1
gene  1 122 145 0.25482047783724243 0 24457.0 0.25482047783724243 1
gene  1 132 145 -0.5120848259862342 0 24467.0 -0.5120848259862342 1
gene  1 134 145 0.7722166236509973 0 24469.0 0.7722166236509973 1
gene  1 135 145 0.1879955111331054 0 24470.0 0.1879955111331054 1
gene  1 138 145 -0.36486236096593944 0 24473.0 -0.36486236096593944 1
gene  1 139 145 -0.05473712685873233 0 24474.0 -0.05473712685873233 1
gene  1 140 145 -0.6917110795213584 0 24475.0 -0.6917110795213584 1
gene  1 144 145 -0.013355166647891561 0 24479.0 -0.013355166647891561 1
gene  1 148 145 0.14347511832358298 1 24483.0 0.14347511832358298 1
gene  1 152 145 -0.9055944561244725 1 24487.0 -0.9055944561244725 1
gene  1 166 145 0.0475983282971768 1 24501.0 0.0475983282971768 1
gene  1 2 146 -0.12031020011854922 0 24506.0 -0.12031020011854922 1
gene  1 3 146 -0.15690837606541938 0 24507.0 -0.15690837606541938 1
gene  1 4 146 0.19462772948489593 0 24508.0 0.19462772948489593 1
gene  1 6 146 -0.3213417862179731 0 24510.0 -0.3213417862179731 1
gene  1 8 146 -0.3547078327403253 0 24512.0 -0.3547078327403253 1
gene  1 10 146 -0.0918533573594509 0 24514.0 -0.0918533573594509 1
gene  1 17 146 0.2166001223890753 0 24521.0 0.2166001223890753 1
gene  1 18 146 0.07734234406207158 0 24522.0 0.07734234406207158 1
gene  1 20 146 0.713200335720398 0 24524.0 0.713200335720398 1
gene  1 28 146 0.24379718327707528 0 24532.0 0.24379718327707528 1
gene  1 32 146 0.10352338671473234 0 24536.0 0.10352338671473234 1
gene  1 35 146 -0.1644925287999221 0 24539.0 -0.1644925287999221 1
gene  1 40 146 0.319785208323522 0 24544.0 0.319785208323522 1
gene  1 45 146 0.20876287883630373 0 24549.0 0.20876287883630373 1
gene  1 47 146 0.13321218243436533 0 24551.0 0.13321218243436533 1
gene  1 75 146 -0.004405216385165417 0 24579.0 -0.004405216385165417 1
gene  1 85 146 1.0235462905162902 0 24589.0 1.0235462905162902 1
gene  1 86 146 -1.4379056491587172 0 24590.0 -1.4379056491587172 1
gene  1 96 146 -0.5899498148453839 0 24600.0 -0.5899498148453839 1
gene  1 110 146 0.4949353384555203 0 24614.0 0.4949353384555203 1
gene  1 113 146 0.06986283627881196 0 24617.0 0.06986283627881196 1
gene  1 118 146 0.08461109003341392 0 24622.0 0.08461109003341392 1
gene  1 123 146 0.0757374919793005 0 24627.0 0.0757374919793005 1
gene  1 126 146 -0.0068497140402485855 0 24630.0 -0.0068497140402485855 1
gene  1 127 146 0.8797992058862297 0 24631.0 0.8797992058862297 1
gene  1 133 146 -0.6769808617746707 0 24637.0 -0.6769808617746707 1
gene  1 137 146 0.6090746766063053 0 24641.0 0.6090746766063053 1
gene  1 153 146 0.176657788374451 1 24657.0 0.176657788374451 1
gene  1 167 146 0.16811050740736627 1 24671.0 0.16811050740736627 1
gene  1 1 147 0.04137847034173099 0 24674.0 0.04137847034173099 1
gene  1 5 147 -0.6607619893315273 0 24678.0 -0.6607619893315273 1
gene  1 6 147 0.04842435863663924 0 24679.0 0.04842435863663924 1
gene  1 9 147 0.20234572585010419 0 24682.0 0.20234572585010419 1
gene  1 28 147 0.13876552062936512 0 24701.0 0.13876552062936512 1
gene  1 29 147 -0.09715371199728529 0 24702.0 -0.09715371199728529 1
gene  1 32 147 -1.2531887705534546 0 24705.0 -1.2531887705534546 1
gene  1 39 147 -0.02176404027538756 0 24712.0 -0.02176404027538756 1
gene  1 41 147 0.10272551627683346 0 24714.0 0.10272551627683346 1
gene  1 47 147 0.18230091810821522 0 24720.0 0.18230091810821522 1
gene  1 48 147 -0.049108474304021515 0 24721.0 -0.049108474304021515 1
gene  1 52 147 -0.15538905873259107 0 24725.0 -0.15538905873259107 1
gene  1 53 147 -0.03205702061702895 0 24726.0 -0.03205702061702895 1
gene  1 55 147 -0.09136308929527552 0 24728.0 -0.09136308929527552 1
gene  1 56 147 0.10629813344087533 0 24729.0 0.10629813344087533 1
gene  1 57 147 0.1644396379435781 0 24730.0 0.1644396379435781 1
gene  1 62 147 0.406615749195816 0 24735.0 0.406615749195816 1
gene  1 67 147 0.13579190637603505 0 24740.0 0.13579190637603505 1
gene  1 70 147 -0.22666638640400735 0 24743.0 -0.22666638640400735 1
gene  1 79 147 -0.39221992184813953 0 24752.0 -0.39221992184813953 1
gene  1 83 147 -0.5565151060039175 0 24756.0 -0.5565151060039175 1
gene  1 84 147 -0.874750663410407 0 24757.0 -0.874750663410407 1
gene  1 90 147 -0.19525878529209445 0 24763.0 -0.19525878529209445 1
gene  1 92 147 -0.02655755240020588 0 24765.0 -0.02655755240020588 1
gene  1 102 147 -0.049644156545419316 0 24775.0 -0.049644156545419316 1
gene  1 107 147 -0.41471468695532365 0 24780.0 -0.41471468695532365 1
gene  1 112 147 0.4391524165272644 0 24785.0 0.4391524165272644 1
gene  1 115 147 0.19516148955381418 0 24788.0 0.19516148955381418 1
gene  1 126 147 -0.4000293085462838 0 24799.0 -0.4000293085462838 1
gene  1 128 147 0.05254571640329547 0 24801.0 0.05254571640329547 1
gene  1 133 147 -0.018465340109705547 0 24806.0 -0.018465340109705547 1
gene  1 136 147 0.8364817277378255 0 24809.0 0.8364817277378255 1
gene  1 137 147 -0.08049108743035327 0 24810.0 -0.08049108743035327 1
gene  1 146 147 0.07200411392541334 0 24819.0 0.07200411392541334 1
gene  1 3 148 -0.5203024232987716 0 24845.0 -0.5203024232987716 1
gene  1 4 148 -0.1421535716320037 0 24846.0 -0.1421535716320037 1
gene  1 10 148 -0.26253885195571935 0 24852.0 -0.26253885195571935 1
gene  1 11 148 0.12236477789792137 0 24853.0 0.12236477789792137 1
gene  1 13 148 -0.07519388023805625 0 24855.0 -0.07519388023805625 1
gene  1 14 148 0.33921515256030654 0 24856.0 0.33921515256030654 1
gene  1 16 148 -0.23106442993169216 0 24858.0 -0.23106442993169216 1
gene  1 20 148 0.22385810112040916 0 24862.0 0.22385810112040916 1
gene  1 27 148 0.016331098354863946 0 24869.0 0.016331098354863946 1
gene  1 30 148 0.14137731305967804 0 24872.0 0.14137731305967804 1
gene  1 40 148 -0.15750074321579022 0 24882.0 -0.15750074321579022 1
gene  1 45 148 -0.7257395632121753 0 24887.0 -0.7257395632121753 1
gene  1 56 148 -0.6617172359478636 0 24898.0 -0.6617172359478636 1
gene  1 57 148 -0.01981957159544164 0 24899.0 -0.01981957159544164 1
gene  1 61 148 -0.2879808897481755 0 24903.0 -0.2879808897481755 1
gene  1 72 148 0.6094756062163817 0 24914.0 0.6094756062163817 1
gene  1 74 148 0.06842211667172668 0 24916.0 0.06842211667172668 1
gene  1 75 148 0.10893262748552632 0 24917.0 0.10893262748552632 1
gene  1 77 148 -0.6966631212433303 0 24919.0 -0.6966631212433303 1
gene  1 78 148 0.4407560218636992 0 24920.0 0.4407560218636992 1
gene  1 79 148 -0.0604505402609212 0 24921.0 -0.0604505402609212 1
gene  1 87 148 0.024361325171304488 0 24929.0 0.024361325171304488 1
gene  1 88 148 -0.07937990184024928 0 24930.0 -0.07937990184024928 1
gene  1 90 148 -0.8248304139870218 0 24932.0 -0.8248304139870218 1
gene  1 91 148 -0.2934524233749573 0 24933.0 -0.2934524233749573 1
gene  1 97 148 -0.3782948166124698 0 24939.0 -0.3782948166124698 1
gene  1 99 148 -0.3929031084891247 0 24941.0 -0.3929031084891247 1
gene  1 105 148 0.6374262060635797 0 24947.0 0.6374262060635797 1
gene  1 115 148 -0.760476648997064 0 24957.0 -0.760476648997064 1
gene  1 119 148 -0.19721803820278644 0 24961.0 -0.19721803820278644 1
gene  1 126 148 -0.2195037393220354 0 24968.0 -0.2195037393220354 1
gene  1 128 148 0.02225908551557167 0 24970.0 0.02225908551557167 1
gene  1 130 148 -0.0462521690153291 0 24972.0 -0.0462521690153291 1
gene  1 131 148 0.21041174467010132 0 24973.0 0.21041174467010132 1
gene  1 138 148 -0.2720427260341596 0 24980.0 -0.2720427260341596 1
gene  1 139 148 0.3178074759836266 0 24981.0 0.3178074759836266 1
gene  1 141 148 0.7042132316622349 0 24983.0 0.7042132316622349 1
gene  1 144 148 0.32544616169642626 0 24986.0 0.32544616169642626 1
gene  1 146 148 0.47642231919255396 0 24988.0 0.47642231919255396 1
gene  1 151 148 -0.17351861013205744 1 24993.0 -0.17351861013205744 1
gene  1 154 148 -0.3659529293071848 1 24996.0 -0.3659529293071848 1
gene  1 5 149 0.4009164027250669 0 25016.0 0.4009164027250669 1
gene  1 8 149 -0.2632868927129769 0 25019.0 -0.2632868927129769 1
gene  1 9 149 0.13477953159840908 0 25020.0 0.13477953159840908 1
gene  1 12 149 -0.10487706145229013 0 25023.0 -0.10487706145229013 1
gene  1 15 149 -0.15680869517668825 0 25026.0 -0.15680869517668825 1
gene  1 20 149 -0.10599491095260925 0 25031.0 -0.10599491095260925 1
gene  1 26 149 -1.0665350590583305 0 25037.0 -1.0665350590583305 1
gene  1 29 149 -0.7054560356126285 0 25040.0 -0.7054560356126285 1
gene  1 33 149 -0.06103635401706205 0 25044.0 -0.06103635401706205 1
gene  1 34 149 -0.0945558632513395 0 25045.0 -0.0945558632513395 1
gene  1 35 149 0.6240589834260973 0 25046.0 0.6240589834260973 1
gene  1 38 149 -0.9511618925937531 0 25049.0 -0.9511618925937531 1
gene  1 40 149 -0.28969803458418303 0 25051.0 -0.28969803458418303 1
gene  1 53 149 0.26011728564963116 0 25064.0 0.26011728564963116 1
gene  1 55 149 0.0536409306403282 0 25066.0 0.0536409306403282 1
gene  1 61 149 0.059439429097145974 0 25072.0 0.059439429097145974 1
gene  1 67 149 -0.07857378307979784 0 25078.0 -0.07857378307979784 1
gene  1 68 149 0.02027309856704486 0 25079.0 0.02027309856704486 1
gene  1 72 149 0.057601449831019974 0 25083.0 0.057601449831019974 1
gene  1 74 149 0.17154919949340958 0 25085.0 0.17154919949340958 1
gene  1 75 149 -0.46210375510294377 0 25086.0 -0.46210375510294377 1
gene  1 76 149 0.2779923538721816 0 25087.0 0.2779923538721816 1
gene  1 79 149 0.13920036841813804 0 25090.0 0.13920036841813804 1
gene  1 81 149 0.39433141050184245 0 25092.0 0.39433141050184245 1
gene  1 84 149 0.12499557378860787 0 25095.0 0.12499557378860787 1
gene  1 92 149 0.2840179112195933 0 25103.0 0.2840179112195933 1
gene  1 93 149 -0.08418309827662149 0 25104.0 -0.08418309827662149 1
gene  1 97 149 0.20174065312843298 0 25108.0 0.20174065312843298 1
gene  1 98 149 -0.04667120670990961 0 25109.0 -0.04667120670990961 1
gene  1 101 149 0.19958575769709308 0 25112.0 0.19958575769709308 1
gene  1 105 149 -0.1677337124736838 0 25116.0 -0.1677337124736838 1
gene  1 108 149 0.08013580778817589 0 25119.0 0.08013580778817589 1
gene  1 111 149 0.856496333954411 0 25122.0 0.856496333954411 1
gene  1 118 149 0.16170324924732413 0 25129.0 0.16170324924732413 1
gene  1 120 149 0.06405636720972574 0 25131.0 0.06405636720972574 1
gene  1 125 149 -0.05988596940972585 0 25136.0 -0.05988596940972585 1
gene  1 129 149 1.1681747186469396 0 25140.0 1.1681747186469396 1
gene  1 134 149 1.0192283843650187 0 25145.0 1.0192283843650187 1
gene  1 135 149 0.4303912332266121 0 25146.0 0.4303912332266121 1
gene  1 137 149 0.14996641333071603 0 25148.0 0.14996641333071603 1
gene  1 141 149 -0.1275318453692879 0 25152.0 -0.1275318453692879 1
gene  1 142 149 -0.7767815161697555 0 25153.0 -0.7767815161697555 1
gene  1 143 149 -0.130141402986676 0 25154.0 -0.130141402986676 1
gene  1 147 149 -0.8731014413436117 0 25158.0 -0.8731014413436117 1
gene  1 151 149 -0.28756413741322157 1 25162.0 -0.28756413741322157 1
gene  1 155 149 0.09163883076501501 1 25166.0 0.09163883076501501 1
gene  1 168 149 0.7727858478847148 1 25179.0 0.7727858478847148 1
gene  1 1 150 0.10192402000689782 0 25181.0 0.10192402000689782 1
gene  1 11 150 -0.16330795107312995 0 25191.0 -0.16330795107312995 1
gene  1 16 150 -0.0403365418658124 0 25196.0 -0.0403365418658124 1
gene  1 22 150 -0.4700700769192935 0 25202.0 -0.4700700769192935 1
gene  1 26 150 -0.3892713428455323 0 25206.0 -0.3892713428455323 1
gene  1 27 150 0.17027431890032935 0 25207.0 0.17027431890032935 1
gene  1 40 150 0.0027777378078725073 0 25220.0 0.0027777378078725073 1
gene  1 45 150 -0.6662880398565734 0 25225.0 -0.6662880398565734 1
gene  1 46 150 0.0950383345185885 0 25226.0 0.0950383345185885 1
gene  1 48 150 0.026637088835799596 0 25228.0 0.026637088835799596 1
gene  1 53 150 0.1658282971344363 0 25233.0 0.1658282971344363 1
gene  1 55 150 0.18104800662805876 0 25235.0 0.18104800662805876 1
gene  1 56 150 -0.34316989821879335 0 25236.0 -0.34316989821879335 1
gene  1 60 150 -0.22311657801096071 0 25240.0 -0.22311657801096071 1
gene  1 78 150 0.2145916405689095 0 25258.0 0.2145916405689095 1
gene  1 90 150 0.026551466461385134 0 25270.0 0.026551466461385134 1
gene  1 91 150 -0.23711589105522857 0 25271.0 -0.23711589105522857 1
gene  1 92 150 -0.13124678740151946 0 25272.0 -0.13124678740151946 1
gene  1 93 150 -0.030934258642632835 0 25273.0 -0.030934258642632835 1
gene  1 101 150 1.144469420192494 0 25281.0 1.144469420192494 1
gene  1 103 150 0.35663141533796294 0 25283.0 0.35663141533796294 1
gene  1 105 150 -0.08711157400864365 0 25285.0 -0.08711157400864365 1
gene  1 107 150 0.09909034449253795 0 25287.0 0.09909034449253795 1
gene  1 120 150 0.05649592597618547 0 25300.0 0.05649592597618547 1
gene  1 131 150 -0.09318730237619871 0 25311.0 -0.09318730237619871 1
gene  1 132 150 -0.11278541088630747 0 25312.0 -0.11278541088630747 1
gene  1 136 150 -0.20343181135666127 0 25316.0 -0.20343181135666127 1
gene  1 140 150 -1.1555177115280748 0 25320.0 -1.1555177115280748 1
gene  1 143 150 0.6821731632978056 0 25323.0 0.6821731632978056 1
gene  1 145 150 0.02595714651756248 0 25325.0 0.02595714651756248 1
gene  1 146 150 0.19989071018818755 0 25326.0 0.19989071018818755 1
gene  1 152 150 0.3225332418492933 1 25332.0 0.3225332418492933 1
gene  1 6 151 -0.5730304313442995 0 25355.0 -0.5730304313442995 1
gene  1 12 151 0.2708565542453576 0 25361.0 0.2708565542453576 1
gene  1 15 151 0.7854344118997413 0 25364.0 0.7854344118997413 1
gene  1 21 151 -0.20055785434761136 0 25370.0 -0.20055785434761136 1
gene  1 24 151 -0.13634135080055468 0 25373.0 -0.13634135080055468 1
gene  1 27 151 0.49917975739624526 0 25376.0 0.49917975739624526 1
gene  1 36 151 0.8373181960535969 0 25385.0 0.8373181960535969 1
gene  1 37 151 -0.08929251678724776 0 25386.0 -0.08929251678724776 1
gene  1 39 151 -0.05775712099052732 0 25388.0 -0.05775712099052732 1
gene  1 51 151 -0.0025348484343408334 0 25400.0 -0.0025348484343408334 1
gene  1 63 151 -0.6661082496757637 0 25412.0 -0.6661082496757637 1
gene  1 69 151 0.0946414661399245 0 25418.0 0.0946414661399245 1
gene  1 77 151 0.15928255038208866 0 25426.0 0.15928255038208866 1
gene  1 82 151 0.02075163153964292 0 25431.0 0.02075163153964292 1
gene  1 83 151 -0.2149738569727474 0 25432.0 -0.2149738569727474 1
gene  1 98 151 -0.08413707069481142 0 25447.0 -0.08413707069481142 1
gene  1 100 151 0.26552696656211916 0 25449.0 0.26552696656211916 1
gene  1 103 151 -0.9861393451137985 0 25452.0 -0.9861393451137985 1
gene  1 112 151 -0.11998226107200155 0 25461.0 -0.11998226107200155 1
gene  1 119 151 -0.39798214108339636 0 25468.0 -0.39798214108339636 1
gene  1 125 151 0.2809178005232197 0 25474.0 0.2809178005232197 1
gene  1 126 151 -0.28645681221949904 0 25475.0 -0.28645681221949904 1
gene  1 131 151 -0.18988181098778054 0 25480.0 -0.18988181098778054 1
gene  1 146 151 -0.2806922091462853 0 25495.0 -0.2806922091462853 1
gene  1 151 151 -0.12054781101445183 1 25500.0 -0.12054781101445183 1
gene  1 153 151 0.21458436727218397 1 25502.0 0.21458436727218397 1
gene  1 155 151 -0.15435197643483511 1 25504.0 -0.15435197643483511 1
gene  1 165 151 0.19243968018296617 1 25514.0 0.19243968018296617 1
gene  1 167 151 0.03545078743299049 1 25516.0 0.03545078743299049 1
gene  1 8 152 -0.11535005180676762 0 25526.0 -0.11535005180676762 1
gene  1 9 152 0.1585045837052364 0 25527.0 0.1585045837052364 1
gene  1 11 152 -0.11597178376026013 0 25529.0 -0.11597178376026013 1
gene  1 15 152 -0.07333823895721042 0 25533.0 -0.07333823895721042 1
gene  1 33 152 -0.02417062327772798 0 25551.0 -0.02417062327772798 1
gene  1 34 152 -0.2099476714762011 0 25552.0 -0.2099476714762011 1
gene  1 37 152 -0.06350034389693873 0 25555.0 -0.06350034389693873 1
gene  1 39 152 -0.16069016026066713 0 25557.0 -0.16069016026066713 1
gene  1 42 152 0.05326787830653239 0 25560.0 0.05326787830653239 1
gene  1 51 152 0.3210311534223645 0 25569.0 0.3210311534223645 1
gene  1 62 152 0.20327297331038496 0 25580.0 0.20327297331038496 1
gene  1 69 152 0.034752207812558375 0 25587.0 0.034752207812558375 1
gene  1 72 152 0.16862981846678338 0 25590.0 0.16862981846678338 1
gene  1 75 152 0.02203391928224223 0 25593.0 0.02203391928224223 1
gene  1 76 152 0.08155332938307581 0 25594.0 0.08155332938307581 1
gene  1 77 152 -0.11261453040202879 0 25595.0 -0.11261453040202879 1
gene  1 82 152 0.231506650449391 0 25600.0 0.231506650449391 1
gene  1 83 152 0.7304079532256909 0 25601.0 0.7304079532256909 1
gene  1 88 152 -0.04876386336098931 0 25606.0 -0.04876386336098931 1
gene  1 90 152 0.07171204227934763 0 25608.0 0.07171204227934763 1
gene  1 95 152 0.29607714609956737 0 25613.0 0.29607714609956737 1
gene  1 100 152 0.1925409056437316 0 25618.0 0.1925409056437316 1
gene  1 102 152 -0.37075617205451455 0 25620.0 -0.37075617205451455 1
gene  1 103 152 -0.3291113001465198 0 25621.0 -0.3291113001465198 1
gene  1 114 152 0.19955117184089344 0 25632.0 0.19955117184089344 1
gene  1 118 152 0.12233726644474464 0 25636.0 0.12233726644474464 1
gene  1 119 152 -1.000824380305311 0 25637.0 -1.000824380305311 1
gene  1 122 152 0.2852917600711665 0 25640.0 0.2852917600711665 1
gene  1 125 152 -0.3221587853883108 0 25643.0 -0.3221587853883108 1
gene  1 127 152 -0.2386491433833056 0 25645.0 -0.2386491433833056 1
gene  1 137 152 -0.37845783883011885 0 25655.0 -0.37845783883011885 1
gene  1 139 152 0.7592271261853978 0 25657.0 0.7592271261853978 1
gene  1 142 152 0.029647592980252845 0 25660.0 0.029647592980252845 1
gene  1 145 152 0.006818153172120568 0 25663.0 0.006818153172120568 1
gene  1 14 153 0.15920112578798035 0 25701.0 0.15920112578798035 1
gene  1 16 153 -0.0669076048788481 0 25703.0 -0.0669076048788481 1
gene  1 18 153 0.24562692998698246 0 25705.0 0.24562692998698246 1
gene  1 19 153 0.13288079746340253 0 25706.0 0.13288079746340253 1
gene  1 22 153 0.02410522931004505 0 25709.0 0.02410522931004505 1
gene  1 29 153 -0.27203852408918894 0 25716.0 -0.27203852408918894 1
gene  1 30 153 0.4784354693481389 0 25717.0 0.4784354693481389 1
gene  1 34 153 -0.12948425993418086 0 25721.0 -0.12948425993418086 1
gene  1 41 153 -0.1506140568651069 0 25728.0 -0.1506140568651069 1
gene  1 42 153 -0.05244745774875991 0 25729.0 -0.05244745774875991 1
gene  1 45 153 -0.11125984049790057 0 25732.0 -0.11125984049790057 1
gene  1 48 153 0.07616041956751465 0 25735.0 0.07616041956751465 1
gene  1 50 153 -0.011336167056379597 0 25737.0 -0.011336167056379597 1
gene  1 54 153 -0.49817361128699805 0 25741.0 -0.49817361128699805 1
gene  1 56 153 0.26025853276568234 0 25743.0 0.26025853276568234 1
gene  1 57 153 0.18758985180186788 0 25744.0 0.18758985180186788 1
gene  1 61 153 0.4405367146817007 0 25748.0 0.4405367146817007 1
gene  1 62 153 0.1807564209512569 0 25749.0 0.1807564209512569 1
gene  1 64 153 -0.3107226790734544 0 25751.0 -0.3107226790734544 1
gene  1 66 153 -0.4053753240319963 0 25753.0 -0.4053753240319963 1
gene  1 73 153 -0.612883172501787 0 25760.0 -0.612883172501787 1
gene  1 81 153 -0.13084578882012102 0 25768.0 -0.13084578882012102 1
gene  1 86 153 -1.133771046915709 0 25773.0 -1.133771046915709 1
gene  1 87 153 -0.16646075062943938 0 25774.0 -0.16646075062943938 1
gene  1 92 153 -0.03502315340520623 0 25779.0 -0.03502315340520623 1
gene  1 95 153 -0.10645570899882029 0 25782.0 -0.10645570899882029 1
gene  1 109 153 0.2931416613734021 0 25796.0 0.2931416613734021 1
gene  1 114 153 0.8904421429144539 0 25801.0 0.8904421429144539 1
gene  1 116 153 0.8481341318287381 0 25803.0 0.8481341318287381 1
gene  1 117 153 -0.35974141350839756 0 25804.0 -0.35974141350839756 1
gene  1 118 153 -0.015733505003792638 0 25805.0 -0.015733505003792638 1
gene  1 122 153 0.045793992448079426 0 25809.0 0.045793992448079426 1
gene  1 125 153 0.5982830413035908 0 25812.0 0.5982830413035908 1
gene  1 128 153 -0.04973421487346015 0 25815.0 -0.04973421487346015 1
gene  1 133 153 -0.07284178085440111 0 25820.0 -0.07284178085440111 1
gene  1 135 153 0.37781718811555615 0 25822.0 0.37781718811555615 1
gene  1 143 153 1.3643970046210065 0 25830.0 1.3643970046210065 1
gene  1 145 153 -1.211125794349324 0 25832.0 -1.211125794349324 1
gene  1 152 153 -0.04262837190060241 0 25839.0 -0.04262837190060241 1
gene  1 2 154 0.10157622749085315 0 25858.0 0.10157622749085315 1
gene  1 15 154 0.07904958463043087 0 25871.0 0.07904958463043087 1
gene  1 28 154 -0.036090425374626534 0 25884.0 -0.036090425374626534 1
gene  1 32 154 -0.07020965843824159 0 25888.0 -0.07020965843824159 1
gene  1 34 154 0.15488885633474744 0 25890.0 0.15488885633474744 1
gene  1 42 154 -0.027377349672906795 0 25898.0 -0.027377349672906795 1
gene  1 45 154 0.08289320954945657 0 25901.0 0.08289320954945657 1
gene  1 46 154 0.3160198797536312 0 25902.0 0.3160198797536312 1
gene  1 57 154 0.14108021323704129 0 25913.0 0.14108021323704129 1
gene  1 59 154 0.021647437359190058 0 25915.0 0.021647437359190058 1
gene  1 60 154 0.25452036858294513 0 25916.0 0.25452036858294513 1
gene  1 61 154 0.10823858383768228 0 25917.0 0.10823858383768228 1
gene  1 62 154 0.11417644096721477 0 25918.0 0.11417644096721477 1
gene  1 67 154 -0.01896215431955764 0 25923.0 -0.01896215431955764 1
gene  1 71 154 0.09725561499545282 0 25927.0 0.09725561499545282 1
gene  1 78 154 0.09307106362105277 0 25934.0 0.09307106362105277 1
gene  1 83 154 -0.09106368818362977 0 25939.0 -0.09106368818362977 1
gene  1 93 154 0.031844584001133394 0 25949.0 0.031844584001133394 1
gene  1 99 154 0.010452250386740004 0 25955.0 0.010452250386740004 1
gene  1 102 154 -0.8927516616122495 0 25958.0 -0.8927516616122495 1
gene  1 105 154 -0.22780357063928097 0 25961.0 -0.22780357063928097 1
gene  1 107 154 0.4074425377586741 0 25963.0 0.4074425377586741 1
gene  1 112 154 -0.17461555550549776 0 25968.0 -0.17461555550549776 1
gene  1 114 154 -0.009835814252963287 0 25970.0 -0.009835814252963287 1
gene  1 119 154 0.4137168595721571 0 25975.0 0.4137168595721571 1
gene  1 130 154 0.07993555468034848 0 25986.0 0.07993555468034848 1
gene  1 133 154 0.2937766622900895 0 25989.0 0.2937766622900895 1
gene  1 139 154 -0.15289091186081033 0 25995.0 -0.15289091186081033 1
gene  1 140 154 0.5073992840831519 0 25996.0 0.5073992840831519 1
gene  1 146 154 -0.07783460169368346 0 26002.0 -0.07783460169368346 1
gene  1 152 154 -0.1787471553650985 0 26008.0 -0.1787471553650985 1
gene  1 154 154 0.07208320778695079 1 26010.0 0.07208320778695079 1
gene  1 165 154 -0.1388495285923444 1 26021.0 -0.1388495285923444 1
gene  1 167 154 0.026550975349700467 1 26023.0 0.026550975349700467 1
gene  1 4 155 -0.11200897523882733 0 26029.0 -0.11200897523882733 1
gene  1 16 155 0.35578572277858234 0 26041.0 0.35578572277858234 1
gene  1 18 155 0.267667829307898 0 26043.0 0.267667829307898 1
gene  1 32 155 -0.21494920713956417 0 26057.0 -0.21494920713956417 1
gene  1 57 155 -0.21157212733885472 0 26082.0 -0.21157212733885472 1
gene  1 69 155 0.1552319429215616 0 26094.0 0.1552319429215616 1
gene  1 78 155 0.2860764731038219 0 26103.0 0.2860764731038219 1
gene  1 84 155 -0.0021783701285618684 0 26109.0 -0.0021783701285618684 1
gene  1 87 155 -0.12838590089234614 0 26112.0 -0.12838590089234614 1
gene  1 89 155 0.20843612343375745 0 26114.0 0.20843612343375745 1
gene  1 93 155 0.11660659022007469 0 26118.0 0.11660659022007469 1
gene  1 98 155 0.6714638931841739 0 26123.0 0.6714638931841739 1
gene  1 107 155 -0.010068208199339769 0 26132.0 -0.010068208199339769 1
gene  1 110 155 0.014074967564852811 0 26135.0 0.014074967564852811 1
gene  1 113 155 -0.0019177707351276524 0 26138.0 -0.0019177707351276524 1
gene  1 116 155 -0.12342891476086353 0 26141.0 -0.12342891476086353 1
gene  1 120 155 -0.08475674509965617 0 26145.0 -0.08475674509965617 1
gene  1 123 155 0.9403138094291132 0 26148.0 0.9403138094291132 1
gene  1 125 155 0.05814831325603548 0 26150.0 0.05814831325603548 1
gene  1 136 155 -0.1201230087849421 0 26161.0 -0.1201230087849421 1
gene  1 144 155 0.08781545151466563 0 26169.0 0.08781545151466563 1
gene  1 146 155 0.4184780566783156 0 26171.0 0.4184780566783156 1
gene  1 147 155 0.06275944586647542 0 26172.0 0.06275944586647542 1
gene  1 155 155 -0.0140447355409875 1 26180.0 -0.0140447355409875 1
gene  1 169 155 -0.06687435794617369 1 26194.0 -0.06687435794617369 1
gene  1 8 165 0.1398346510716789 0 27723.0 0.1398346510716789 1
gene  1 9 165 -0.09333231528208545 0 27724.0 -0.09333231528208545 1
gene  1 10 165 0.07373044750250667 0 27725.0 0.07373044750250667 1
gene  1 13 165 -0.06156209167794701 0 27728.0 -0.06156209167794701 1
gene  1 22 165 0.11755774878759345 0 27737.0 0.11755774878759345 1
gene  1 29 165 0.018413943143707173 0 27744.0 0.018413943143707173 1
gene  1 30 165 -0.17407043551322945 0 27745.0 -0.17407043551322945 1
gene  1 31 165 0.15315000354258906 0 27746.0 0.15315000354258906 1
gene  1 33 165 0.08602704636664557 0 27748.0 0.08602704636664557 1
gene  1 42 165 0.08125812720020999 0 27757.0 0.08125812720020999 1
gene  1 43 165 0.22480645663765297 0 27758.0 0.22480645663765297 1
gene  1 58 165 -0.947991727819001 0 27773.0 -0.947991727819001 1
gene  1 59 165 -0.394746215332182 0 27774.0 -0.394746215332182 1
gene  1 69 165 0.329556448652179 0 27784.0 0.329556448652179 1
gene  1 84 165 0.48166545902131713 0 27799.0 0.48166545902131713 1
gene  1 98 165 0.04875410950995167 0 27813.0 0.04875410950995167 1
gene  1 99 165 -0.03401847225254445 0 27814.0 -0.03401847225254445 1
gene  1 103 165 -0.8331487389278642 0 27818.0 -0.8331487389278642 1
gene  1 121 165 0.24788187565303246 0 27836.0 0.24788187565303246 1
gene  1 122 165 0.04801691251586176 0 27837.0 0.04801691251586176 1
gene  1 126 165 -0.2067428866576232 0 27841.0 -0.2067428866576232 1
gene  1 132 165 0.046216619007862836 0 27847.0 0.046216619007862836 1
gene  1 133 165 0.13685576813425387 0 27848.0 0.13685576813425387 1
gene  1 145 165 -0.07897081001249098 0 27860.0 -0.07897081001249098 1
gene  1 150 165 0.7473552129207811 0 27865.0 0.7473552129207811 1
gene  1 155 165 0.08311502827144947 0 27870.0 0.08311502827144947 1
gene  1 167 165 0.1424102987444306 1 27882.0 0.1424102987444306 1
gene  1 168 165 -0.1551964443221806 1 27883.0 -0.1551964443221806 1
gene  1 169 165 0.42608114800700275 1 27884.0 0.42608114800700275 1
gene  1 4 166 0.02799248074215499 0 27888.0 0.02799248074215499 1
gene  1 8 166 0.1804447029055332 0 27892.0 0.1804447029055332 1
gene  1 10 166 -0.1664625997553869 0 27894.0 -0.1664625997553869 1
gene  1 18 166 -0.14472184957513584 0 27902.0 -0.14472184957513584 1
gene  1 28 166 0.19876899473930398 0 27912.0 0.19876899473930398 1
gene  1 29 166 -0.7472711516164965 0 27913.0 -0.7472711516164965 1
gene  1 31 166 -0.10544015933065023 0 27915.0 -0.10544015933065023 1
gene  1 34 166 -0.15344424801922216 0 27918.0 -0.15344424801922216 1
gene  1 36 166 0.050575336463461164 0 27920.0 0.050575336463461164 1
gene  1 40 166 0.07232954256489546 0 27924.0 0.07232954256489546 1
gene  1 43 166 -0.11372539648064195 0 27927.0 -0.11372539648064195 1
gene  1 45 166 -0.8440345363569044 0 27929.0 -0.8440345363569044 1
gene  1 47 166 -0.055837620958822116 0 27931.0 -0.055837620958822116 1
gene  1 63 166 0.006512138488969144 0 27947.0 0.006512138488969144 1
gene  1 69 166 -0.0243847379982588 0 27953.0 -0.0243847379982588 1
gene  1 70 166 0.03069895223640065 0 27954.0 0.03069895223640065 1
gene  1 74 166 -0.04523452113980017 0 27958.0 -0.04523452113980017 1
gene  1 77 166 -0.13320887888533842 0 27961.0 -0.13320887888533842 1
gene  1 81 166 0.22628463322344547 0 27965.0 0.22628463322344547 1
gene  1 88 166 -0.1534898526404227 0 27972.0 -0.1534898526404227 1
gene  1 96 166 0.10137069312352952 0 27980.0 0.10137069312352952 1
gene  1 122 166 -0.058158797277916605 0 28006.0 -0.058158797277916605 1
gene  1 123 166 -0.33828992467044616 0 28007.0 -0.33828992467044616 1
gene  1 131 166 0.06412673047267929 0 28015.0 0.06412673047267929 1
gene  1 135 166 0.1189174106568146 0 28019.0 0.1189174106568146 1
gene  1 136 166 -0.09261808808712511 0 28020.0 -0.09261808808712511 1
gene  1 141 166 -0.061142730325743334 0 28025.0 -0.061142730325743334 1
gene  1 151 166 0.1976738333015312 0 28035.0 0.1976738333015312 1
gene  1 152 166 -0.10294192844883833 0 28036.0 -0.10294192844883833 1
gene  1 155 166 0.09862146809572914 0 28039.0 0.09862146809572914 1
gene  1 165 166 0.10557124598975835 0 28049.0 0.10557124598975835 1
gene  1 1 167 -0.1279703292616902 0 28054.0 -0.1279703292616902 1
gene  1 6 167 0.10964523521766216 0 28059.0 0.10964523521766216 1
gene  1 15 167 0.15570817793777086 0 28068.0 0.15570817793777086 1
gene  1 23 167 0.010163935664583665 0 28076.0 0.010163935664583665 1
gene  1 25 167 -0.14562243510926604 0 28078.0 -0.14562243510926604 1
gene  1 31 167 -0.1276232803670773 0 28084.0 -0.1276232803670773 1
gene  1 33 167 -0.7206418087117058 0 28086.0 -0.7206418087117058 1
gene  1 39 167 0.09627185566496313 0 28092.0 0.09627185566496313 1
gene  1 42 167 -0.11480825746813997 0 28095.0 -0.11480825746813997 1
gene  1 54 167 -0.06978053166585438 0 28107.0 -0.06978053166585438 1
gene  1 59 167 -0.020497433166984158 0 28112.0 -0.020497433166984158 1
gene  1 60 167 0.07998285617426679 0 28113.0 0.07998285617426679 1
gene  1 64 167 0.02152824834503753 0 28117.0 0.02152824834503753 1
gene  1 74 167 0.058636170343072544 0 28127.0 0.058636170343072544 1
gene  1 78 167 -0.05458276154496234 0 28131.0 -0.05458276154496234 1
gene  1 84 167 -0.06408363493914124 0 28137.0 -0.06408363493914124 1
gene  1 94 167 0.021201797318610653 0 28147.0 0.021201797318610653 1
gene  1 97 167 0.12751614337544703 0 28150.0 0.12751614337544703 1
gene  1 98 167 0.03854223627919766 0 28151.0 0.03854223627919766 1
gene  1 100 167 0.22025534516610668 0 28153.0 0.22025534516610668 1
gene  1 101 167 -0.8711977777233074 0 28154.0 -0.8711977777233074 1
gene  1 105 167 -0.6004409165639715 0 28158.0 -0.6004409165639715 1
gene  1 109 167 0.28059187586995105 0 28162.0 0.28059187586995105 1
gene  1 113 167 -0.1447552956872365 0 28166.0 -0.1447552956872365 1
gene  1 116 167 0.6842402754788178 0 28169.0 0.6842402754788178 1
gene  1 126 167 0.04911640866551993 0 28179.0 0.04911640866551993 1
gene  1 130 167 -0.5534308039434965 0 28183.0 -0.5534308039434965 1
gene  1 131 167 -0.2146398309907233 0 28184.0 -0.2146398309907233 1
gene  1 134 167 0.07299207269647533 0 28187.0 0.07299207269647533 1
gene  1 151 167 0.03735629406392733 0 28204.0 0.03735629406392733 1
gene  1 168 167 -0.14024591312997414 1 28221.0 -0.14024591312997414 1
gene  1 4 168 -0.02647761864686903 0 28226.0 -0.02647761864686903 1
gene  1 7 168 -0.049978209379387184 0 28229.0 -0.049978209379387184 1
gene  1 11 168 -0.29467799189751975 0 28233.0 -0.29467799189751975 1
gene  1 14 168 0.012916145178946334 0 28236.0 0.012916145178946334 1
gene  1 15 168 0.05513659919335971 0 28237.0 0.05513659919335971 1
gene  1 17 168 -0.12615367053048923 0 28239.0 -0.12615367053048923 1
gene  1 20 168 0.0312947371631197 0 28242.0 0.0312947371631197 1
gene  1 26 168 -0.20644182308912654 0 28248.0 -0.20644182308912654 1
gene  1 27 168 0.10565272611346974 0 28249.0 0.10565272611346974 1
gene  1 32 168 -0.006596288501467262 0 28254.0 -0.006596288501467262 1
gene  1 38 168 -0.40780797418075093 0 28260.0 -0.40780797418075093 1
gene  1 44 168 0.1672416516112773 0 28266.0 0.1672416516112773 1
gene  1 47 168 0.38966302629983823 0 28269.0 0.38966302629983823 1
gene  1 50 168 0.1017730691643072 0 28272.0 0.1017730691643072 1
gene  1 51 168 -0.07032145395221899 0 28273.0 -0.07032145395221899 1
gene  1 52 168 -0.025280798227740632 0 28274.0 -0.025280798227740632 1
gene  1 54 168 -0.41146075115503716 0 28276.0 -0.41146075115503716 1
gene  1 56 168 -0.11413367800382163 0 28278.0 -0.11413367800382163 1
gene  1 58 168 -0.07843977708468093 0 28280.0 -0.07843977708468093 1
gene  1 59 168 0.12177103663194276 0 28281.0 0.12177103663194276 1
gene  1 63 168 0.07123328769609395 0 28285.0 0.07123328769609395 1
gene  1 65 168 -0.052273667494698264 0 28287.0 -0.052273667494698264 1
gene  1 75 168 0.061152030440899306 0 28297.0 0.061152030440899306 1
gene  1 77 168 0.18123120739769338 0 28299.0 0.18123120739769338 1
gene  1 93 168 -0.3098430630328824 0 28315.0 -0.3098430630328824 1
gene  1 94 168 0.43330311983680414 0 28316.0 0.43330311983680414 1
gene  1 99 168 0.013028662207763707 0 28321.0 0.013028662207763707 1
gene  1 101 168 0.06535242922422403 0 28323.0 0.06535242922422403 1
gene  1 103 168 -0.2036072436935784 0 28325.0 -0.2036072436935784 1
gene  1 111 168 -0.040730507892796725 0 28333.0 -0.040730507892796725 1
gene  1 113 168 -0.0806898241768232 0 28335.0 -0.0806898241768232 1
gene  1 117 168 0.04450351270910032 0 28339.0 0.04450351270910032 1
gene  1 125 168 0.013056855885710622 0 28347.0 0.013056855885710622 1
gene  1 129 168 -0.10489677808594346 0 28351.0 -0.10489677808594346 1
gene  1 130 168 0.12693151508540818 0 28352.0 0.12693151508540818 1
gene  1 131 168 -0.2240890620001905 0 28353.0 -0.2240890620001905 1
gene  1 134 168 0.10474346257538185 0 28356.0 0.10474346257538185 1
gene  1 136 168 -0.1235761047675865 0 28358.0 -0.1235761047675865 1
gene  1 142 168 0.3195787727927595 0 28364.0 0.3195787727927595 1
gene  1 143 168 -0.17368375016559243 0 28365.0 -0.17368375016559243 1
gene  1 146 168 -0.11083797832821936 0 28368.0 -0.11083797832821936 1
gene  1 147 168 0.12148608475725714 0 28369.0 0.12148608475725714 1
gene  1 154 168 -0.14943608192806648 0 28376.0 -0.14943608192806648 1
gene  1 155 168 -0.0765573072764733 0 28377.0 -0.0765573072764733 1
gene  1 1 169 0.27840368966153795 0 28392.0 0.27840368966153795 1
gene  1 2 169 -0.011952914790311664 0 28393.0 -0.011952914790311664 1
gene  1 7 169 0.16467142553065398 0 28398.0 0.16467142553065398 1
gene  1 8 169 -0.13748580932358273 0 28399.0 -0.13748580932358273 1
gene  1 10 169 0.021753788607508845 0 28401.0 0.021753788607508845 1
gene  1 13 169 0.06983381182811932 0 28404.0 0.06983381182811932 1
gene  1 20 169 -0.3376642392002491 0 28411.0 -0.3376642392002491 1
gene  1 23 169 -0.060373234014159644 0 28414.0 -0.060373234014159644 1
gene  1 25 169 0.15721478769534555 0 28416.0 0.15721478769534555 1
gene  1 31 169 -0.10131779857700347 0 28422.0 -0.10131779857700347 1
gene  1 32 169 0.052985968906147235 0 28423.0 0.052985968906147235 1
gene  1 34 169 -0.13699722715647422 0 28425.0 -0.13699722715647422 1
gene  1 36 169 -0.14158106991583244 0 28427.0 -0.14158106991583244 1
gene  1 37 169 0.08355738276920553 0 28428.0 0.08355738276920553 1
gene  1 43 169 -0.11464637492886072 0 28434.0 -0.11464637492886072 1
gene  1 44 169 0.07837944458106406 0 28435.0 0.07837944458106406 1
gene  1 45 169 0.019018401548165226 0 28436.0 0.019018401548165226 1
gene  1 54 169 0.21804279176135205 0 28445.0 0.21804279176135205 1
gene  1 56 169 0.03661763461482064 0 28447.0 0.03661763461482064 1
gene  1 58 169 -0.009946226653714207 0 28449.0 -0.009946226653714207 1
gene  1 59 169 0.14908423552927325 0 28450.0 0.14908423552927325 1
gene  1 64 169 0.11008235176771007 0 28455.0 0.11008235176771007 1
gene  1 72 169 -0.06654210502985149 0 28463.0 -0.06654210502985149 1
gene  1 78 169 0.16599596279006307 0 28469.0 0.16599596279006307 1
gene  1 88 169 -0.34456722347994106 0 28479.0 -0.34456722347994106 1
gene  1 91 169 -0.03984941510995167 0 28482.0 -0.03984941510995167 1
gene  1 92 169 -0.1298092934331261 0 28483.0 -0.1298092934331261 1
gene  1 93 169 0.08531639151290746 0 28484.0 0.08531639151290746 1
gene  1 94 169 0.04457771390069449 0 28485.0 0.04457771390069449 1
gene  1 99 169 0.11264277210394102 0 28490.0 0.11264277210394102 1
gene  1 100 169 -0.0474773585401541 0 28491.0 -0.0474773585401541 1
gene  1 106 169 -0.2590376497695155 0 28497.0 -0.2590376497695155 1
gene  1 110 169 -0.0604836570795831 0 28501.0 -0.0604836570795831 1
gene  1 111 169 -0.027554475868139486 0 28502.0 -0.027554475868139486 1
gene  1 119 169 -0.12374854826303483 0 28510.0 -0.12374854826303483 1
gene  1 120 169 -0.9963294906854294 0 28511.0 -0.9963294906854294 1
gene  1 125 169 0.033928663023559166 0 28516.0 0.033928663023559166 1
gene  1 126 169 0.02845288409252324 0 28517.0 0.02845288409252324 1
gene  1 129 169 0.32296862891112227 0 28520.0 0.32296862891112227 1
gene  1 137 169 0.08282006367974981 0 28528.0 0.08282006367974981 1
gene  1 148 169 -0.5431723762571858 0 28539.0 -0.5431723762571858 1
gene  1 149 169 -0.005240571635445434 0 28540.0 -0.005240571635445434 1
gene  1 167 169 0.09948401049529808 0 28558.0 0.09948401049529808 1
gene  1 169 169 0.111170773198883 1 28560.0 0.111170773198883 1
gene  1 10 127 -0.07319525821436557 0 28567.0 -0.07319525821436557 1
gene  1 35 126 -0.0834879255013608 0 28575.0 -0.0834879255013608 1
gene  1 10 174 -0.05440145855388023 0 28587.0 -0.05440145855388023 1
gene  1 174 142 0.11919547561905432 0 28588.0 0.11919547561905432 1
gene  1 141 151 -0.0780074251115255 0 28597.0 -0.0780074251115255 1
gene  1 132 135 -0.06432540828404534 0 28601.0 -0.06432540828404534 1
gene  1 40 178 -0.09733597708607601 0 28605.0 -0.09733597708607601 1
gene  1 178 150 1.2606953948567456 0 28606.0 1.2606953948567456 1
gene  1 11 184 0.08959553731621284 0 28626.0 0.08959553731621284 1
gene  1 184 150 0.27362796139615625 0 28627.0 0.27362796139615625 0
gene  1 137 196 -0.029221660741491996 0 28680.0 -0.029221660741491996 1
gene  1 196 169 0.10561464611160887 0 28681.0 0.10561464611160887 1
gene  1 84 132 -0.3822340264657436 0 28709.0 -0.3822340264657436 1
gene  1 5 150 -0.13244577971594682 0 28776.0 -0.13244577971594682 1
gene  1 134 137 0.18640749270004203 0 28807.0 0.18640749270004203 1
gene  1 124 140 0.3511718442952272 0 28830.0 0.3511718442952272 1
gene  1 22 227 0.22578309944572444 0 28845.0 0.22578309944572444 1
gene  1 227 141 0.1187363989195096 0 28846.0 0.1187363989195096 1
gene  1 10 230 0.06126662829359057 0 28859.0 0.06126662829359057 1
gene  1 230 139 -1.20499194764694 0 28860.0 -1.20499194764694 1
gene  1 129 125 -0.08092255074717264 0 28873.0 -0.08092255074717264 1
gene  1 36 145 0.04136614889221419 0 28879.0 0.04136614889221419 1
gene  1 23 147 0.09566848071598581 0 28916.0 0.09566848071598581 1
gene  1 89 149 3.4431297600427744 0 28958.0 3.4431297600427744 1
gene  1 53 136 1.4568004804750954 0 28970.0 1.4568004804750954 1
gene  1 142 142 -0.1375444250538117 1 28981.0 -0.1375444250538117 1
gene  1 93 165 0.23970829769123436 0 29033.0 0.23970829769123436 1
gene  1 1 269 -0.017438646867921216 0 29083.0 -0.017438646867921216 1
gene  1 269 139 -0.023342767833831806 0 29084.0 -0.023342767833831806 1
gene  1 66 142 0.16416989977155963 0 29089.0 0.16416989977155963 1
gene  1 65 174 -0.10560437365170554 0 29095.0 -0.10560437365170554 1
gene  1 53 128 -0.10178209629994818 0 29101.0 -0.10178209629994818 1
gene  1 83 141 2.386840379768495 0 29114.0 2.386840379768495 1
gene  1 105 130 0.13847408032131572 0 29119.0 0.13847408032131572 1
gene  1 28 278 0.17231753585313625 0 29136.0 0.17231753585313625 1
gene  1 278 146 -0.21987428263885586 0 29137.0 -0.21987428263885586 1
gene  1 29 281 -0.28339930173398303 0 29144.0 -0.28339930173398303 1
gene  1 281 130 0.09778308287314856 0 29145.0 0.09778308287314856 1
gene  1 57 152 -0.06723585099272335 0 29174.0 -0.06723585099272335 1
gene  1 73 137 -0.05180521520838633 0 29179.0 -0.05180521520838633 1
gene  1 47 287 0.5421644027427933 0 29185.0 0.5421644027427933 1
gene  1 287 168 -0.006096198692355154 0 29186.0 -0.006096198692355154 1
gene  1 76 278 0.13940226809341952 0 29199.0 0.13940226809341952 1
gene  1 96 139 -1.1916635739084112 0 29208.0 -1.1916635739084112 1
gene  1 62 296 -0.02333750347658987 0 29222.0 -0.02333750347658987 1
gene  1 296 137 0.18989361671086236 0 29223.0 0.18989361671086236 1
gene  1 8 296 -0.17526931606058163 0 29253.0 -0.17526931606058163 1
gene  1 54 308 -0.14610203333321173 0 29269.0 -0.14610203333321173 1
gene  1 308 144 0.02864917495735332 0 29270.0 0.02864917495735332 1
gene  1 69 281 -0.0906881928374865 0 29281.0 -0.0906881928374865 1
gene  1 88 135 -2.5736489656274126 0 29310.0 -2.5736489656274126 1
gene  1 126 278 -7.532801229783218 0 29319.0 -7.532801229783218 1
gene  1 140 141 6.817456955773387 0 29325.0 6.817456955773387 1
gene  1 76 167 -0.11718139726715805 0 29329.0 -0.11718139726715805 1
gene  1 138 196 0.0151200433917197 0 29337.0 0.0151200433917197 1
gene  1 165 152 -5.929908771390008 0 29349.0 -5.929908771390008 1
gene  1 30 141 0.14127161007354594 0 29355.0 0.14127161007354594 1
gene  1 146 135 -0.9510427103444704 0 29368.0 -0.9510427103444704 1
